Language model created by QuickLM on Sat Aug  3 00:42:25 EDT 2024
Copyright (c) 1996-2010 Carnegie Mellon University and Alexander I. Rudnicky

The model is in standard ARPA format, designed by Doug Paul while he was at MITRE.

The code that was used to produce this language model is available in Open Source.
Please visit http://www.speech.cs.cmu.edu/tools/ for more information

The (fixed) discount mass is 0.5. The backoffs are computed using the ratio method.
This model based on a corpus of 95 sentences and 175 words

\data\
ngram 1=175
ngram 2=295
ngram 3=286

\1-grams:
-1.0275 </s> -0.3010
-1.0275 <s> -0.2369
-1.7499 A -0.2906
-3.0052 ACROSS -0.2727
-3.0052 ADVISES -0.2582
-3.0052 AIRES -0.3006
-3.0052 AIRES. -0.2582
-3.0052 ALLEY -0.2582
-3.0052 ALONG -0.2727
-2.7042 AN -0.3002
-2.7042 ANDES -0.2573
-3.0052 APPROACHES -0.2582
-3.0052 ARGENTINE -0.3006
-3.0052 AROUND -0.2727
-3.0052 ARTIST -0.2582
-2.7042 ASADO -0.2577
-2.2270 AT -0.2717
-3.0052 BACKFIRES -0.2582
-3.0052 BALANCES -0.2582
-3.0052 BASEMENT -0.2582
-3.0052 BECKONS -0.2582
-3.0052 BED -0.2582
-3.0052 BENDS -0.2582
-3.0052 BREWS -0.2582
-3.0052 BROOMSTICK -0.3006
-2.7042 BUENOS -0.3002
-3.0052 CALCULATES -0.2582
-3.0052 CALCULUS -0.3006
-3.0052 CALMS -0.2582
-3.0052 CARNIVAL -0.2582
-3.0052 CASTS -0.2582
-3.0052 CHAMBER -0.2989
-3.0052 CHANGES -0.2582
-3.0052 CHILD -0.3006
-3.0052 CIRCLE -0.2582
-3.0052 CIRCULATES -0.2582
-3.0052 CITY -0.2582
-3.0052 CLASS -0.2582
-3.0052 CLOWN -0.3006
-3.0052 COAST -0.2582
-3.0052 COASTAL -0.3006
-3.0052 COMMON -0.2997
-3.0052 COMPLEX -0.3002
-3.0052 CONVERGES -0.2582
-3.0052 COORDINATE -0.3002
-3.0052 CREEPY -0.3006
-2.7042 CURVE -0.2577
-3.0052 DANCE -0.3006
-2.7042 DARK -0.2989
-3.0052 DELIVERS -0.2582
-3.0052 DELTA -0.2582
-3.0052 DERIVATIVE -0.3006
-3.0052 DERRY, -0.3006
-3.0052 DIAGON -0.3006
-3.0052 DISCOVERS -0.2582
-3.0052 DUMBLEDORE -0.3006
-3.0052 DURING -0.2727
-3.0052 EERIE -0.3006
-3.0052 EMERGES -0.2582
-3.0052 EQUATION -0.3006
-3.0052 EXAM -0.2582
-3.0052 FAMILY -0.3006
-3.0052 FILLS -0.2582
-3.0052 FLIES -0.2582
-3.0052 FLOOR -0.2582
-3.0052 FLOWS -0.2582
-2.7042 FOOTBALL -0.2997
-3.0052 FORBIDDEN -0.3006
-3.0052 FOREST -0.2582
-3.0052 FUNCTION -0.3006
-3.0052 FUNCTION'S -0.3006
-3.0052 GAUCHO -0.3006
-3.0052 GHOST -0.3006
-2.7042 GLACIER -0.2577
-3.0052 GRAPH -0.2582
-3.0052 GRAPHS -0.2582
-3.0052 GREAT -0.3006
-3.0052 GRYFFINDOR -0.3006
-3.0052 HALL -0.2582
-3.0052 HARRY -0.3006
-3.0052 HAUNTED -0.3006
-3.0052 HAUNTS -0.2582
-3.0052 HEART -0.2989
-3.0052 HERMIONE -0.3002
-3.0052 HOGSMEADE -0.2582
-3.0052 HOGWARTS -0.2582
-2.7042 HOTEL -0.2577
-3.0052 HOUSE -0.2582
-1.6435 IN -0.2634
-3.0052 INFLECTION -0.2582
-3.0052 INTEGRAL -0.3006
-3.0052 ISLAND -0.2582
-3.0052 ISOLATED -0.3006
-3.0052 JOKES -0.2582
-3.0052 KING -0.3006
-3.0052 LEARNS -0.2582
-2.7042 LIMIT -0.2577
-3.0052 MAINE -0.2582
-3.0052 MALBEC -0.3006
-3.0052 MARKET -0.2582
-3.0052 MARTIN -0.3002
-2.7042 MATCH -0.2582
-2.7042 MATE -0.3002
-3.0052 MEASURES -0.2582
-3.0052 MONSTER -0.3006
-2.7042 MOUNTAIN -0.3002
-3.0052 NEAR -0.2727
-3.0052 OBELISK -0.2582
-2.3062 OF -0.2248
-2.2270 ON -0.2727
-3.0052 OVERLOOK -0.3002
-3.0052 OWL -0.3006
-2.7042 PAMPAS -0.2577
-3.0052 PATAGONIA -0.3006
-3.0052 PATAGONIAN -0.3006
-3.0052 PATH -0.2582
-2.7042 PLANE -0.2582
-3.0052 PLAZA -0.3006
-3.0052 PLOTS -0.2582
-3.0052 POINT -0.2989
-3.0052 POTION -0.3006
-3.0052 POTIONS -0.3006
-3.0052 POTTER -0.3006
-3.0052 POURS -0.2582
-3.0052 PROVES -0.2582
-3.0052 QUIDDITCH -0.3002
-3.0052 REQUIREMENT -0.2582
-3.0052 RIDES -0.2582
-3.0052 RISES -0.2582
-2.7042 RIVER -0.3002
-3.0052 RON -0.3006
-2.5281 ROOM -0.2558
-3.0052 SAN -0.3006
-3.0052 SECRETS -0.2582
-3.0052 SEQUENCE -0.3006
-3.0052 SERIES -0.2582
-3.0052 SHADOW -0.2989
-3.0052 SHINES -0.2582
-3.0052 SIZZLES -0.2582
-3.0052 SMALL -0.3002
-3.0052 SOLVES -0.2582
-3.0052 SPELL -0.3006
-3.0052 STADIUM -0.2582
-3.0052 STEPHEN -0.3006
-3.0052 STEPPE -0.2582
-2.7042 STREET -0.3002
-3.0052 STRETCH -0.2582
-3.0052 STRUGGLES -0.2582
-3.0052 STUDENT -0.3006
-2.7042 STUDIES -0.2582
-3.0052 SUBWAY -0.2582
-3.0052 TANGO -0.2582
-3.0052 TERRIFIES -0.2582
-1.1990 THE -0.2685
-2.7042 THEOREM -0.2577
-3.0052 THROUGH -0.2727
-2.7042 TOWER -0.2577
-2.7042 TOWN -0.2577
-3.0052 TRAIL -0.2582
-3.0052 TRAIN -0.3006
-3.0052 TRAVELS -0.2582
-2.5281 UNDER -0.2727
-3.0052 UNRAVELS -0.2582
-3.0052 VARIABLE -0.3006
-2.7042 VINEYARD -0.2582
-3.0052 VOLDEMORT -0.3006
-3.0052 WEASLEY -0.3006
-3.0052 WILDERNESS -0.2582
-3.0052 WINE -0.3002
-2.7042 WITHIN -0.2727
-3.0052 WIZARD -0.3006
-3.0052 WOODS -0.2582
-3.0052 WRITER -0.3006
-3.0052 WRITES -0.2582
-3.0052 X-AXIS -0.2582

\2-grams:
-1.0483 <s> A -0.0235
-2.2788 <s> ACROSS 0.0000
-2.2788 <s> ALONG 0.0000
-1.9777 <s> AN 0.0000
-2.2788 <s> AROUND 0.0000
-1.5006 <s> AT 0.0000
-2.2788 <s> BUENOS -0.1761
-2.2788 <s> DUMBLEDORE 0.0000
-2.2788 <s> DURING 0.0000
-2.2788 <s> HARRY 0.0000
-2.2788 <s> HERMIONE 0.0000
-0.9170 <s> IN 0.0000
-2.2788 <s> NEAR 0.0000
-1.5006 <s> ON 0.0000
-2.2788 <s> RON 0.0000
-2.2788 <s> SAN 0.0000
-2.2788 <s> STEPHEN 0.0000
-0.9363 <s> THE -0.1850
-2.2788 <s> THROUGH 0.0000
-1.8016 <s> UNDER 0.0000
-2.2788 <s> VOLDEMORT 0.0000
-1.9777 <s> WITHIN 0.0000
-1.5563 A CHILD 0.0000
-1.5563 A FAMILY 0.0000
-1.5563 A FOOTBALL -0.1761
-1.5563 A FUNCTION 0.0000
-1.5563 A GAUCHO 0.0000
-1.5563 A GHOST 0.0000
-1.5563 A LIMIT -0.1761
-1.5563 A MALBEC 0.0000
-1.5563 A MOUNTAIN -0.1761
-1.5563 A POTION 0.0000
-1.5563 A RIVER -0.1761
-1.5563 A SEQUENCE 0.0000
-1.5563 A SMALL 0.0000
-1.5563 A SPELL 0.0000
-1.5563 A STREET -0.1761
-1.5563 A TOWN -0.1761
-1.5563 A TRAIN 0.0000
-1.5563 A WRITER 0.0000
-0.3010 ACROSS THE -0.2942
-0.3010 ADVISES </s> -0.3010
-0.3010 AIRES SHINES 0.0000
-0.3010 AIRES. </s> -0.3010
-0.3010 ALLEY </s> -0.3010
-0.3010 ALONG THE -0.2976
-0.6021 AN ARGENTINE 0.0000
-0.6021 AN EQUATION 0.0000
-0.6021 ANDES </s> -0.3010
-0.6021 ANDES TOWER -0.1761
-0.3010 APPROACHES </s> -0.3010
-0.3010 ARGENTINE TANGO 0.0000
-0.3010 AROUND THE -0.2942
-0.3010 ARTIST </s> -0.3010
-0.6021 ASADO </s> -0.3010
-0.6021 ASADO SIZZLES 0.0000
-1.0792 AT HOGSMEADE 0.0000
-1.0792 AT HOGWARTS 0.0000
-0.4771 AT THE -0.2837
-0.3010 BACKFIRES </s> -0.3010
-0.3010 BALANCES </s> -0.3010
-0.3010 BASEMENT </s> -0.3010
-0.3010 BECKONS </s> -0.3010
-0.3010 BED </s> -0.3010
-0.3010 BENDS </s> -0.3010
-0.3010 BREWS </s> -0.3010
-0.3010 BROOMSTICK FLIES 0.0000
-0.6021 BUENOS AIRES 0.0000
-0.6021 BUENOS AIRES. 0.0000
-0.3010 CALCULATES </s> -0.3010
-0.3010 CALCULUS STUDENT 0.0000
-0.3010 CALMS </s> -0.3010
-0.3010 CARNIVAL </s> -0.3010
-0.3010 CASTS </s> -0.3010
-0.3010 CHAMBER OF -0.2553
-0.3010 CHANGES </s> -0.3010
-0.3010 CHILD DISCOVERS 0.0000
-0.3010 CIRCLE </s> -0.3010
-0.3010 CIRCULATES </s> -0.3010
-0.3010 CITY </s> -0.3010
-0.3010 CLASS </s> -0.3010
-0.3010 CLOWN TERRIFIES 0.0000
-0.3010 COAST </s> -0.3010
-0.3010 COASTAL CITY 0.0000
-0.3010 COMMON ROOM -0.1249
-0.3010 COMPLEX PLANE 0.0000
-0.3010 CONVERGES </s> -0.3010
-0.3010 COORDINATE PLANE 0.0000
-0.3010 CREEPY CARNIVAL 0.0000
-0.6021 CURVE </s> -0.3010
-0.6021 CURVE BENDS 0.0000
-0.3010 DANCE FLOOR 0.0000
-0.6021 DARK ROOM -0.1249
-0.6021 DARK TOWER -0.1761
-0.3010 DELIVERS </s> -0.3010
-0.3010 DELTA </s> -0.3010
-0.3010 DERIVATIVE MEASURES 0.0000
-0.3010 DERRY, MAINE 0.0000
-0.3010 DIAGON ALLEY 0.0000
-0.3010 DISCOVERS </s> -0.3010
-0.3010 DUMBLEDORE ADVISES 0.0000
-0.3010 DURING THE -0.2976
-0.3010 EERIE WOODS 0.0000
-0.3010 EMERGES </s> -0.3010
-0.3010 EQUATION BALANCES 0.0000
-0.3010 EXAM </s> -0.3010
-0.3010 FAMILY UNRAVELS 0.0000
-0.3010 FILLS </s> -0.3010
-0.3010 FLIES </s> -0.3010
-0.3010 FLOOR </s> -0.3010
-0.3010 FLOWS </s> -0.3010
-0.6021 FOOTBALL MATCH 0.0000
-0.6021 FOOTBALL STADIUM 0.0000
-0.3010 FORBIDDEN FOREST 0.0000
-0.3010 FOREST </s> -0.3010
-0.3010 FUNCTION GRAPHS 0.0000
-0.3010 FUNCTION'S GRAPH 0.0000
-0.3010 GAUCHO RIDES 0.0000
-0.3010 GHOST HAUNTS 0.0000
-0.6021 GLACIER </s> -0.3010
-0.6021 GLACIER CALMS 0.0000
-0.3010 GRAPH </s> -0.3010
-0.3010 GRAPHS </s> -0.3010
-0.3010 GREAT HALL 0.0000
-0.3010 GRYFFINDOR COMMON 0.0000
-0.3010 HALL </s> -0.3010
-0.3010 HARRY POTTER 0.0000
-0.3010 HAUNTED HOUSE 0.0000
-0.3010 HAUNTS </s> -0.3010
-0.3010 HEART OF -0.2553
-0.3010 HERMIONE STUDIES 0.0000
-0.3010 HOGSMEADE </s> -0.3010
-0.3010 HOGWARTS </s> -0.3010
-0.6021 HOTEL </s> -0.3010
-0.6021 HOTEL BECKONS 0.0000
-0.3010 HOUSE </s> -0.3010
-1.6628 IN A -0.2888
-1.6628 IN DERRY, 0.0000
-1.6628 IN DIAGON 0.0000
-0.3617 IN THE -0.2191
-0.3010 INFLECTION </s> -0.3010
-0.3010 INTEGRAL CALCULATES 0.0000
-0.3010 ISLAND </s> -0.3010
-0.3010 ISOLATED ISLAND 0.0000
-0.3010 JOKES </s> -0.3010
-0.3010 KING WRITES 0.0000
-0.3010 LEARNS </s> -0.3010
-0.6021 LIMIT </s> -0.3010
-0.6021 LIMIT APPROACHES 0.0000
-0.3010 MAINE </s> -0.3010
-0.3010 MALBEC POURS 0.0000
-0.3010 MARKET </s> -0.3010
-0.3010 MARTIN STUDIES 0.0000
-0.3010 MATCH </s> -0.3010
-0.6021 MATE CIRCLE 0.0000
-0.6021 MATE CIRCULATES 0.0000
-0.3010 MEASURES </s> -0.3010
-0.3010 MONSTER EMERGES 0.0000
-0.6021 MOUNTAIN PATH 0.0000
-0.6021 MOUNTAIN TRAIL 0.0000
-0.3010 NEAR THE -0.2976
-0.3010 OBELISK </s> -0.3010
-1.0000 OF </s> -0.3010
-1.0000 OF BUENOS -0.1761
-1.0000 OF INFLECTION 0.0000
-1.0000 OF REQUIREMENT 0.0000
-1.0000 OF THE -0.2942
-0.3010 ON THE -0.2802
-0.3010 OVERLOOK HOTEL -0.1761
-0.3010 OWL DELIVERS 0.0000
-0.6021 PAMPAS </s> -0.3010
-0.6021 PAMPAS STRETCH 0.0000
-0.3010 PATAGONIA WILDERNESS 0.0000
-0.3010 PATAGONIAN STEPPE 0.0000
-0.3010 PATH </s> -0.3010
-0.3010 PLANE </s> -0.3010
-0.3010 PLAZA FILLS 0.0000
-0.3010 PLOTS </s> -0.3010
-0.3010 POINT OF -0.2553
-0.3010 POTION BREWS 0.0000
-0.3010 POTIONS CLASS 0.0000
-0.3010 POTTER LEARNS 0.0000
-0.3010 POURS </s> -0.3010
-0.3010 PROVES </s> -0.3010
-0.3010 QUIDDITCH MATCH 0.0000
-0.3010 REQUIREMENT </s> -0.3010
-0.3010 RIDES </s> -0.3010
-0.3010 RISES </s> -0.3010
-0.6021 RIVER DELTA 0.0000
-0.6021 RIVER FLOWS 0.0000
-0.3010 RON WEASLEY 0.0000
-0.4771 ROOM </s> -0.3010
-0.7782 ROOM OF -0.2553
-0.3010 SAN MARTIN 0.0000
-0.3010 SECRETS </s> -0.3010
-0.3010 SEQUENCE CONVERGES 0.0000
-0.3010 SERIES </s> -0.3010
-0.3010 SHADOW OF -0.2553
-0.3010 SHINES </s> -0.3010
-0.3010 SIZZLES </s> -0.3010
-0.3010 SMALL TOWN -0.1761
-0.3010 SOLVES </s> -0.3010
-0.3010 SPELL BACKFIRES 0.0000
-0.3010 STADIUM </s> -0.3010
-0.3010 STEPHEN KING 0.0000
-0.3010 STEPPE </s> -0.3010
-0.6021 STREET ARTIST 0.0000
-0.6021 STREET MARKET 0.0000
-0.3010 STRETCH </s> -0.3010
-0.3010 STRUGGLES </s> -0.3010
-0.3010 STUDENT SOLVES 0.0000
-0.3010 STUDIES </s> -0.3010
-0.3010 SUBWAY </s> -0.3010
-0.3010 TANGO </s> -0.3010
-0.3010 TERRIFIES </s> -0.3010
-1.8062 THE ANDES 0.0000
-1.8062 THE ASADO 0.0000
-2.1072 THE BASEMENT 0.0000
-2.1072 THE BED 0.0000
-2.1072 THE BROOMSTICK 0.0000
-2.1072 THE CALCULUS 0.0000
-2.1072 THE CHAMBER 0.0000
-2.1072 THE CLOWN 0.0000
-2.1072 THE COAST 0.0000
-2.1072 THE COASTAL 0.0000
-2.1072 THE COMPLEX 0.0000
-2.1072 THE COORDINATE 0.0000
-2.1072 THE CREEPY 0.0000
-1.8062 THE CURVE 0.0000
-2.1072 THE DANCE 0.0000
-1.8062 THE DARK 0.0000
-2.1072 THE DERIVATIVE 0.0000
-2.1072 THE EERIE 0.0000
-2.1072 THE EXAM 0.0000
-2.1072 THE FOOTBALL -0.1761
-2.1072 THE FORBIDDEN 0.0000
-2.1072 THE FUNCTION'S 0.0000
-1.8062 THE GLACIER 0.0000
-2.1072 THE GREAT 0.0000
-2.1072 THE GRYFFINDOR 0.0000
-2.1072 THE HAUNTED 0.0000
-2.1072 THE HEART 0.0000
-2.1072 THE HOTEL -0.1761
-2.1072 THE INTEGRAL 0.0000
-2.1072 THE ISOLATED 0.0000
-2.1072 THE LIMIT -0.1761
-1.8062 THE MATE 0.0000
-2.1072 THE MONSTER 0.0000
-2.1072 THE MOUNTAIN -0.1761
-2.1072 THE OBELISK 0.0000
-2.1072 THE OVERLOOK 0.0000
-2.1072 THE OWL 0.0000
-1.8062 THE PAMPAS 0.0000
-2.1072 THE PATAGONIA 0.0000
-2.1072 THE PATAGONIAN 0.0000
-2.1072 THE PLAZA 0.0000
-2.1072 THE POINT 0.0000
-2.1072 THE POTIONS 0.0000
-2.1072 THE QUIDDITCH 0.0000
-2.1072 THE RIVER -0.1761
-2.1072 THE ROOM -0.2218
-2.1072 THE SERIES 0.0000
-2.1072 THE SHADOW 0.0000
-2.1072 THE STREET -0.1761
-2.1072 THE SUBWAY 0.0000
-1.8062 THE THEOREM 0.0000
-2.1072 THE VARIABLE 0.0000
-2.1072 THE VINEYARD 0.0000
-2.1072 THE WINE 0.0000
-2.1072 THE WIZARD 0.0000
-2.1072 THE X-AXIS 0.0000
-0.6021 THEOREM </s> -0.3010
-0.6021 THEOREM PROVES 0.0000
-0.3010 THROUGH THE -0.2976
-0.6021 TOWER </s> -0.3010
-0.6021 TOWER RISES 0.0000
-0.6021 TOWN </s> -0.3010
-0.6021 TOWN SECRETS 0.0000
-0.3010 TRAIL </s> -0.3010
-0.3010 TRAIN TRAVELS 0.0000
-0.3010 TRAVELS </s> -0.3010
-0.3010 UNDER THE -0.2837
-0.3010 UNRAVELS </s> -0.3010
-0.3010 VARIABLE CHANGES 0.0000
-0.3010 VINEYARD </s> -0.3010
-0.3010 VOLDEMORT PLOTS 0.0000
-0.3010 WEASLEY JOKES 0.0000
-0.3010 WILDERNESS </s> -0.3010
-0.3010 WINE VINEYARD 0.0000
-0.3010 WITHIN THE -0.2942
-0.3010 WIZARD CASTS 0.0000
-0.3010 WOODS </s> -0.3010
-0.3010 WRITER STRUGGLES 0.0000
-0.3010 WRITES </s> -0.3010
-0.3010 X-AXIS </s> -0.3010

\3-grams:
-1.5315 <s> A CHILD
-1.5315 <s> A FAMILY
-1.5315 <s> A FOOTBALL
-1.5315 <s> A FUNCTION
-1.5315 <s> A GAUCHO
-1.5315 <s> A GHOST
-1.5315 <s> A LIMIT
-1.5315 <s> A MALBEC
-1.5315 <s> A MOUNTAIN
-1.5315 <s> A POTION
-1.5315 <s> A RIVER
-1.5315 <s> A SEQUENCE
-1.5315 <s> A SPELL
-1.5315 <s> A STREET
-1.5315 <s> A TOWN
-1.5315 <s> A TRAIN
-1.5315 <s> A WRITER
-0.3010 <s> ACROSS THE
-0.3010 <s> ALONG THE
-0.6021 <s> AN ARGENTINE
-0.6021 <s> AN EQUATION
-0.3010 <s> AROUND THE
-1.0792 <s> AT HOGSMEADE
-1.0792 <s> AT HOGWARTS
-0.4771 <s> AT THE
-0.3010 <s> BUENOS AIRES
-0.3010 <s> DUMBLEDORE ADVISES
-0.3010 <s> DURING THE
-0.3010 <s> HARRY POTTER
-0.3010 <s> HERMIONE STUDIES
-1.6628 <s> IN A
-1.6628 <s> IN DERRY,
-1.6628 <s> IN DIAGON
-0.3617 <s> IN THE
-0.3010 <s> NEAR THE
-0.3010 <s> ON THE
-0.3010 <s> RON WEASLEY
-0.3010 <s> SAN MARTIN
-0.3010 <s> STEPHEN KING
-1.6435 <s> THE ANDES
-1.6435 <s> THE ASADO
-1.6435 <s> THE BROOMSTICK
-1.6435 <s> THE CALCULUS
-1.6435 <s> THE CLOWN
-1.6435 <s> THE COASTAL
-1.6435 <s> THE CURVE
-1.6435 <s> THE DARK
-1.6435 <s> THE DERIVATIVE
-1.6435 <s> THE GLACIER
-1.6435 <s> THE HOTEL
-1.6435 <s> THE INTEGRAL
-1.6435 <s> THE MATE
-1.6435 <s> THE MONSTER
-1.6435 <s> THE OWL
-1.6435 <s> THE PAMPAS
-1.6435 <s> THE PATAGONIA
-1.6435 <s> THE PLAZA
-1.6435 <s> THE THEOREM
-1.6435 <s> THE VARIABLE
-1.6435 <s> THE WINE
-1.6435 <s> THE WIZARD
-0.3010 <s> THROUGH THE
-0.3010 <s> UNDER THE
-0.3010 <s> VOLDEMORT PLOTS
-0.3010 <s> WITHIN THE
-0.3010 A CHILD DISCOVERS
-0.3010 A FAMILY UNRAVELS
-0.3010 A FOOTBALL MATCH
-0.3010 A FUNCTION GRAPHS
-0.3010 A GAUCHO RIDES
-0.3010 A GHOST HAUNTS
-0.3010 A LIMIT APPROACHES
-0.3010 A MALBEC POURS
-0.3010 A MOUNTAIN TRAIL
-0.3010 A POTION BREWS
-0.3010 A RIVER FLOWS
-0.3010 A SEQUENCE CONVERGES
-0.3010 A SMALL TOWN
-0.3010 A SPELL BACKFIRES
-0.3010 A STREET ARTIST
-0.3010 A TOWN SECRETS
-0.3010 A TRAIN TRAVELS
-0.3010 A WRITER STRUGGLES
-0.3010 ACROSS THE PAMPAS
-0.3010 AIRES SHINES </s>
-0.3010 ALONG THE COAST
-0.3010 AN ARGENTINE TANGO
-0.3010 AN EQUATION BALANCES
-0.3010 ANDES TOWER </s>
-0.3010 ARGENTINE TANGO </s>
-0.3010 AROUND THE MATE
-0.3010 ASADO SIZZLES </s>
-0.3010 AT HOGSMEADE </s>
-0.3010 AT HOGWARTS </s>
-0.9031 AT THE ASADO
-0.9031 AT THE CREEPY
-0.9031 AT THE OBELISK
-0.9031 AT THE POINT
-0.3010 BROOMSTICK FLIES </s>
-0.3010 BUENOS AIRES SHINES
-0.3010 BUENOS AIRES. </s>
-0.3010 CALCULUS STUDENT SOLVES
-0.3010 CHAMBER OF </s>
-0.3010 CHILD DISCOVERS </s>
-0.3010 CLOWN TERRIFIES </s>
-0.3010 COASTAL CITY </s>
-0.3010 COMMON ROOM </s>
-0.3010 COMPLEX PLANE </s>
-0.3010 COORDINATE PLANE </s>
-0.3010 CREEPY CARNIVAL </s>
-0.3010 CURVE BENDS </s>
-0.3010 DANCE FLOOR </s>
-0.3010 DARK ROOM </s>
-0.3010 DARK TOWER RISES
-0.3010 DERIVATIVE MEASURES </s>
-0.3010 DERRY, MAINE </s>
-0.3010 DIAGON ALLEY </s>
-0.3010 DUMBLEDORE ADVISES </s>
-0.3010 DURING THE EXAM
-0.3010 EERIE WOODS </s>
-0.3010 EQUATION BALANCES </s>
-0.3010 FAMILY UNRAVELS </s>
-0.3010 FOOTBALL MATCH </s>
-0.3010 FOOTBALL STADIUM </s>
-0.3010 FORBIDDEN FOREST </s>
-0.3010 FUNCTION GRAPHS </s>
-0.3010 FUNCTION'S GRAPH </s>
-0.3010 GAUCHO RIDES </s>
-0.3010 GHOST HAUNTS </s>
-0.3010 GLACIER CALMS </s>
-0.3010 GREAT HALL </s>
-0.3010 GRYFFINDOR COMMON ROOM
-0.3010 HARRY POTTER LEARNS
-0.3010 HAUNTED HOUSE </s>
-0.3010 HEART OF BUENOS
-0.3010 HERMIONE STUDIES </s>
-0.3010 HOTEL BECKONS </s>
-0.3010 IN A SMALL
-0.3010 IN DERRY, MAINE
-0.3010 IN DIAGON ALLEY
-1.6021 IN THE ANDES
-1.6021 IN THE BASEMENT
-1.6021 IN THE CHAMBER
-1.6021 IN THE COMPLEX
-1.6021 IN THE DARK
-1.6021 IN THE EERIE
-1.6021 IN THE FOOTBALL
-1.6021 IN THE FORBIDDEN
-1.6021 IN THE GREAT
-1.6021 IN THE GRYFFINDOR
-1.6021 IN THE HAUNTED
-1.6021 IN THE HEART
-1.6021 IN THE OVERLOOK
-1.6021 IN THE PATAGONIAN
-1.6021 IN THE POTIONS
-1.6021 IN THE QUIDDITCH
-1.6021 IN THE ROOM
-1.6021 IN THE SHADOW
-1.6021 IN THE STREET
-1.6021 IN THE VINEYARD
-0.3010 INTEGRAL CALCULATES </s>
-0.3010 ISOLATED ISLAND </s>
-0.3010 KING WRITES </s>
-0.3010 LIMIT APPROACHES </s>
-0.3010 MALBEC POURS </s>
-0.3010 MARTIN STUDIES </s>
-0.3010 MATE CIRCLE </s>
-0.3010 MATE CIRCULATES </s>
-0.3010 MONSTER EMERGES </s>
-0.3010 MOUNTAIN PATH </s>
-0.3010 MOUNTAIN TRAIL </s>
-0.3010 NEAR THE RIVER
-0.3010 OF BUENOS AIRES.
-0.3010 OF INFLECTION </s>
-0.3010 OF REQUIREMENT </s>
-0.3010 OF THE GLACIER
-1.0792 ON THE COORDINATE
-1.0792 ON THE DANCE
-1.0792 ON THE FUNCTION'S
-1.0792 ON THE ISOLATED
-1.0792 ON THE MOUNTAIN
-1.0792 ON THE X-AXIS
-0.3010 OVERLOOK HOTEL </s>
-0.3010 OWL DELIVERS </s>
-0.3010 PAMPAS STRETCH </s>
-0.3010 PATAGONIA WILDERNESS </s>
-0.3010 PATAGONIAN STEPPE </s>
-0.3010 PLAZA FILLS </s>
-0.3010 POINT OF INFLECTION
-0.3010 POTION BREWS </s>
-0.3010 POTIONS CLASS </s>
-0.3010 POTTER LEARNS </s>
-0.3010 QUIDDITCH MATCH </s>
-0.3010 RIVER DELTA </s>
-0.3010 RIVER FLOWS </s>
-0.3010 RON WEASLEY JOKES
-0.3010 ROOM OF REQUIREMENT
-0.3010 SAN MARTIN STUDIES
-0.3010 SEQUENCE CONVERGES </s>
-0.3010 SHADOW OF THE
-0.3010 SMALL TOWN </s>
-0.3010 SPELL BACKFIRES </s>
-0.3010 STEPHEN KING WRITES
-0.3010 STREET ARTIST </s>
-0.3010 STREET MARKET </s>
-0.3010 STUDENT SOLVES </s>
-0.6021 THE ANDES </s>
-0.6021 THE ANDES TOWER
-0.6021 THE ASADO </s>
-0.6021 THE ASADO SIZZLES
-0.3010 THE BASEMENT </s>
-0.3010 THE BED </s>
-0.3010 THE BROOMSTICK FLIES
-0.3010 THE CALCULUS STUDENT
-0.3010 THE CHAMBER OF
-0.3010 THE CLOWN TERRIFIES
-0.3010 THE COAST </s>
-0.3010 THE COASTAL CITY
-0.3010 THE COMPLEX PLANE
-0.3010 THE COORDINATE PLANE
-0.3010 THE CREEPY CARNIVAL
-0.6021 THE CURVE </s>
-0.6021 THE CURVE BENDS
-0.3010 THE DANCE FLOOR
-0.6021 THE DARK ROOM
-0.6021 THE DARK TOWER
-0.3010 THE DERIVATIVE MEASURES
-0.3010 THE EERIE WOODS
-0.3010 THE EXAM </s>
-0.3010 THE FOOTBALL STADIUM
-0.3010 THE FORBIDDEN FOREST
-0.3010 THE FUNCTION'S GRAPH
-0.6021 THE GLACIER </s>
-0.6021 THE GLACIER CALMS
-0.3010 THE GREAT HALL
-0.3010 THE GRYFFINDOR COMMON
-0.3010 THE HAUNTED HOUSE
-0.3010 THE HEART OF
-0.3010 THE HOTEL BECKONS
-0.3010 THE INTEGRAL CALCULATES
-0.3010 THE ISOLATED ISLAND
-0.3010 THE LIMIT </s>
-0.6021 THE MATE CIRCLE
-0.6021 THE MATE CIRCULATES
-0.3010 THE MONSTER EMERGES
-0.3010 THE MOUNTAIN PATH
-0.3010 THE OBELISK </s>
-0.3010 THE OVERLOOK HOTEL
-0.3010 THE OWL DELIVERS
-0.6021 THE PAMPAS </s>
-0.6021 THE PAMPAS STRETCH
-0.3010 THE PATAGONIA WILDERNESS
-0.3010 THE PATAGONIAN STEPPE
-0.3010 THE PLAZA FILLS
-0.3010 THE POINT OF
-0.3010 THE POTIONS CLASS
-0.3010 THE QUIDDITCH MATCH
-0.3010 THE RIVER DELTA
-0.3010 THE ROOM OF
-0.3010 THE SERIES </s>
-0.3010 THE SHADOW OF
-0.3010 THE STREET MARKET
-0.3010 THE SUBWAY </s>
-0.6021 THE THEOREM </s>
-0.6021 THE THEOREM PROVES
-0.3010 THE VARIABLE CHANGES
-0.3010 THE VINEYARD </s>
-0.3010 THE WINE VINEYARD
-0.3010 THE WIZARD CASTS
-0.3010 THE X-AXIS </s>
-0.3010 THEOREM PROVES </s>
-0.3010 THROUGH THE SUBWAY
-0.3010 TOWER RISES </s>
-0.3010 TOWN SECRETS </s>
-0.3010 TRAIN TRAVELS </s>
-0.7782 UNDER THE BED
-0.7782 UNDER THE CURVE
-0.7782 UNDER THE THEOREM
-0.3010 VARIABLE CHANGES </s>
-0.3010 VOLDEMORT PLOTS </s>
-0.3010 WEASLEY JOKES </s>
-0.3010 WINE VINEYARD </s>
-0.6021 WITHIN THE LIMIT
-0.6021 WITHIN THE SERIES
-0.3010 WIZARD CASTS </s>
-0.3010 WRITER STRUGGLES </s>

\end\