
Language model created by QuickLM on Thu Aug  1 12:41:15 EDT 2024
Copyright (c) 1996-2010 Carnegie Mellon University and Alexander I. Rudnicky

The model is in standard ARPA format, designed by Doug Paul while he was at MITRE.

The code that was used to produce this language model is available in Open Source.
Please visit http://www.speech.cs.cmu.edu/tools/ for more information

The (fixed) discount mass is 0.5. The backoffs are computed using the ratio method.
This model based on a corpus of 7 sentences and 49 words

\data\
ngram 1=49
ngram 2=61
ngram 3=54

\1-grams:
-1.2884 </s> -0.3010
-1.2884 <s> -0.2781
-1.6564 A -0.2913
-2.1335 ABBREVIATIONS -0.2978
-2.1335 ACRONYMS -0.2978
-2.1335 AN -0.2946
-2.1335 AND -0.2978
-2.1335 ARE -0.2978
-1.8325 AS -0.2881
-2.1335 BE -0.2978
-2.1335 BEST -0.2978
-2.1335 BUT -0.2978
-2.1335 CAN -0.2978
-2.1335 CETERA -0.2781
-2.1335 EACH -0.2978
-2.1335 ENTERED -0.2946
-2.1335 ET -0.2978
-1.8325 EXAMPLE -0.2747
-2.1335 FEW -0.2978
-2.1335 FOR -0.2946
-2.1335 HUNDRED -0.2978
-1.6564 IS -0.2848
-2.1335 LETTERS -0.2978
-2.1335 LIMIT -0.2781
-2.1335 LINE -0.2913
-2.1335 NUMBERS -0.2978
-2.1335 OUGHT -0.2946
-2.1335 OUT -0.2978
-2.1335 PRONOUNCED -0.2946
-2.1335 RECOGNIZE -0.2781
-2.1335 SENTENCE -0.2781
-2.1335 SENTENCES -0.2781
-2.1335 SIXTY -0.2978
-2.1335 SOMETHING -0.2978
-2.1335 SPELLED -0.2978
-2.1335 SYSTEM -0.2946
-2.1335 THAT -0.2978
-2.1335 THERE -0.2913
-2.1335 THIS -0.2913
-2.1335 THOUSAND -0.2978
-2.1335 THREE -0.2978
-1.8325 TO -0.2946
-2.1335 TWO -0.2978
-2.1335 T_L_A -0.2781
-2.1335 UPLOAD -0.2913
-2.1335 WANT -0.2978
-2.1335 YOU -0.2978
-2.1335 YOU'D -0.2978
-2.1335 YOUR -0.2978

\2-grams:
-1.1461 <s> ACRONYMS 0.0000
-1.1461 <s> BUT 0.0000
-1.1461 <s> EACH 0.0000
-1.1461 <s> NUMBERS 0.0000
-1.1461 <s> THIS 0.0000
-1.1461 <s> TWO 0.0000
-1.1461 <s> YOU 0.0000
-0.7782 A FEW 0.0000
-0.7782 A LIMIT 0.0000
-0.7782 A T_L_A 0.0000
-0.3010 ABBREVIATIONS OUGHT 0.0000
-0.3010 ACRONYMS PRONOUNCED 0.0000
-0.3010 AN EXAMPLE -0.1761
-0.3010 AND ABBREVIATIONS 0.0000
-0.3010 ARE BEST 0.0000
-0.6021 AS A -0.2218
-0.6021 AS LETTERS 0.0000
-0.3010 BE SPELLED 0.0000
-0.3010 BEST ENTERED 0.0000
-0.3010 BUT THERE 0.0000
-0.3010 CAN UPLOAD 0.0000
-0.3010 CETERA </s> -0.3010
-0.3010 EACH LINE 0.0000
-0.3010 ENTERED AS -0.1761
-0.3010 ET CETERA 0.0000
-0.6021 EXAMPLE </s> -0.3010
-0.6021 EXAMPLE SENTENCE 0.0000
-0.3010 FEW THOUSAND 0.0000
-0.3010 FOR EXAMPLE -0.1761
-0.3010 HUNDRED SIXTY 0.0000
-0.7782 IS A -0.2218
-0.7782 IS AN 0.0000
-0.7782 IS SOMETHING 0.0000
-0.3010 LETTERS ARE 0.0000
-0.3010 LIMIT </s> -0.3010
-0.3010 LINE IS -0.2218
-0.3010 NUMBERS AND 0.0000
-0.3010 OUGHT TO -0.1761
-0.3010 OUT FOR 0.0000
-0.3010 PRONOUNCED AS -0.1761
-0.3010 RECOGNIZE </s> -0.3010
-0.3010 SENTENCE </s> -0.3010
-0.3010 SENTENCES </s> -0.3010
-0.3010 SIXTY THREE 0.0000
-0.3010 SOMETHING THAT 0.0000
-0.3010 SPELLED OUT 0.0000
-0.3010 SYSTEM TO -0.1761
-0.3010 THAT YOU'D 0.0000
-0.3010 THERE IS -0.2218
-0.3010 THIS IS -0.2218
-0.3010 THOUSAND SENTENCES 0.0000
-0.3010 THREE ET 0.0000
-0.6021 TO BE 0.0000
-0.6021 TO RECOGNIZE 0.0000
-0.3010 TWO HUNDRED 0.0000
-0.3010 T_L_A </s> -0.3010
-0.3010 UPLOAD A -0.2218
-0.3010 WANT YOUR 0.0000
-0.3010 YOU CAN 0.0000
-0.3010 YOU'D WANT 0.0000
-0.3010 YOUR SYSTEM 0.0000

\3-grams:
-0.3010 <s> ACRONYMS PRONOUNCED
-0.3010 <s> BUT THERE
-0.3010 <s> EACH LINE
-0.3010 <s> NUMBERS AND
-0.3010 <s> THIS IS
-0.3010 <s> TWO HUNDRED
-0.3010 <s> YOU CAN
-0.3010 A FEW THOUSAND
-0.3010 A LIMIT </s>
-0.3010 A T_L_A </s>
-0.3010 ABBREVIATIONS OUGHT TO
-0.3010 ACRONYMS PRONOUNCED AS
-0.3010 AN EXAMPLE SENTENCE
-0.3010 AND ABBREVIATIONS OUGHT
-0.3010 ARE BEST ENTERED
-0.3010 AS A T_L_A
-0.3010 AS LETTERS ARE
-0.3010 BE SPELLED OUT
-0.3010 BEST ENTERED AS
-0.3010 BUT THERE IS
-0.3010 CAN UPLOAD A
-0.3010 EACH LINE IS
-0.3010 ENTERED AS A
-0.3010 ET CETERA </s>
-0.3010 EXAMPLE SENTENCE </s>
-0.3010 FEW THOUSAND SENTENCES
-0.3010 FOR EXAMPLE </s>
-0.3010 HUNDRED SIXTY THREE
-0.3010 IS A LIMIT
-0.3010 IS AN EXAMPLE
-0.3010 IS SOMETHING THAT
-0.3010 LETTERS ARE BEST
-0.3010 LINE IS SOMETHING
-0.3010 NUMBERS AND ABBREVIATIONS
-0.3010 OUGHT TO BE
-0.3010 OUT FOR EXAMPLE
-0.3010 PRONOUNCED AS LETTERS
-0.3010 SIXTY THREE ET
-0.3010 SOMETHING THAT YOU'D
-0.3010 SPELLED OUT FOR
-0.3010 SYSTEM TO RECOGNIZE
-0.3010 THAT YOU'D WANT
-0.3010 THERE IS A
-0.3010 THIS IS AN
-0.3010 THOUSAND SENTENCES </s>
-0.3010 THREE ET CETERA
-0.3010 TO BE SPELLED
-0.3010 TO RECOGNIZE </s>
-0.3010 TWO HUNDRED SIXTY
-0.3010 UPLOAD A FEW
-0.3010 WANT YOUR SYSTEM
-0.3010 YOU CAN UPLOAD
-0.3010 YOU'D WANT YOUR
-0.3010 YOUR SYSTEM TO

\end\