Language model created by QuickLM on Mon Aug  5 18:20:34 EDT 2024
Copyright (c) 1996-2010 Carnegie Mellon University and Alexander I. Rudnicky

The model is in standard ARPA format, designed by Doug Paul while he was at MITRE.

The code that was used to produce this language model is available in Open Source.
Please visit http://www.speech.cs.cmu.edu/tools/ for more information

The (fixed) discount mass is 0.5. The backoffs are computed using the ratio method.
This model based on a corpus of 1652 sentences and 566 words

\data\
ngram 1=566
ngram 2=1128
ngram 3=564

\1-grams:
-3.3941 --- -0.2218
-3.9962 6 -0.2218
-3.9962 7 -0.2218
-0.7782 </s> -0.3010
-0.7782 <s> -0.2218
-2.2802 A -0.2218
-3.9962 ACADEMIC -0.2218
-3.9962 ACCEPT -0.2218
-3.6951 ADDRESS -0.2218
-3.9962 ADVANCEMENT -0.2218
-3.9962 ADVANCES -0.2218
-3.9962 AIR -0.2218
-3.9962 AIRBENDERS -0.2218
-3.3941 AIRPORT -0.2218
-3.9962 ALL -0.2218
-3.9962 ALLERGIC -0.2218
-3.9962 ALLERGY-FREE -0.2218
-3.6951 AM -0.2218
-3.5190 AN -0.2218
-3.9962 ANALYZE -0.2218
-3.9962 ANCIENT -0.2218
-2.9170 AND -0.2218
-2.8201 ANY -0.2218
-3.9962 APPEAR -0.2218
-3.9962 APPOINTMENT -0.2218
-3.6951 APPROACH -0.2218
-2.5982 ARE -0.2218
-3.6951 AROUND -0.2218
-3.6951 ARRIVE -0.2218
-3.9962 AS -0.2218
-3.9962 ASPECTS -0.2218
-3.6951 ASSIGNMENT -0.2218
-3.6951 AT -0.2218
-3.6951 ATM -0.2218
-3.9962 ATTEND -0.2218
-3.9962 ATTRACTIONS -0.2218
-3.2972 AVAILABLE -0.2218
-3.9962 AVATAR'S -0.2218
-3.9962 BABY -0.2218
-3.6951 BAD -0.2218
-3.9962 BAG -0.2218
-3.6951 BALANCE -0.2218
-3.9962 BANK -0.2218
-3.9962 BATHROOM -0.2218
-3.9962 BATTLES -0.2218
-3.6951 BE -0.2218
-3.9962 BEACH -0.2218
-3.9962 BEET -0.2218
-3.9962 BENDING -0.2218
-3.5190 BEST -0.2218
-3.3941 BILL -0.2218
-3.9962 BLACK -0.2218
-3.9962 BOOK -0.2218
-3.6951 BORROW -0.2218
-3.9962 BOSS -0.2218
-3.9962 BOX -0.2218
-3.9962 BREAD -0.2218
-3.6951 BREAKFAST -0.2218
-3.6951 BREAKING -0.2218
-3.9962 BRING -0.2218
-3.6951 BRINGS -0.2218
-3.9962 BUCKINGHAM -0.2218
-3.5190 BUS -0.2218
-3.9962 BUSINESS -0.2218
-3.5190 BUY -0.2218
-3.9962 BY -0.2218
-3.9962 CAB -0.2218
-3.5190 CALL -0.2218
-2.2038 CAN -0.2218
-3.9962 CAR -0.2218
-3.9962 CARD -0.2218
-3.9962 CARDS -0.2218
-3.2180 CAREER -0.2218
-3.9962 CASES -0.2218
-3.9962 CASH -0.2218
-3.9962 CAST -0.2218
-3.9962 CHALLENGE -0.2218
-3.3941 CHALLENGES -0.2218
-3.9962 CHANGES -0.2218
-3.9962 CHARACTER -0.2218
-3.9962 CHARACTERS -0.2218
-3.9962 CHARGER -0.2218
-3.9962 CHECK -0.2218
-3.9962 CHEESE -0.2218
-3.9962 CHILD -0.2218
-3.9962 CHILDREN’S -0.2218
-3.6951 CITY -0.2218
-3.9962 CLASS -0.2218
-3.6951 CLOSE -0.2218
-3.9962 CLOSEST -0.2218
-3.9962 CLUES -0.2218
-3.9962 CODE -0.2218
-3.5190 COFFEE -0.2218
-3.9962 COLD -0.2218
-3.9962 COLLABORATE -0.2218
-3.6951 COMMON -0.2218
-3.9962 COMMUNICATION -0.2218
-3.0931 COMPANY -0.2218
-3.3941 COMPANY’S -0.2218
-3.9962 COMPLETE -0.2218
-3.9962 CONDITIONS -0.2218
-3.6951 CONFLICTS -0.2218
-3.9962 CONNECTION -0.2218
-3.9962 CONTAIN -0.2218
-3.9962 CONTRIBUTE -0.2218
-3.6951 CONTROL -0.2218
-3.9962 COOKED -0.2218
-3.6951 COST -0.2218
-3.3941 COULD -0.2218
-3.9962 COURSE -0.2218
-3.5190 CREATURES -0.2218
-3.6951 CREDIT -0.2218
-3.9962 CRIMES -0.2218
-3.9962 CROSS-DEPARTMENTAL -0.2218
-3.9962 CULTURE -0.2218
-3.6951 CURRENT -0.2218
-3.9962 CYCLICAL -0.2218
-3.5190 DAILY -0.2218
-3.9962 DAIRY-FREE -0.2218
-3.5190 DANGEROUS -0.2218
-3.6951 DARK -0.2218
-3.3941 DAY -0.2218
-3.9962 DEADLINE -0.2218
-3.9962 DEALS -0.2218
-3.6951 DECISIONS -0.2218
-3.9962 DEEP -0.2218
-3.9962 DEPARTMENT -0.2218
-3.9962 DEPICTS -0.2218
-3.2972 DESCRIBE -0.2218
-3.9962 DESCRIBED -0.2218
-3.9962 DESSERT -0.2218
-3.9962 DESSERTS -0.2218
-3.5190 DETECTIVES -0.2218
-3.5190 DEVELOPMENT -0.2218
-3.9962 DIFFERENT -0.2218
-3.9962 DIMENSION -0.2218
-3.6951 DIRECTIONS -0.2218
-3.9962 DISASTER -0.2218
-3.9962 DISCOUNT -0.2218
-3.2180 DISH -0.2218
-3.9962 DIVERSE -0.2218
-2.4910 DO -0.2218
-3.6951 DOCTORS -0.2218
-2.7174 DOES -0.2218
-3.9962 DOGGY -0.2218
-3.9962 DONE -0.2218
-3.9962 DONUTS -0.2218
-3.9962 DOWN -0.2218
-3.9962 DOWNTOWN -0.2218
-3.9962 DRAGONS -0.2218
-3.9962 DRAMATIC -0.2218
-3.9962 DRAMATICALLY -0.2218
-3.9962 DRESSING -0.2218
-3.9962 DRINK -0.2218
-3.9962 DRINKS -0.2218
-3.5190 DRUG -0.2218
-3.9962 DUTIES -0.2218
-3.6951 DWIGHT -0.2218
-3.9962 EACH -0.2218
-3.6951 EAT -0.2218
-3.9962 EFFECTIVE -0.2218
-3.9962 ELEMENTS -0.2218
-3.9962 ELEVEN -0.2218
-3.6951 EMPLOYEE -0.2218
-3.9962 ENCOURAGED -0.2218
-3.9962 END -0.2218
-3.9962 ENSURE -0.2218
-3.9962 ENTRY -0.2218
-3.9962 ENVIRONMENT -0.2218
-3.6951 EVERY -0.2218
-3.6951 EVIDENCE -0.2218
-3.9962 EVIL -0.2218
-3.9962 EXAMPLE -0.2218
-3.9962 EXAMPLES -0.2218
-3.9962 EXIST -0.2218
-3.9962 EXPECTATIONS -0.2218
-3.9962 EXPECTED -0.2218
-3.9962 EXPLAIN -0.2218
-3.9962 EXPLORES -0.2218
-3.6951 EXTRA -0.2218
-3.5190 FACE -0.2218
-3.9962 FACES -0.2218
-3.9962 FAR -0.2218
-3.9962 FARM -0.2218
-3.9962 FAVORITE -0.2218
-3.9962 FEARED -0.2218
-3.9962 FEATURE -0.2218
-3.6951 FEE -0.2218
-3.6951 FEEDBACK -0.2218
-3.9962 FIELD -0.2218
-3.6951 FIGHT -0.2218
-3.9962 FILL -0.2218
-3.2972 FIND -0.2218
-3.9962 FISH -0.2218
-3.9962 FIT -0.2218
-3.9962 FOLLOWS -0.2218
-2.5648 FOR -0.2218
-3.9962 FORCE -0.2218
-3.6951 FORM -0.2218
-3.9962 FOUND -0.2218
-3.9962 FRESH -0.2218
-3.6951 FRIENDS -0.2218
-3.9962 FRIES -0.2218
-3.6951 FROM -0.2218
-3.9962 FURTHER -0.2218
-3.9962 FUTURES -0.2218
-3.9962 GERALT -0.2218
-2.7174 GET -0.2218
-3.9962 GIVE -0.2218
-3.9962 GIVEN -0.2218
-3.9962 GIVES -0.2218
-3.6951 GLASS -0.2218
-3.9962 GLUTEN-FREE -0.2218
-3.6951 GO -0.2218
-3.5190 GOALS -0.2218
-3.9962 GOES -0.2218
-3.2972 GOOD -0.2218
-3.9962 GREY -0.2218
-3.9962 GROCERY -0.2218
-3.6951 GROWTH -0.2218
-3.9962 GUIDE -0.2218
-3.9962 GYM -0.2218
-3.9962 HABITS -0.2218
-3.5190 HANDLE -0.2218
-3.9962 HARD -0.2218
-3.9962 HARSH -0.2218
-3.6951 HAS -0.2218
-2.6160 HAVE -0.2218
-3.9962 HEISENBERG -0.2218
-3.9962 HELLO -0.2218
-3.3941 HELP -0.2218
-3.0419 HERE -0.2218
-3.9962 HIDDEN -0.2218
-3.9962 HIRES -0.2218
-3.5190 HIS -0.2218
-3.9962 HOGWARTS -0.2218
-3.9962 HOMER -0.2218
-3.9962 HOMER'S -0.2218
-3.9962 HONOR -0.2218
-3.6951 HOSPITAL -0.2218
-3.9962 HOT -0.2218
-3.9962 HOTEL -0.2218
-2.4910 HOW -0.2218
-3.9962 HUMOROUS -0.2218
-3.9962 HUNT -0.2218
-2.2327 I -0.2218
-3.6951 ILLEGAL -0.2218
-3.9962 IMPACTS -0.2218
-3.9962 IMPORTANT -0.2218
-2.8500 IN -0.2218
-3.9962 INCLUDED -0.2218
-3.9962 INDICATORS -0.2218
-3.9962 INDUSTRY -0.2218
-3.9962 INITIATIVES -0.2218
-3.9962 INSIGHT -0.2218
-3.9962 INTENSE -0.2218
-3.9962 INTUITION -0.2218
-3.9962 INVOLVES -0.2218
-2.2719 IS -0.2218
-3.9962 ISLAND -0.2218
-3.5190 IT -0.2218
-3.9962 ITEM -0.2218
-3.6951 I’D -0.2218
-3.9962 I’M -0.2218
-3.9962 JEDI -0.2218
-3.6951 JIM -0.2218
-3.9962 KEEN -0.2218
-3.6951 KEY -0.2218
-3.9962 KIND -0.2218
-3.9962 KNIGHTS -0.2218
-3.9962 KNOWN -0.2218
-3.9962 LANDS -0.2218
-3.9962 LAST -0.2218
-3.9962 LAUNDRY -0.2218
-3.9962 LEAVE -0.2218
-3.6951 LESS -0.2218
-3.9962 LIBRARY -0.2218
-3.6951 LIFE -0.2218
-3.2180 LIKE -0.2218
-3.6951 LIST -0.2218
-3.5190 LIVES -0.2218
-3.9962 LIVING -0.2218
-3.5190 LOCAL -0.2218
-3.6951 LONG -0.2218
-3.9962 LORDS -0.2218
-3.5190 LOST -0.2218
-3.6951 LOVES -0.2218
-3.9962 LOW-FAT -0.2218
-3.9962 LUGGAGE -0.2218
-3.6951 MACHINE -0.2218
-3.9962 MADE -0.2218
-3.6951 MAGIC -0.2218
-3.5190 MAGICAL -0.2218
-3.6951 MAIN -0.2218
-3.9962 MAJOR -0.2218
-3.5190 MAKE -0.2218
-3.9962 MAKES -0.2218
-3.9962 MANAGEMENT -0.2218
-3.9962 MANAGER -0.2218
-3.6951 MANDALORIAN -0.2218
-3.9962 MANDALORIAN'S -0.2218
-3.6951 MANY -0.2218
-3.6951 MAP -0.2218
-3.9962 MAY -0.2218
-3.2972 ME -0.2218
-3.9962 MEAL -0.2218
-3.6951 MEASURE -0.2218
-3.9962 MEETINGS -0.2218
-3.9962 MENTORING -0.2218
-3.3941 MENU -0.2218
-3.9962 MEREDITH -0.2218
-3.9962 MICHAEL -0.2218
-3.9962 MIGHT -0.2218
-3.9962 MIRROR -0.2218
-3.6951 MISSION -0.2218
-3.9962 MODERN -0.2218
-3.5190 MONSTERS -0.2218
-3.9962 MORAL -0.2218
-3.9962 MORE -0.2218
-3.5190 MOST -0.2218
-3.9962 MOVIE -0.2218
-3.3941 MUCH -0.2218
-3.6951 MUSEUM -0.2218
-3.9962 MY -0.2218
-3.6951 MYSTERIES -0.2218
-3.9962 MYSTERIOUS -0.2218
-3.9962 NAME -0.2218
-3.9962 NAPKINS -0.2218
-3.9962 NARCOS -0.2218
-3.6951 NEARBY -0.2218
-3.0931 NEAREST -0.2218
-3.2180 NEED -0.2218
-3.9962 NEEDED -0.2218
-3.9962 NEW -0.2218
-3.9962 NEXT -0.2218
-3.9962 NO -0.2218
-3.9962 NON-ALCOHOLIC -0.2218
-3.9962 NUTS -0.2218
-3.9962 OCCUR -0.2218
-2.8500 OF -0.2218
-3.3941 OFFER -0.2218
-3.1511 OFTEN -0.2218
-2.9962 ON -0.2218
-3.9962 ONBOARDING -0.2218
-3.9962 ONE-WAY -0.2218
-3.9962 ONIONS -0.2218
-3.6951 OPPORTUNITIES -0.2218
-3.2180 OPTIONS -0.2218
-3.5190 OR -0.2218
-3.6951 ORDER -0.2218
-3.9962 OTHER -0.2218
-3.9962 OUR -0.2218
-3.6951 OUT -0.2218
-3.9962 PALACE -0.2218
-3.9962 PAM -0.2218
-3.6951 PASSWORD -0.2218
-3.9962 PATH -0.2218
-3.9962 PATHS -0.2218
-3.6951 PAY -0.2218
-3.9962 PEN -0.2218
-3.9962 PEOPLE -0.2218
-3.5190 PERFORMANCE -0.2218
-3.9962 PHARMACY -0.2218
-3.6951 PHONE -0.2218
-3.2180 PLACE -0.2218
-3.9962 PLACES -0.2218
-3.9962 PLANS -0.2218
-3.9962 PLAYS -0.2218
-2.9962 PLEASE -0.2218
-3.9962 POLICY -0.2218
-3.9962 POLITICAL -0.2218
-3.9962 PORTRAYS -0.2218
-3.5190 POSITION -0.2218
-3.9962 POWERS -0.2218
-3.9962 PRANKS -0.2218
-3.9962 PRIORITIES -0.2218
-3.9962 PRIORITIZE -0.2218
-3.9962 PROCESS -0.2218
-3.9962 PRODUCTS -0.2218
-3.6951 PROFESSIONAL -0.2218
-3.9962 PROGRAMS -0.2218
-3.9962 PROJECT -0.2218
-3.3941 PROJECTS -0.2218
-3.9962 PROMOTION -0.2218
-3.9962 PROTECTING -0.2218
-3.9962 PROTECTS -0.2218
-3.9962 PROVIDE -0.2218
-3.9962 PROVIDED -0.2218
-3.9962 PUBLIC -0.2218
-3.9962 PURSUITS -0.2218
-3.9962 QUALITIES -0.2218
-3.6951 QUEEN -0.2218
-3.9962 QUIRKY -0.2218
-3.9962 RAPIDLY -0.2218
-3.9962 REASONS -0.2218
-3.9962 RECEIPT -0.2218
-3.9962 RECENT -0.2218
-3.3941 RECOMMEND -0.2218
-3.9962 RECOMMENDATIONS -0.2218
-3.9962 REFILL -0.2218
-3.9962 REFUND -0.2218
-3.9962 REMOTE -0.2218
-3.9962 RENT -0.2218
-3.9962 REPEAT -0.2218
-3.9962 REQUIREMENTS -0.2218
-3.9962 RESCUE -0.2218
-3.9962 RESERVATION -0.2218
-3.9962 RESOURCES -0.2218
-3.9962 RESPONSIBILITIES -0.2218
-3.6951 RESTAURANT -0.2218
-3.9962 REVERED -0.2218
-3.9962 REVIEWS -0.2218
-3.9962 REWARDING -0.2218
-3.9962 RIDE -0.2218
-2.9962 ROLE -0.2218
-3.5190 ROOM -0.2218
-3.9962 SAFE -0.2218
-3.6951 SALAD -0.2218
-3.9962 SALE -0.2218
-3.9962 SALTY -0.2218
-3.9962 SAUCE -0.2218
-3.9962 SAVE -0.2218
-3.9962 SCENARIOS -0.2218
-3.9962 SCOTT -0.2218
-3.9962 SCRATCH -0.2218
-3.9962 SEAT -0.2218
-3.9962 SECRETS -0.2218
-3.5190 SEE -0.2218
-3.9962 SEEK -0.2218
-3.9962 SERVE -0.2218
-3.9962 SERVED -0.2218
-3.5190 SERVICE -0.2218
-3.9962 SERVICES -0.2218
-3.9962 SHARE -0.2218
-3.9962 SHELDON -0.2218
-3.9962 SHELDON’S -0.2218
-3.9962 SHELLFISH -0.2218
-3.9962 SHERLOCK -0.2218
-3.6951 SHOP -0.2218
-3.9962 SHOW -0.2218
-3.9962 SHOWS -0.2218
-3.9962 SHUTTLE -0.2218
-3.3941 SIDE -0.2218
-3.9962 SIMPSONS -0.2218
-3.9962 SIT -0.2218
-3.6951 SKILL -0.2218
-3.9962 SKILLS -0.2218
-3.9962 SNOW -0.2218
-3.9962 SOFTWARE -0.2218
-3.5190 SOLVE -0.2218
-3.9962 SOLVES -0.2218
-3.6951 SOUP -0.2218
-3.9962 SOUVENIRS -0.2218
-3.9962 SPEAK -0.2218
-3.5190 SPECIALS -0.2218
-3.9962 SPECIALTIES -0.2218
-3.9962 SPECIFIC -0.2218
-3.9962 SPELLS -0.2218
-3.6951 SPICY -0.2218
-3.9962 SPLIT -0.2218
-3.9962 SPOT -0.2218
-3.6951 START -0.2218
-3.6951 STATION -0.2218
-3.9962 STAY -0.2218
-3.9962 STEAK -0.2218
-3.6951 STORE -0.2218
-3.9962 STRANGE -0.2218
-3.9962 STRANGERS -0.2218
-3.9962 STRENGTH -0.2218
-3.9962 STRICT -0.2218
-3.9962 STRUCTURE -0.2218
-3.9962 STRUGGLE -0.2218
-3.9962 STUDENTS -0.2218
-3.9962 STYLE -0.2218
-3.9962 SUBSTITUTE -0.2218
-3.6951 SUCCESS -0.2218
-3.9962 SUGAR-FREE -0.2218
-3.2972 SUPPORT -0.2218
-3.9962 SURVIVAL -0.2218
-3.9962 SURVIVORS -0.2218
-3.6951 TABLE -0.2218
-3.9962 TABLES -0.2218
-3.9962 TAKE -0.2218
-3.9962 TAKEN -0.2218
-3.9962 TASKS -0.2218
-3.6951 TAXI -0.2218
-3.2972 TEAM -0.2218
-3.9962 TECHNOLOGICAL -0.2218
-3.6951 TECHNOLOGY -0.2218
-3.6951 THAT -0.2218
-1.9833 THE -0.2218
-2.9962 THERE -0.2218
-2.3834 THIS -0.2218
-3.6951 TICKET -0.2218
-3.9962 TICKETS -0.2218
-3.1511 TIME -0.2218
-3.9962 TIMES -0.2218
-2.4399 TO -0.2218
-3.9962 TO-GO -0.2218
-3.5190 TODAY -0.2218
-3.6951 TODAY’S -0.2218
-3.9962 TOGETHER -0.2218
-3.9962 TOOLS -0.2218
-3.9962 TOUGH -0.2218
-3.9962 TOURS -0.2218
-3.9962 TRADE -0.2218
-3.9962 TRAFFICKERS -0.2218
-3.9962 TRAFFICKING -0.2218
-3.6951 TRAIN -0.2218
-3.6951 TRAINING -0.2218
-3.9962 TRAJECTORIES -0.2218
-3.9962 TRANSITIONS -0.2218
-3.9962 TRENDS -0.2218
-3.9962 TRIES -0.2218
-3.9962 TRY -0.2218
-3.6951 TWO -0.2218
-3.9962 TYPES -0.2218
-3.5190 TYPICAL -0.2218
-3.9962 TYPICALLY -0.2218
-3.9962 UPDATED -0.2218
-3.9962 UPSIDE -0.2218
-3.2180 USE -0.2218
-3.6951 USES -0.2218
-3.9962 USING -0.2218
-3.9962 USUALLY -0.2218
-3.9962 VALUES -0.2218
-3.9962 VEGAN -0.2218
-3.9962 VEGETABLES -0.2218
-3.5190 VEGETARIAN -0.2218
-3.9962 VIEW -0.2218
-3.6951 WAIT -0.2218
-3.9962 WAITING -0.2218
-3.6951 WAKE-UP -0.2218
-3.9962 WALK -0.2218
-3.9962 WANDS -0.2218
-3.6951 WATER -0.2218
-3.9962 WAY -0.2218
-3.9962 WE -0.2218
-3.9962 WEATHER -0.2218
-3.9962 WELL -0.2218
-2.3941 WHAT -0.2218
-3.3941 WHAT’S -0.2218
-3.5190 WHEN -0.2218
-2.7920 WHERE -0.2218
-3.6951 WI-FI -0.2218
-3.9962 WILL -0.2218
-3.9962 WIND -0.2218
-3.9962 WINDOW -0.2218
-3.6951 WINE -0.2218
-3.6951 WINTER -0.2218
-3.9962 WITCHER -0.2218
-3.9962 WITCHERS -0.2218
-2.9962 WITH -0.2218
-3.9962 WITHIN -0.2218
-3.9962 WIZARDING -0.2218
-3.6951 WIZARDS -0.2218
-3.2972 WORK -0.2218
-3.6951 WORK-LIFE -0.2218
-3.9962 WORKDAY -0.2218
-3.9962 WORKING -0.2218
-3.6951 WORLD -0.2218
-3.6951 WOULD -0.2218
-3.9962 YODA -0.2218
-2.3149 YOU -0.2218
-3.5190 YOUR -0.2218
-3.9962 YOU’RE -0.2218

\2-grams:
-0.3010 --- </s> -0.3010
-0.3010 6 </s> -0.3010
-0.3010 7 </s> -0.3010
-2.9170 <s> --- 0.0000
-3.5190 <s> 6 0.0000
-3.5190 <s> 7 0.0000
-1.8030 <s> A 0.0000
-3.5190 <s> ACADEMIC 0.0000
-3.5190 <s> ACCEPT 0.0000
-3.2180 <s> ADDRESS 0.0000
-3.5190 <s> ADVANCEMENT 0.0000
-3.5190 <s> ADVANCES 0.0000
-3.5190 <s> AIR 0.0000
-3.5190 <s> AIRBENDERS 0.0000
-2.9170 <s> AIRPORT 0.0000
-3.5190 <s> ALL 0.0000
-3.5190 <s> ALLERGIC 0.0000
-3.5190 <s> ALLERGY-FREE 0.0000
-3.2180 <s> AM 0.0000
-3.0419 <s> AN 0.0000
-3.5190 <s> ANALYZE 0.0000
-3.5190 <s> ANCIENT 0.0000
-2.4399 <s> AND 0.0000
-2.3429 <s> ANY 0.0000
-3.5190 <s> APPEAR 0.0000
-3.5190 <s> APPOINTMENT 0.0000
-3.2180 <s> APPROACH 0.0000
-2.1211 <s> ARE 0.0000
-3.2180 <s> AROUND 0.0000
-3.2180 <s> ARRIVE 0.0000
-3.5190 <s> AS 0.0000
-3.5190 <s> ASPECTS 0.0000
-3.2180 <s> ASSIGNMENT 0.0000
-3.2180 <s> AT 0.0000
-3.2180 <s> ATM 0.0000
-3.5190 <s> ATTEND 0.0000
-3.5190 <s> ATTRACTIONS 0.0000
-2.8201 <s> AVAILABLE 0.0000
-3.5190 <s> AVATAR'S 0.0000
-3.5190 <s> BABY 0.0000
-3.2180 <s> BAD 0.0000
-3.5190 <s> BAG 0.0000
-3.2180 <s> BALANCE 0.0000
-3.5190 <s> BANK 0.0000
-3.5190 <s> BATHROOM 0.0000
-3.5190 <s> BATTLES 0.0000
-3.2180 <s> BE 0.0000
-3.5190 <s> BEACH 0.0000
-3.5190 <s> BEET 0.0000
-3.5190 <s> BENDING 0.0000
-3.0419 <s> BEST 0.0000
-2.9170 <s> BILL 0.0000
-3.5190 <s> BLACK 0.0000
-3.5190 <s> BOOK 0.0000
-3.2180 <s> BORROW 0.0000
-3.5190 <s> BOSS 0.0000
-3.5190 <s> BOX 0.0000
-3.5190 <s> BREAD 0.0000
-3.2180 <s> BREAKFAST 0.0000
-3.2180 <s> BREAKING 0.0000
-3.5190 <s> BRING 0.0000
-3.2180 <s> BRINGS 0.0000
-3.5190 <s> BUCKINGHAM 0.0000
-3.0419 <s> BUS 0.0000
-3.5190 <s> BUSINESS 0.0000
-3.0419 <s> BUY 0.0000
-3.5190 <s> BY 0.0000
-3.5190 <s> CAB 0.0000
-3.0419 <s> CALL 0.0000
-1.7266 <s> CAN 0.0000
-3.5190 <s> CAR 0.0000
-3.5190 <s> CARD 0.0000
-3.5190 <s> CARDS 0.0000
-2.7409 <s> CAREER 0.0000
-3.5190 <s> CASES 0.0000
-3.5190 <s> CASH 0.0000
-3.5190 <s> CAST 0.0000
-3.5190 <s> CHALLENGE 0.0000
-2.9170 <s> CHALLENGES 0.0000
-3.5190 <s> CHANGES 0.0000
-3.5190 <s> CHARACTER 0.0000
-3.5190 <s> CHARACTERS 0.0000
-3.5190 <s> CHARGER 0.0000
-3.5190 <s> CHECK 0.0000
-3.5190 <s> CHEESE 0.0000
-3.5190 <s> CHILD 0.0000
-3.5190 <s> CHILDREN’S 0.0000
-3.2180 <s> CITY 0.0000
-3.5190 <s> CLASS 0.0000
-3.2180 <s> CLOSE 0.0000
-3.5190 <s> CLOSEST 0.0000
-3.5190 <s> CLUES 0.0000
-3.5190 <s> CODE 0.0000
-3.0419 <s> COFFEE 0.0000
-3.5190 <s> COLD 0.0000
-3.5190 <s> COLLABORATE 0.0000
-3.2180 <s> COMMON 0.0000
-3.5190 <s> COMMUNICATION 0.0000
-2.6160 <s> COMPANY 0.0000
-2.9170 <s> COMPANY’S 0.0000
-3.5190 <s> COMPLETE 0.0000
-3.5190 <s> CONDITIONS 0.0000
-3.2180 <s> CONFLICTS 0.0000
-3.5190 <s> CONNECTION 0.0000
-3.5190 <s> CONTAIN 0.0000
-3.5190 <s> CONTRIBUTE 0.0000
-3.2180 <s> CONTROL 0.0000
-3.5190 <s> COOKED 0.0000
-3.2180 <s> COST 0.0000
-2.9170 <s> COULD 0.0000
-3.5190 <s> COURSE 0.0000
-3.0419 <s> CREATURES 0.0000
-3.2180 <s> CREDIT 0.0000
-3.5190 <s> CRIMES 0.0000
-3.5190 <s> CROSS-DEPARTMENTAL 0.0000
-3.5190 <s> CULTURE 0.0000
-3.2180 <s> CURRENT 0.0000
-3.5190 <s> CYCLICAL 0.0000
-3.0419 <s> DAILY 0.0000
-3.5190 <s> DAIRY-FREE 0.0000
-3.0419 <s> DANGEROUS 0.0000
-3.2180 <s> DARK 0.0000
-2.9170 <s> DAY 0.0000
-3.5190 <s> DEADLINE 0.0000
-3.5190 <s> DEALS 0.0000
-3.2180 <s> DECISIONS 0.0000
-3.5190 <s> DEEP 0.0000
-3.5190 <s> DEPARTMENT 0.0000
-3.5190 <s> DEPICTS 0.0000
-2.8201 <s> DESCRIBE 0.0000
-3.5190 <s> DESCRIBED 0.0000
-3.5190 <s> DESSERT 0.0000
-3.5190 <s> DESSERTS 0.0000
-3.0419 <s> DETECTIVES 0.0000
-3.0419 <s> DEVELOPMENT 0.0000
-3.5190 <s> DIFFERENT 0.0000
-3.5190 <s> DIMENSION 0.0000
-3.2180 <s> DIRECTIONS 0.0000
-3.5190 <s> DISASTER 0.0000
-3.5190 <s> DISCOUNT 0.0000
-2.7409 <s> DISH 0.0000
-3.5190 <s> DIVERSE 0.0000
-2.0139 <s> DO 0.0000
-3.2180 <s> DOCTORS 0.0000
-2.2403 <s> DOES 0.0000
-3.5190 <s> DOGGY 0.0000
-3.5190 <s> DONE 0.0000
-3.5190 <s> DONUTS 0.0000
-3.5190 <s> DOWN 0.0000
-3.5190 <s> DOWNTOWN 0.0000
-3.5190 <s> DRAGONS 0.0000
-3.5190 <s> DRAMATIC 0.0000
-3.5190 <s> DRAMATICALLY 0.0000
-3.5190 <s> DRESSING 0.0000
-3.5190 <s> DRINK 0.0000
-3.5190 <s> DRINKS 0.0000
-3.0419 <s> DRUG 0.0000
-3.5190 <s> DUTIES 0.0000
-3.2180 <s> DWIGHT 0.0000
-3.5190 <s> EACH 0.0000
-3.2180 <s> EAT 0.0000
-3.5190 <s> EFFECTIVE 0.0000
-3.5190 <s> ELEMENTS 0.0000
-3.5190 <s> ELEVEN 0.0000
-3.2180 <s> EMPLOYEE 0.0000
-3.5190 <s> ENCOURAGED 0.0000
-3.5190 <s> END 0.0000
-3.5190 <s> ENSURE 0.0000
-3.5190 <s> ENTRY 0.0000
-3.5190 <s> ENVIRONMENT 0.0000
-3.2180 <s> EVERY 0.0000
-3.2180 <s> EVIDENCE 0.0000
-3.5190 <s> EVIL 0.0000
-3.5190 <s> EXAMPLE 0.0000
-3.5190 <s> EXAMPLES 0.0000
-3.5190 <s> EXIST 0.0000
-3.5190 <s> EXPECTATIONS 0.0000
-3.5190 <s> EXPECTED 0.0000
-3.5190 <s> EXPLAIN 0.0000
-3.5190 <s> EXPLORES 0.0000
-3.2180 <s> EXTRA 0.0000
-3.0419 <s> FACE 0.0000
-3.5190 <s> FACES 0.0000
-3.5190 <s> FAR 0.0000
-3.5190 <s> FARM 0.0000
-3.5190 <s> FAVORITE 0.0000
-3.5190 <s> FEARED 0.0000
-3.5190 <s> FEATURE 0.0000
-3.2180 <s> FEE 0.0000
-3.2180 <s> FEEDBACK 0.0000
-3.5190 <s> FIELD 0.0000
-3.2180 <s> FIGHT 0.0000
-3.5190 <s> FILL 0.0000
-2.8201 <s> FIND 0.0000
-3.5190 <s> FISH 0.0000
-3.5190 <s> FIT 0.0000
-3.5190 <s> FOLLOWS 0.0000
-2.0877 <s> FOR 0.0000
-3.5190 <s> FORCE 0.0000
-3.2180 <s> FORM 0.0000
-3.5190 <s> FOUND 0.0000
-3.5190 <s> FRESH 0.0000
-3.2180 <s> FRIENDS 0.0000
-3.5190 <s> FRIES 0.0000
-3.2180 <s> FROM 0.0000
-3.5190 <s> FURTHER 0.0000
-3.5190 <s> FUTURES 0.0000
-3.5190 <s> GERALT 0.0000
-2.2403 <s> GET 0.0000
-3.5190 <s> GIVE 0.0000
-3.5190 <s> GIVEN 0.0000
-3.5190 <s> GIVES 0.0000
-3.2180 <s> GLASS 0.0000
-3.5190 <s> GLUTEN-FREE 0.0000
-3.2180 <s> GO 0.0000
-3.0419 <s> GOALS 0.0000
-3.5190 <s> GOES 0.0000
-2.8201 <s> GOOD 0.0000
-3.5190 <s> GREY 0.0000
-3.5190 <s> GROCERY 0.0000
-3.2180 <s> GROWTH 0.0000
-3.5190 <s> GUIDE 0.0000
-3.5190 <s> GYM 0.0000
-3.5190 <s> HABITS 0.0000
-3.0419 <s> HANDLE 0.0000
-3.5190 <s> HARD 0.0000
-3.5190 <s> HARSH 0.0000
-3.2180 <s> HAS 0.0000
-2.1388 <s> HAVE 0.0000
-3.5190 <s> HEISENBERG 0.0000
-3.5190 <s> HELLO 0.0000
-2.9170 <s> HELP 0.0000
-2.5648 <s> HERE 0.0000
-3.5190 <s> HIDDEN 0.0000
-3.5190 <s> HIRES 0.0000
-3.0419 <s> HIS 0.0000
-3.5190 <s> HOGWARTS 0.0000
-3.5190 <s> HOMER 0.0000
-3.5190 <s> HOMER'S 0.0000
-3.5190 <s> HONOR 0.0000
-3.2180 <s> HOSPITAL 0.0000
-3.5190 <s> HOT 0.0000
-3.5190 <s> HOTEL 0.0000
-2.0139 <s> HOW 0.0000
-3.5190 <s> HUMOROUS 0.0000
-3.5190 <s> HUNT 0.0000
-1.7556 <s> I 0.0000
-3.2180 <s> ILLEGAL 0.0000
-3.5190 <s> IMPACTS 0.0000
-3.5190 <s> IMPORTANT 0.0000
-2.3729 <s> IN 0.0000
-3.5190 <s> INCLUDED 0.0000
-3.5190 <s> INDICATORS 0.0000
-3.5190 <s> INDUSTRY 0.0000
-3.5190 <s> INITIATIVES 0.0000
-3.5190 <s> INSIGHT 0.0000
-3.5190 <s> INTENSE 0.0000
-3.5190 <s> INTUITION 0.0000
-3.5190 <s> INVOLVES 0.0000
-1.7948 <s> IS 0.0000
-3.5190 <s> ISLAND 0.0000
-3.0419 <s> IT 0.0000
-3.5190 <s> ITEM 0.0000
-3.2180 <s> I’D 0.0000
-3.5190 <s> I’M 0.0000
-3.5190 <s> JEDI 0.0000
-3.2180 <s> JIM 0.0000
-3.5190 <s> KEEN 0.0000
-3.2180 <s> KEY 0.0000
-3.5190 <s> KIND 0.0000
-3.5190 <s> KNIGHTS 0.0000
-3.5190 <s> KNOWN 0.0000
-3.5190 <s> LANDS 0.0000
-3.5190 <s> LAST 0.0000
-3.5190 <s> LAUNDRY 0.0000
-3.5190 <s> LEAVE 0.0000
-3.2180 <s> LESS 0.0000
-3.5190 <s> LIBRARY 0.0000
-3.2180 <s> LIFE 0.0000
-2.7409 <s> LIKE 0.0000
-3.2180 <s> LIST 0.0000
-3.0419 <s> LIVES 0.0000
-3.5190 <s> LIVING 0.0000
-3.0419 <s> LOCAL 0.0000
-3.2180 <s> LONG 0.0000
-3.5190 <s> LORDS 0.0000
-3.0419 <s> LOST 0.0000
-3.2180 <s> LOVES 0.0000
-3.5190 <s> LOW-FAT 0.0000
-3.5190 <s> LUGGAGE 0.0000
-3.2180 <s> MACHINE 0.0000
-3.5190 <s> MADE 0.0000
-3.2180 <s> MAGIC 0.0000
-3.0419 <s> MAGICAL 0.0000
-3.2180 <s> MAIN 0.0000
-3.5190 <s> MAJOR 0.0000
-3.0419 <s> MAKE 0.0000
-3.5190 <s> MAKES 0.0000
-3.5190 <s> MANAGEMENT 0.0000
-3.5190 <s> MANAGER 0.0000
-3.2180 <s> MANDALORIAN 0.0000
-3.5190 <s> MANDALORIAN'S 0.0000
-3.2180 <s> MANY 0.0000
-3.2180 <s> MAP 0.0000
-3.5190 <s> MAY 0.0000
-2.8201 <s> ME 0.0000
-3.5190 <s> MEAL 0.0000
-3.2180 <s> MEASURE 0.0000
-3.5190 <s> MEETINGS 0.0000
-3.5190 <s> MENTORING 0.0000
-2.9170 <s> MENU 0.0000
-3.5190 <s> MEREDITH 0.0000
-3.5190 <s> MICHAEL 0.0000
-3.5190 <s> MIGHT 0.0000
-3.5190 <s> MIRROR 0.0000
-3.2180 <s> MISSION 0.0000
-3.5190 <s> MODERN 0.0000
-3.0419 <s> MONSTERS 0.0000
-3.5190 <s> MORAL 0.0000
-3.5190 <s> MORE 0.0000
-3.0419 <s> MOST 0.0000
-3.5190 <s> MOVIE 0.0000
-2.9170 <s> MUCH 0.0000
-3.2180 <s> MUSEUM 0.0000
-3.5190 <s> MY 0.0000
-3.2180 <s> MYSTERIES 0.0000
-3.5190 <s> MYSTERIOUS 0.0000
-3.5190 <s> NAME 0.0000
-3.5190 <s> NAPKINS 0.0000
-3.5190 <s> NARCOS 0.0000
-3.2180 <s> NEARBY 0.0000
-2.6160 <s> NEAREST 0.0000
-2.7409 <s> NEED 0.0000
-3.5190 <s> NEEDED 0.0000
-3.5190 <s> NEW 0.0000
-3.5190 <s> NEXT 0.0000
-3.5190 <s> NO 0.0000
-3.5190 <s> NON-ALCOHOLIC 0.0000
-3.5190 <s> NUTS 0.0000
-3.5190 <s> OCCUR 0.0000
-2.3729 <s> OF 0.0000
-2.9170 <s> OFFER 0.0000
-2.6739 <s> OFTEN 0.0000
-2.5190 <s> ON 0.0000
-3.5190 <s> ONBOARDING 0.0000
-3.5190 <s> ONE-WAY 0.0000
-3.5190 <s> ONIONS 0.0000
-3.2180 <s> OPPORTUNITIES 0.0000
-2.7409 <s> OPTIONS 0.0000
-3.0419 <s> OR 0.0000
-3.2180 <s> ORDER 0.0000
-3.5190 <s> OTHER 0.0000
-3.5190 <s> OUR 0.0000
-3.2180 <s> OUT 0.0000
-3.5190 <s> PALACE 0.0000
-3.5190 <s> PAM 0.0000
-3.2180 <s> PASSWORD 0.0000
-3.5190 <s> PATH 0.0000
-3.5190 <s> PATHS 0.0000
-3.2180 <s> PAY 0.0000
-3.5190 <s> PEN 0.0000
-3.5190 <s> PEOPLE 0.0000
-3.0419 <s> PERFORMANCE 0.0000
-3.5190 <s> PHARMACY 0.0000
-3.2180 <s> PHONE 0.0000
-2.7409 <s> PLACE 0.0000
-3.5190 <s> PLACES 0.0000
-3.5190 <s> PLANS 0.0000
-3.5190 <s> PLAYS 0.0000
-2.5190 <s> PLEASE 0.0000
-3.5190 <s> POLICY 0.0000
-3.5190 <s> POLITICAL 0.0000
-3.5190 <s> PORTRAYS 0.0000
-3.0419 <s> POSITION 0.0000
-3.5190 <s> POWERS 0.0000
-3.5190 <s> PRANKS 0.0000
-3.5190 <s> PRIORITIES 0.0000
-3.5190 <s> PRIORITIZE 0.0000
-3.5190 <s> PROCESS 0.0000
-3.5190 <s> PRODUCTS 0.0000
-3.2180 <s> PROFESSIONAL 0.0000
-3.5190 <s> PROGRAMS 0.0000
-3.5190 <s> PROJECT 0.0000
-2.9170 <s> PROJECTS 0.0000
-3.5190 <s> PROMOTION 0.0000
-3.5190 <s> PROTECTING 0.0000
-3.5190 <s> PROTECTS 0.0000
-3.5190 <s> PROVIDE 0.0000
-3.5190 <s> PROVIDED 0.0000
-3.5190 <s> PUBLIC 0.0000
-3.5190 <s> PURSUITS 0.0000
-3.5190 <s> QUALITIES 0.0000
-3.2180 <s> QUEEN 0.0000
-3.5190 <s> QUIRKY 0.0000
-3.5190 <s> RAPIDLY 0.0000
-3.5190 <s> REASONS 0.0000
-3.5190 <s> RECEIPT 0.0000
-3.5190 <s> RECENT 0.0000
-2.9170 <s> RECOMMEND 0.0000
-3.5190 <s> RECOMMENDATIONS 0.0000
-3.5190 <s> REFILL 0.0000
-3.5190 <s> REFUND 0.0000
-3.5190 <s> REMOTE 0.0000
-3.5190 <s> RENT 0.0000
-3.5190 <s> REPEAT 0.0000
-3.5190 <s> REQUIREMENTS 0.0000
-3.5190 <s> RESCUE 0.0000
-3.5190 <s> RESERVATION 0.0000
-3.5190 <s> RESOURCES 0.0000
-3.5190 <s> RESPONSIBILITIES 0.0000
-3.2180 <s> RESTAURANT 0.0000
-3.5190 <s> REVERED 0.0000
-3.5190 <s> REVIEWS 0.0000
-3.5190 <s> REWARDING 0.0000
-3.5190 <s> RIDE 0.0000
-2.5190 <s> ROLE 0.0000
-3.0419 <s> ROOM 0.0000
-3.5190 <s> SAFE 0.0000
-3.2180 <s> SALAD 0.0000
-3.5190 <s> SALE 0.0000
-3.5190 <s> SALTY 0.0000
-3.5190 <s> SAUCE 0.0000
-3.5190 <s> SAVE 0.0000
-3.5190 <s> SCENARIOS 0.0000
-3.5190 <s> SCOTT 0.0000
-3.5190 <s> SCRATCH 0.0000
-3.5190 <s> SEAT 0.0000
-3.5190 <s> SECRETS 0.0000
-3.0419 <s> SEE 0.0000
-3.5190 <s> SEEK 0.0000
-3.5190 <s> SERVE 0.0000
-3.5190 <s> SERVED 0.0000
-3.0419 <s> SERVICE 0.0000
-3.5190 <s> SERVICES 0.0000
-3.5190 <s> SHARE 0.0000
-3.5190 <s> SHELDON 0.0000
-3.5190 <s> SHELDON’S 0.0000
-3.5190 <s> SHELLFISH 0.0000
-3.5190 <s> SHERLOCK 0.0000
-3.2180 <s> SHOP 0.0000
-3.5190 <s> SHOW 0.0000
-3.5190 <s> SHOWS 0.0000
-3.5190 <s> SHUTTLE 0.0000
-2.9170 <s> SIDE 0.0000
-3.5190 <s> SIMPSONS 0.0000
-3.5190 <s> SIT 0.0000
-3.2180 <s> SKILL 0.0000
-3.5190 <s> SKILLS 0.0000
-3.5190 <s> SNOW 0.0000
-3.5190 <s> SOFTWARE 0.0000
-3.0419 <s> SOLVE 0.0000
-3.5190 <s> SOLVES 0.0000
-3.2180 <s> SOUP 0.0000
-3.5190 <s> SOUVENIRS 0.0000
-3.5190 <s> SPEAK 0.0000
-3.0419 <s> SPECIALS 0.0000
-3.5190 <s> SPECIALTIES 0.0000
-3.5190 <s> SPECIFIC 0.0000
-3.5190 <s> SPELLS 0.0000
-3.2180 <s> SPICY 0.0000
-3.5190 <s> SPLIT 0.0000
-3.5190 <s> SPOT 0.0000
-3.2180 <s> START 0.0000
-3.2180 <s> STATION 0.0000
-3.5190 <s> STAY 0.0000
-3.5190 <s> STEAK 0.0000
-3.2180 <s> STORE 0.0000
-3.5190 <s> STRANGE 0.0000
-3.5190 <s> STRANGERS 0.0000
-3.5190 <s> STRENGTH 0.0000
-3.5190 <s> STRICT 0.0000
-3.5190 <s> STRUCTURE 0.0000
-3.5190 <s> STRUGGLE 0.0000
-3.5190 <s> STUDENTS 0.0000
-3.5190 <s> STYLE 0.0000
-3.5190 <s> SUBSTITUTE 0.0000
-3.2180 <s> SUCCESS 0.0000
-3.5190 <s> SUGAR-FREE 0.0000
-2.8201 <s> SUPPORT 0.0000
-3.5190 <s> SURVIVAL 0.0000
-3.5190 <s> SURVIVORS 0.0000
-3.2180 <s> TABLE 0.0000
-3.5190 <s> TABLES 0.0000
-3.5190 <s> TAKE 0.0000
-3.5190 <s> TAKEN 0.0000
-3.5190 <s> TASKS 0.0000
-3.2180 <s> TAXI 0.0000
-2.8201 <s> TEAM 0.0000
-3.5190 <s> TECHNOLOGICAL 0.0000
-3.2180 <s> TECHNOLOGY 0.0000
-3.2180 <s> THAT 0.0000
-1.5062 <s> THE 0.0000
-2.5190 <s> THERE 0.0000
-1.9063 <s> THIS 0.0000
-3.2180 <s> TICKET 0.0000
-3.5190 <s> TICKETS 0.0000
-2.6739 <s> TIME 0.0000
-3.5190 <s> TIMES 0.0000
-1.9627 <s> TO 0.0000
-3.5190 <s> TO-GO 0.0000
-3.0419 <s> TODAY 0.0000
-3.2180 <s> TODAY’S 0.0000
-3.5190 <s> TOGETHER 0.0000
-3.5190 <s> TOOLS 0.0000
-3.5190 <s> TOUGH 0.0000
-3.5190 <s> TOURS 0.0000
-3.5190 <s> TRADE 0.0000
-3.5190 <s> TRAFFICKERS 0.0000
-3.5190 <s> TRAFFICKING 0.0000
-3.2180 <s> TRAIN 0.0000
-3.2180 <s> TRAINING 0.0000
-3.5190 <s> TRAJECTORIES 0.0000
-3.5190 <s> TRANSITIONS 0.0000
-3.5190 <s> TRENDS 0.0000
-3.5190 <s> TRIES 0.0000
-3.5190 <s> TRY 0.0000
-3.2180 <s> TWO 0.0000
-3.5190 <s> TYPES 0.0000
-3.0419 <s> TYPICAL 0.0000
-3.5190 <s> TYPICALLY 0.0000
-3.5190 <s> UPDATED 0.0000
-3.5190 <s> UPSIDE 0.0000
-2.7409 <s> USE 0.0000
-3.2180 <s> USES 0.0000
-3.5190 <s> USING 0.0000
-3.5190 <s> USUALLY 0.0000
-3.5190 <s> VALUES 0.0000
-3.5190 <s> VEGAN 0.0000
-3.5190 <s> VEGETABLES 0.0000
-3.0419 <s> VEGETARIAN 0.0000
-3.5190 <s> VIEW 0.0000
-3.2180 <s> WAIT 0.0000
-3.5190 <s> WAITING 0.0000
-3.2180 <s> WAKE-UP 0.0000
-3.5190 <s> WALK 0.0000
-3.5190 <s> WANDS 0.0000
-3.2180 <s> WATER 0.0000
-3.5190 <s> WAY 0.0000
-3.5190 <s> WE 0.0000
-3.5190 <s> WEATHER 0.0000
-3.5190 <s> WELL 0.0000
-1.9170 <s> WHAT 0.0000
-2.9170 <s> WHAT’S 0.0000
-3.0419 <s> WHEN 0.0000
-2.3149 <s> WHERE 0.0000
-3.2180 <s> WI-FI 0.0000
-3.5190 <s> WILL 0.0000
-3.5190 <s> WIND 0.0000
-3.5190 <s> WINDOW 0.0000
-3.2180 <s> WINE 0.0000
-3.2180 <s> WINTER 0.0000
-3.5190 <s> WITCHER 0.0000
-3.5190 <s> WITCHERS 0.0000
-2.5190 <s> WITH 0.0000
-3.5190 <s> WITHIN 0.0000
-3.5190 <s> WIZARDING 0.0000
-3.2180 <s> WIZARDS 0.0000
-2.8201 <s> WORK 0.0000
-3.2180 <s> WORK-LIFE 0.0000
-3.5190 <s> WORKDAY 0.0000
-3.5190 <s> WORKING 0.0000
-3.2180 <s> WORLD 0.0000
-3.2180 <s> WOULD 0.0000
-3.5190 <s> YODA 0.0000
-1.8378 <s> YOU 0.0000
-3.0419 <s> YOUR 0.0000
-3.5190 <s> YOU’RE 0.0000
-0.3010 A </s> -0.3010
-0.3010 ACADEMIC </s> -0.3010
-0.3010 ACCEPT </s> -0.3010
-0.3010 ADDRESS </s> -0.3010
-0.3010 ADVANCEMENT </s> -0.3010
-0.3010 ADVANCES </s> -0.3010
-0.3010 AIR </s> -0.3010
-0.3010 AIRBENDERS </s> -0.3010
-0.3010 AIRPORT </s> -0.3010
-0.3010 ALL </s> -0.3010
-0.3010 ALLERGIC </s> -0.3010
-0.3010 ALLERGY-FREE </s> -0.3010
-0.3010 AM </s> -0.3010
-0.3010 AN </s> -0.3010
-0.3010 ANALYZE </s> -0.3010
-0.3010 ANCIENT </s> -0.3010
-0.3010 AND </s> -0.3010
-0.3010 ANY </s> -0.3010
-0.3010 APPEAR </s> -0.3010
-0.3010 APPOINTMENT </s> -0.3010
-0.3010 APPROACH </s> -0.3010
-0.3010 ARE </s> -0.3010
-0.3010 AROUND </s> -0.3010
-0.3010 ARRIVE </s> -0.3010
-0.3010 AS </s> -0.3010
-0.3010 ASPECTS </s> -0.3010
-0.3010 ASSIGNMENT </s> -0.3010
-0.3010 AT </s> -0.3010
-0.3010 ATM </s> -0.3010
-0.3010 ATTEND </s> -0.3010
-0.3010 ATTRACTIONS </s> -0.3010
-0.3010 AVAILABLE </s> -0.3010
-0.3010 AVATAR'S </s> -0.3010
-0.3010 BABY </s> -0.3010
-0.3010 BAD </s> -0.3010
-0.3010 BAG </s> -0.3010
-0.3010 BALANCE </s> -0.3010
-0.3010 BANK </s> -0.3010
-0.3010 BATHROOM </s> -0.3010
-0.3010 BATTLES </s> -0.3010
-0.3010 BE </s> -0.3010
-0.3010 BEACH </s> -0.3010
-0.3010 BEET </s> -0.3010
-0.3010 BENDING </s> -0.3010
-0.3010 BEST </s> -0.3010
-0.3010 BILL </s> -0.3010
-0.3010 BLACK </s> -0.3010
-0.3010 BOOK </s> -0.3010
-0.3010 BORROW </s> -0.3010
-0.3010 BOSS </s> -0.3010
-0.3010 BOX </s> -0.3010
-0.3010 BREAD </s> -0.3010
-0.3010 BREAKFAST </s> -0.3010
-0.3010 BREAKING </s> -0.3010
-0.3010 BRING </s> -0.3010
-0.3010 BRINGS </s> -0.3010
-0.3010 BUCKINGHAM </s> -0.3010
-0.3010 BUS </s> -0.3010
-0.3010 BUSINESS </s> -0.3010
-0.3010 BUY </s> -0.3010
-0.3010 BY </s> -0.3010
-0.3010 CAB </s> -0.3010
-0.3010 CALL </s> -0.3010
-0.3010 CAN </s> -0.3010
-0.3010 CAR </s> -0.3010
-0.3010 CARD </s> -0.3010
-0.3010 CARDS </s> -0.3010
-0.3010 CAREER </s> -0.3010
-0.3010 CASES </s> -0.3010
-0.3010 CASH </s> -0.3010
-0.3010 CAST </s> -0.3010
-0.3010 CHALLENGE </s> -0.3010
-0.3010 CHALLENGES </s> -0.3010
-0.3010 CHANGES </s> -0.3010
-0.3010 CHARACTER </s> -0.3010
-0.3010 CHARACTERS </s> -0.3010
-0.3010 CHARGER </s> -0.3010
-0.3010 CHECK </s> -0.3010
-0.3010 CHEESE </s> -0.3010
-0.3010 CHILD </s> -0.3010
-0.3010 CHILDREN’S </s> -0.3010
-0.3010 CITY </s> -0.3010
-0.3010 CLASS </s> -0.3010
-0.3010 CLOSE </s> -0.3010
-0.3010 CLOSEST </s> -0.3010
-0.3010 CLUES </s> -0.3010
-0.3010 CODE </s> -0.3010
-0.3010 COFFEE </s> -0.3010
-0.3010 COLD </s> -0.3010
-0.3010 COLLABORATE </s> -0.3010
-0.3010 COMMON </s> -0.3010
-0.3010 COMMUNICATION </s> -0.3010
-0.3010 COMPANY </s> -0.3010
-0.3010 COMPANY’S </s> -0.3010
-0.3010 COMPLETE </s> -0.3010
-0.3010 CONDITIONS </s> -0.3010
-0.3010 CONFLICTS </s> -0.3010
-0.3010 CONNECTION </s> -0.3010
-0.3010 CONTAIN </s> -0.3010
-0.3010 CONTRIBUTE </s> -0.3010
-0.3010 CONTROL </s> -0.3010
-0.3010 COOKED </s> -0.3010
-0.3010 COST </s> -0.3010
-0.3010 COULD </s> -0.3010
-0.3010 COURSE </s> -0.3010
-0.3010 CREATURES </s> -0.3010
-0.3010 CREDIT </s> -0.3010
-0.3010 CRIMES </s> -0.3010
-0.3010 CROSS-DEPARTMENTAL </s> -0.3010
-0.3010 CULTURE </s> -0.3010
-0.3010 CURRENT </s> -0.3010
-0.3010 CYCLICAL </s> -0.3010
-0.3010 DAILY </s> -0.3010
-0.3010 DAIRY-FREE </s> -0.3010
-0.3010 DANGEROUS </s> -0.3010
-0.3010 DARK </s> -0.3010
-0.3010 DAY </s> -0.3010
-0.3010 DEADLINE </s> -0.3010
-0.3010 DEALS </s> -0.3010
-0.3010 DECISIONS </s> -0.3010
-0.3010 DEEP </s> -0.3010
-0.3010 DEPARTMENT </s> -0.3010
-0.3010 DEPICTS </s> -0.3010
-0.3010 DESCRIBE </s> -0.3010
-0.3010 DESCRIBED </s> -0.3010
-0.3010 DESSERT </s> -0.3010
-0.3010 DESSERTS </s> -0.3010
-0.3010 DETECTIVES </s> -0.3010
-0.3010 DEVELOPMENT </s> -0.3010
-0.3010 DIFFERENT </s> -0.3010
-0.3010 DIMENSION </s> -0.3010
-0.3010 DIRECTIONS </s> -0.3010
-0.3010 DISASTER </s> -0.3010
-0.3010 DISCOUNT </s> -0.3010
-0.3010 DISH </s> -0.3010
-0.3010 DIVERSE </s> -0.3010
-0.3010 DO </s> -0.3010
-0.3010 DOCTORS </s> -0.3010
-0.3010 DOES </s> -0.3010
-0.3010 DOGGY </s> -0.3010
-0.3010 DONE </s> -0.3010
-0.3010 DONUTS </s> -0.3010
-0.3010 DOWN </s> -0.3010
-0.3010 DOWNTOWN </s> -0.3010
-0.3010 DRAGONS </s> -0.3010
-0.3010 DRAMATIC </s> -0.3010
-0.3010 DRAMATICALLY </s> -0.3010
-0.3010 DRESSING </s> -0.3010
-0.3010 DRINK </s> -0.3010
-0.3010 DRINKS </s> -0.3010
-0.3010 DRUG </s> -0.3010
-0.3010 DUTIES </s> -0.3010
-0.3010 DWIGHT </s> -0.3010
-0.3010 EACH </s> -0.3010
-0.3010 EAT </s> -0.3010
-0.3010 EFFECTIVE </s> -0.3010
-0.3010 ELEMENTS </s> -0.3010
-0.3010 ELEVEN </s> -0.3010
-0.3010 EMPLOYEE </s> -0.3010
-0.3010 ENCOURAGED </s> -0.3010
-0.3010 END </s> -0.3010
-0.3010 ENSURE </s> -0.3010
-0.3010 ENTRY </s> -0.3010
-0.3010 ENVIRONMENT </s> -0.3010
-0.3010 EVERY </s> -0.3010
-0.3010 EVIDENCE </s> -0.3010
-0.3010 EVIL </s> -0.3010
-0.3010 EXAMPLE </s> -0.3010
-0.3010 EXAMPLES </s> -0.3010
-0.3010 EXIST </s> -0.3010
-0.3010 EXPECTATIONS </s> -0.3010
-0.3010 EXPECTED </s> -0.3010
-0.3010 EXPLAIN </s> -0.3010
-0.3010 EXPLORES </s> -0.3010
-0.3010 EXTRA </s> -0.3010
-0.3010 FACE </s> -0.3010
-0.3010 FACES </s> -0.3010
-0.3010 FAR </s> -0.3010
-0.3010 FARM </s> -0.3010
-0.3010 FAVORITE </s> -0.3010
-0.3010 FEARED </s> -0.3010
-0.3010 FEATURE </s> -0.3010
-0.3010 FEE </s> -0.3010
-0.3010 FEEDBACK </s> -0.3010
-0.3010 FIELD </s> -0.3010
-0.3010 FIGHT </s> -0.3010
-0.3010 FILL </s> -0.3010
-0.3010 FIND </s> -0.3010
-0.3010 FISH </s> -0.3010
-0.3010 FIT </s> -0.3010
-0.3010 FOLLOWS </s> -0.3010
-0.3010 FOR </s> -0.3010
-0.3010 FORCE </s> -0.3010
-0.3010 FORM </s> -0.3010
-0.3010 FOUND </s> -0.3010
-0.3010 FRESH </s> -0.3010
-0.3010 FRIENDS </s> -0.3010
-0.3010 FRIES </s> -0.3010
-0.3010 FROM </s> -0.3010
-0.3010 FURTHER </s> -0.3010
-0.3010 FUTURES </s> -0.3010
-0.3010 GERALT </s> -0.3010
-0.3010 GET </s> -0.3010
-0.3010 GIVE </s> -0.3010
-0.3010 GIVEN </s> -0.3010
-0.3010 GIVES </s> -0.3010
-0.3010 GLASS </s> -0.3010
-0.3010 GLUTEN-FREE </s> -0.3010
-0.3010 GO </s> -0.3010
-0.3010 GOALS </s> -0.3010
-0.3010 GOES </s> -0.3010
-0.3010 GOOD </s> -0.3010
-0.3010 GREY </s> -0.3010
-0.3010 GROCERY </s> -0.3010
-0.3010 GROWTH </s> -0.3010
-0.3010 GUIDE </s> -0.3010
-0.3010 GYM </s> -0.3010
-0.3010 HABITS </s> -0.3010
-0.3010 HANDLE </s> -0.3010
-0.3010 HARD </s> -0.3010
-0.3010 HARSH </s> -0.3010
-0.3010 HAS </s> -0.3010
-0.3010 HAVE </s> -0.3010
-0.3010 HEISENBERG </s> -0.3010
-0.3010 HELLO </s> -0.3010
-0.3010 HELP </s> -0.3010
-0.3010 HERE </s> -0.3010
-0.3010 HIDDEN </s> -0.3010
-0.3010 HIRES </s> -0.3010
-0.3010 HIS </s> -0.3010
-0.3010 HOGWARTS </s> -0.3010
-0.3010 HOMER </s> -0.3010
-0.3010 HOMER'S </s> -0.3010
-0.3010 HONOR </s> -0.3010
-0.3010 HOSPITAL </s> -0.3010
-0.3010 HOT </s> -0.3010
-0.3010 HOTEL </s> -0.3010
-0.3010 HOW </s> -0.3010
-0.3010 HUMOROUS </s> -0.3010
-0.3010 HUNT </s> -0.3010
-0.3010 I </s> -0.3010
-0.3010 ILLEGAL </s> -0.3010
-0.3010 IMPACTS </s> -0.3010
-0.3010 IMPORTANT </s> -0.3010
-0.3010 IN </s> -0.3010
-0.3010 INCLUDED </s> -0.3010
-0.3010 INDICATORS </s> -0.3010
-0.3010 INDUSTRY </s> -0.3010
-0.3010 INITIATIVES </s> -0.3010
-0.3010 INSIGHT </s> -0.3010
-0.3010 INTENSE </s> -0.3010
-0.3010 INTUITION </s> -0.3010
-0.3010 INVOLVES </s> -0.3010
-0.3010 IS </s> -0.3010
-0.3010 ISLAND </s> -0.3010
-0.3010 IT </s> -0.3010
-0.3010 ITEM </s> -0.3010
-0.3010 I’D </s> -0.3010
-0.3010 I’M </s> -0.3010
-0.3010 JEDI </s> -0.3010
-0.3010 JIM </s> -0.3010
-0.3010 KEEN </s> -0.3010
-0.3010 KEY </s> -0.3010
-0.3010 KIND </s> -0.3010
-0.3010 KNIGHTS </s> -0.3010
-0.3010 KNOWN </s> -0.3010
-0.3010 LANDS </s> -0.3010
-0.3010 LAST </s> -0.3010
-0.3010 LAUNDRY </s> -0.3010
-0.3010 LEAVE </s> -0.3010
-0.3010 LESS </s> -0.3010
-0.3010 LIBRARY </s> -0.3010
-0.3010 LIFE </s> -0.3010
-0.3010 LIKE </s> -0.3010
-0.3010 LIST </s> -0.3010
-0.3010 LIVES </s> -0.3010
-0.3010 LIVING </s> -0.3010
-0.3010 LOCAL </s> -0.3010
-0.3010 LONG </s> -0.3010
-0.3010 LORDS </s> -0.3010
-0.3010 LOST </s> -0.3010
-0.3010 LOVES </s> -0.3010
-0.3010 LOW-FAT </s> -0.3010
-0.3010 LUGGAGE </s> -0.3010
-0.3010 MACHINE </s> -0.3010
-0.3010 MADE </s> -0.3010
-0.3010 MAGIC </s> -0.3010
-0.3010 MAGICAL </s> -0.3010
-0.3010 MAIN </s> -0.3010
-0.3010 MAJOR </s> -0.3010
-0.3010 MAKE </s> -0.3010
-0.3010 MAKES </s> -0.3010
-0.3010 MANAGEMENT </s> -0.3010
-0.3010 MANAGER </s> -0.3010
-0.3010 MANDALORIAN </s> -0.3010
-0.3010 MANDALORIAN'S </s> -0.3010
-0.3010 MANY </s> -0.3010
-0.3010 MAP </s> -0.3010
-0.3010 MAY </s> -0.3010
-0.3010 ME </s> -0.3010
-0.3010 MEAL </s> -0.3010
-0.3010 MEASURE </s> -0.3010
-0.3010 MEETINGS </s> -0.3010
-0.3010 MENTORING </s> -0.3010
-0.3010 MENU </s> -0.3010
-0.3010 MEREDITH </s> -0.3010
-0.3010 MICHAEL </s> -0.3010
-0.3010 MIGHT </s> -0.3010
-0.3010 MIRROR </s> -0.3010
-0.3010 MISSION </s> -0.3010
-0.3010 MODERN </s> -0.3010
-0.3010 MONSTERS </s> -0.3010
-0.3010 MORAL </s> -0.3010
-0.3010 MORE </s> -0.3010
-0.3010 MOST </s> -0.3010
-0.3010 MOVIE </s> -0.3010
-0.3010 MUCH </s> -0.3010
-0.3010 MUSEUM </s> -0.3010
-0.3010 MY </s> -0.3010
-0.3010 MYSTERIES </s> -0.3010
-0.3010 MYSTERIOUS </s> -0.3010
-0.3010 NAME </s> -0.3010
-0.3010 NAPKINS </s> -0.3010
-0.3010 NARCOS </s> -0.3010
-0.3010 NEARBY </s> -0.3010
-0.3010 NEAREST </s> -0.3010
-0.3010 NEED </s> -0.3010
-0.3010 NEEDED </s> -0.3010
-0.3010 NEW </s> -0.3010
-0.3010 NEXT </s> -0.3010
-0.3010 NO </s> -0.3010
-0.3010 NON-ALCOHOLIC </s> -0.3010
-0.3010 NUTS </s> -0.3010
-0.3010 OCCUR </s> -0.3010
-0.3010 OF </s> -0.3010
-0.3010 OFFER </s> -0.3010
-0.3010 OFTEN </s> -0.3010
-0.3010 ON </s> -0.3010
-0.3010 ONBOARDING </s> -0.3010
-0.3010 ONE-WAY </s> -0.3010
-0.3010 ONIONS </s> -0.3010
-0.3010 OPPORTUNITIES </s> -0.3010
-0.3010 OPTIONS </s> -0.3010
-0.3010 OR </s> -0.3010
-0.3010 ORDER </s> -0.3010
-0.3010 OTHER </s> -0.3010
-0.3010 OUR </s> -0.3010
-0.3010 OUT </s> -0.3010
-0.3010 PALACE </s> -0.3010
-0.3010 PAM </s> -0.3010
-0.3010 PASSWORD </s> -0.3010
-0.3010 PATH </s> -0.3010
-0.3010 PATHS </s> -0.3010
-0.3010 PAY </s> -0.3010
-0.3010 PEN </s> -0.3010
-0.3010 PEOPLE </s> -0.3010
-0.3010 PERFORMANCE </s> -0.3010
-0.3010 PHARMACY </s> -0.3010
-0.3010 PHONE </s> -0.3010
-0.3010 PLACE </s> -0.3010
-0.3010 PLACES </s> -0.3010
-0.3010 PLANS </s> -0.3010
-0.3010 PLAYS </s> -0.3010
-0.3010 PLEASE </s> -0.3010
-0.3010 POLICY </s> -0.3010
-0.3010 POLITICAL </s> -0.3010
-0.3010 PORTRAYS </s> -0.3010
-0.3010 POSITION </s> -0.3010
-0.3010 POWERS </s> -0.3010
-0.3010 PRANKS </s> -0.3010
-0.3010 PRIORITIES </s> -0.3010
-0.3010 PRIORITIZE </s> -0.3010
-0.3010 PROCESS </s> -0.3010
-0.3010 PRODUCTS </s> -0.3010
-0.3010 PROFESSIONAL </s> -0.3010
-0.3010 PROGRAMS </s> -0.3010
-0.3010 PROJECT </s> -0.3010
-0.3010 PROJECTS </s> -0.3010
-0.3010 PROMOTION </s> -0.3010
-0.3010 PROTECTING </s> -0.3010
-0.3010 PROTECTS </s> -0.3010
-0.3010 PROVIDE </s> -0.3010
-0.3010 PROVIDED </s> -0.3010
-0.3010 PUBLIC </s> -0.3010
-0.3010 PURSUITS </s> -0.3010
-0.3010 QUALITIES </s> -0.3010
-0.3010 QUEEN </s> -0.3010
-0.3010 QUIRKY </s> -0.3010
-0.3010 RAPIDLY </s> -0.3010
-0.3010 REASONS </s> -0.3010
-0.3010 RECEIPT </s> -0.3010
-0.3010 RECENT </s> -0.3010
-0.3010 RECOMMEND </s> -0.3010
-0.3010 RECOMMENDATIONS </s> -0.3010
-0.3010 REFILL </s> -0.3010
-0.3010 REFUND </s> -0.3010
-0.3010 REMOTE </s> -0.3010
-0.3010 RENT </s> -0.3010
-0.3010 REPEAT </s> -0.3010
-0.3010 REQUIREMENTS </s> -0.3010
-0.3010 RESCUE </s> -0.3010
-0.3010 RESERVATION </s> -0.3010
-0.3010 RESOURCES </s> -0.3010
-0.3010 RESPONSIBILITIES </s> -0.3010
-0.3010 RESTAURANT </s> -0.3010
-0.3010 REVERED </s> -0.3010
-0.3010 REVIEWS </s> -0.3010
-0.3010 REWARDING </s> -0.3010
-0.3010 RIDE </s> -0.3010
-0.3010 ROLE </s> -0.3010
-0.3010 ROOM </s> -0.3010
-0.3010 SAFE </s> -0.3010
-0.3010 SALAD </s> -0.3010
-0.3010 SALE </s> -0.3010
-0.3010 SALTY </s> -0.3010
-0.3010 SAUCE </s> -0.3010
-0.3010 SAVE </s> -0.3010
-0.3010 SCENARIOS </s> -0.3010
-0.3010 SCOTT </s> -0.3010
-0.3010 SCRATCH </s> -0.3010
-0.3010 SEAT </s> -0.3010
-0.3010 SECRETS </s> -0.3010
-0.3010 SEE </s> -0.3010
-0.3010 SEEK </s> -0.3010
-0.3010 SERVE </s> -0.3010
-0.3010 SERVED </s> -0.3010
-0.3010 SERVICE </s> -0.3010
-0.3010 SERVICES </s> -0.3010
-0.3010 SHARE </s> -0.3010
-0.3010 SHELDON </s> -0.3010
-0.3010 SHELDON’S </s> -0.3010
-0.3010 SHELLFISH </s> -0.3010
-0.3010 SHERLOCK </s> -0.3010
-0.3010 SHOP </s> -0.3010
-0.3010 SHOW </s> -0.3010
-0.3010 SHOWS </s> -0.3010
-0.3010 SHUTTLE </s> -0.3010
-0.3010 SIDE </s> -0.3010
-0.3010 SIMPSONS </s> -0.3010
-0.3010 SIT </s> -0.3010
-0.3010 SKILL </s> -0.3010
-0.3010 SKILLS </s> -0.3010
-0.3010 SNOW </s> -0.3010
-0.3010 SOFTWARE </s> -0.3010
-0.3010 SOLVE </s> -0.3010
-0.3010 SOLVES </s> -0.3010
-0.3010 SOUP </s> -0.3010
-0.3010 SOUVENIRS </s> -0.3010
-0.3010 SPEAK </s> -0.3010
-0.3010 SPECIALS </s> -0.3010
-0.3010 SPECIALTIES </s> -0.3010
-0.3010 SPECIFIC </s> -0.3010
-0.3010 SPELLS </s> -0.3010
-0.3010 SPICY </s> -0.3010
-0.3010 SPLIT </s> -0.3010
-0.3010 SPOT </s> -0.3010
-0.3010 START </s> -0.3010
-0.3010 STATION </s> -0.3010
-0.3010 STAY </s> -0.3010
-0.3010 STEAK </s> -0.3010
-0.3010 STORE </s> -0.3010
-0.3010 STRANGE </s> -0.3010
-0.3010 STRANGERS </s> -0.3010
-0.3010 STRENGTH </s> -0.3010
-0.3010 STRICT </s> -0.3010
-0.3010 STRUCTURE </s> -0.3010
-0.3010 STRUGGLE </s> -0.3010
-0.3010 STUDENTS </s> -0.3010
-0.3010 STYLE </s> -0.3010
-0.3010 SUBSTITUTE </s> -0.3010
-0.3010 SUCCESS </s> -0.3010
-0.3010 SUGAR-FREE </s> -0.3010
-0.3010 SUPPORT </s> -0.3010
-0.3010 SURVIVAL </s> -0.3010
-0.3010 SURVIVORS </s> -0.3010
-0.3010 TABLE </s> -0.3010
-0.3010 TABLES </s> -0.3010
-0.3010 TAKE </s> -0.3010
-0.3010 TAKEN </s> -0.3010
-0.3010 TASKS </s> -0.3010
-0.3010 TAXI </s> -0.3010
-0.3010 TEAM </s> -0.3010
-0.3010 TECHNOLOGICAL </s> -0.3010
-0.3010 TECHNOLOGY </s> -0.3010
-0.3010 THAT </s> -0.3010
-0.3010 THE </s> -0.3010
-0.3010 THERE </s> -0.3010
-0.3010 THIS </s> -0.3010
-0.3010 TICKET </s> -0.3010
-0.3010 TICKETS </s> -0.3010
-0.3010 TIME </s> -0.3010
-0.3010 TIMES </s> -0.3010
-0.3010 TO </s> -0.3010
-0.3010 TO-GO </s> -0.3010
-0.3010 TODAY </s> -0.3010
-0.3010 TODAY’S </s> -0.3010
-0.3010 TOGETHER </s> -0.3010
-0.3010 TOOLS </s> -0.3010
-0.3010 TOUGH </s> -0.3010
-0.3010 TOURS </s> -0.3010
-0.3010 TRADE </s> -0.3010
-0.3010 TRAFFICKERS </s> -0.3010
-0.3010 TRAFFICKING </s> -0.3010
-0.3010 TRAIN </s> -0.3010
-0.3010 TRAINING </s> -0.3010
-0.3010 TRAJECTORIES </s> -0.3010
-0.3010 TRANSITIONS </s> -0.3010
-0.3010 TRENDS </s> -0.3010
-0.3010 TRIES </s> -0.3010
-0.3010 TRY </s> -0.3010
-0.3010 TWO </s> -0.3010
-0.3010 TYPES </s> -0.3010
-0.3010 TYPICAL </s> -0.3010
-0.3010 TYPICALLY </s> -0.3010
-0.3010 UPDATED </s> -0.3010
-0.3010 UPSIDE </s> -0.3010
-0.3010 USE </s> -0.3010
-0.3010 USES </s> -0.3010
-0.3010 USING </s> -0.3010
-0.3010 USUALLY </s> -0.3010
-0.3010 VALUES </s> -0.3010
-0.3010 VEGAN </s> -0.3010
-0.3010 VEGETABLES </s> -0.3010
-0.3010 VEGETARIAN </s> -0.3010
-0.3010 VIEW </s> -0.3010
-0.3010 WAIT </s> -0.3010
-0.3010 WAITING </s> -0.3010
-0.3010 WAKE-UP </s> -0.3010
-0.3010 WALK </s> -0.3010
-0.3010 WANDS </s> -0.3010
-0.3010 WATER </s> -0.3010
-0.3010 WAY </s> -0.3010
-0.3010 WE </s> -0.3010
-0.3010 WEATHER </s> -0.3010
-0.3010 WELL </s> -0.3010
-0.3010 WHAT </s> -0.3010
-0.3010 WHAT’S </s> -0.3010
-0.3010 WHEN </s> -0.3010
-0.3010 WHERE </s> -0.3010
-0.3010 WI-FI </s> -0.3010
-0.3010 WILL </s> -0.3010
-0.3010 WIND </s> -0.3010
-0.3010 WINDOW </s> -0.3010
-0.3010 WINE </s> -0.3010
-0.3010 WINTER </s> -0.3010
-0.3010 WITCHER </s> -0.3010
-0.3010 WITCHERS </s> -0.3010
-0.3010 WITH </s> -0.3010
-0.3010 WITHIN </s> -0.3010
-0.3010 WIZARDING </s> -0.3010
-0.3010 WIZARDS </s> -0.3010
-0.3010 WORK </s> -0.3010
-0.3010 WORK-LIFE </s> -0.3010
-0.3010 WORKDAY </s> -0.3010
-0.3010 WORKING </s> -0.3010
-0.3010 WORLD </s> -0.3010
-0.3010 WOULD </s> -0.3010
-0.3010 YODA </s> -0.3010
-0.3010 YOU </s> -0.3010
-0.3010 YOUR </s> -0.3010
-0.3010 YOU’RE </s> -0.3010

\3-grams:
-0.3010 <s> --- </s>
-0.3010 <s> 6 </s>
-0.3010 <s> 7 </s>
-0.3010 <s> A </s>
-0.3010 <s> ACADEMIC </s>
-0.3010 <s> ACCEPT </s>
-0.3010 <s> ADDRESS </s>
-0.3010 <s> ADVANCEMENT </s>
-0.3010 <s> ADVANCES </s>
-0.3010 <s> AIR </s>
-0.3010 <s> AIRBENDERS </s>
-0.3010 <s> AIRPORT </s>
-0.3010 <s> ALL </s>
-0.3010 <s> ALLERGIC </s>
-0.3010 <s> ALLERGY-FREE </s>
-0.3010 <s> AM </s>
-0.3010 <s> AN </s>
-0.3010 <s> ANALYZE </s>
-0.3010 <s> ANCIENT </s>
-0.3010 <s> AND </s>
-0.3010 <s> ANY </s>
-0.3010 <s> APPEAR </s>
-0.3010 <s> APPOINTMENT </s>
-0.3010 <s> APPROACH </s>
-0.3010 <s> ARE </s>
-0.3010 <s> AROUND </s>
-0.3010 <s> ARRIVE </s>
-0.3010 <s> AS </s>
-0.3010 <s> ASPECTS </s>
-0.3010 <s> ASSIGNMENT </s>
-0.3010 <s> AT </s>
-0.3010 <s> ATM </s>
-0.3010 <s> ATTEND </s>
-0.3010 <s> ATTRACTIONS </s>
-0.3010 <s> AVAILABLE </s>
-0.3010 <s> AVATAR'S </s>
-0.3010 <s> BABY </s>
-0.3010 <s> BAD </s>
-0.3010 <s> BAG </s>
-0.3010 <s> BALANCE </s>
-0.3010 <s> BANK </s>
-0.3010 <s> BATHROOM </s>
-0.3010 <s> BATTLES </s>
-0.3010 <s> BE </s>
-0.3010 <s> BEACH </s>
-0.3010 <s> BEET </s>
-0.3010 <s> BENDING </s>
-0.3010 <s> BEST </s>
-0.3010 <s> BILL </s>
-0.3010 <s> BLACK </s>
-0.3010 <s> BOOK </s>
-0.3010 <s> BORROW </s>
-0.3010 <s> BOSS </s>
-0.3010 <s> BOX </s>
-0.3010 <s> BREAD </s>
-0.3010 <s> BREAKFAST </s>
-0.3010 <s> BREAKING </s>
-0.3010 <s> BRING </s>
-0.3010 <s> BRINGS </s>
-0.3010 <s> BUCKINGHAM </s>
-0.3010 <s> BUS </s>
-0.3010 <s> BUSINESS </s>
-0.3010 <s> BUY </s>
-0.3010 <s> BY </s>
-0.3010 <s> CAB </s>
-0.3010 <s> CALL </s>
-0.3010 <s> CAN </s>
-0.3010 <s> CAR </s>
-0.3010 <s> CARD </s>
-0.3010 <s> CARDS </s>
-0.3010 <s> CAREER </s>
-0.3010 <s> CASES </s>
-0.3010 <s> CASH </s>
-0.3010 <s> CAST </s>
-0.3010 <s> CHALLENGE </s>
-0.3010 <s> CHALLENGES </s>
-0.3010 <s> CHANGES </s>
-0.3010 <s> CHARACTER </s>
-0.3010 <s> CHARACTERS </s>
-0.3010 <s> CHARGER </s>
-0.3010 <s> CHECK </s>
-0.3010 <s> CHEESE </s>
-0.3010 <s> CHILD </s>
-0.3010 <s> CHILDREN’S </s>
-0.3010 <s> CITY </s>
-0.3010 <s> CLASS </s>
-0.3010 <s> CLOSE </s>
-0.3010 <s> CLOSEST </s>
-0.3010 <s> CLUES </s>
-0.3010 <s> CODE </s>
-0.3010 <s> COFFEE </s>
-0.3010 <s> COLD </s>
-0.3010 <s> COLLABORATE </s>
-0.3010 <s> COMMON </s>
-0.3010 <s> COMMUNICATION </s>
-0.3010 <s> COMPANY </s>
-0.3010 <s> COMPANY’S </s>
-0.3010 <s> COMPLETE </s>
-0.3010 <s> CONDITIONS </s>
-0.3010 <s> CONFLICTS </s>
-0.3010 <s> CONNECTION </s>
-0.3010 <s> CONTAIN </s>
-0.3010 <s> CONTRIBUTE </s>
-0.3010 <s> CONTROL </s>
-0.3010 <s> COOKED </s>
-0.3010 <s> COST </s>
-0.3010 <s> COULD </s>
-0.3010 <s> COURSE </s>
-0.3010 <s> CREATURES </s>
-0.3010 <s> CREDIT </s>
-0.3010 <s> CRIMES </s>
-0.3010 <s> CROSS-DEPARTMENTAL </s>
-0.3010 <s> CULTURE </s>
-0.3010 <s> CURRENT </s>
-0.3010 <s> CYCLICAL </s>
-0.3010 <s> DAILY </s>
-0.3010 <s> DAIRY-FREE </s>
-0.3010 <s> DANGEROUS </s>
-0.3010 <s> DARK </s>
-0.3010 <s> DAY </s>
-0.3010 <s> DEADLINE </s>
-0.3010 <s> DEALS </s>
-0.3010 <s> DECISIONS </s>
-0.3010 <s> DEEP </s>
-0.3010 <s> DEPARTMENT </s>
-0.3010 <s> DEPICTS </s>
-0.3010 <s> DESCRIBE </s>
-0.3010 <s> DESCRIBED </s>
-0.3010 <s> DESSERT </s>
-0.3010 <s> DESSERTS </s>
-0.3010 <s> DETECTIVES </s>
-0.3010 <s> DEVELOPMENT </s>
-0.3010 <s> DIFFERENT </s>
-0.3010 <s> DIMENSION </s>
-0.3010 <s> DIRECTIONS </s>
-0.3010 <s> DISASTER </s>
-0.3010 <s> DISCOUNT </s>
-0.3010 <s> DISH </s>
-0.3010 <s> DIVERSE </s>
-0.3010 <s> DO </s>
-0.3010 <s> DOCTORS </s>
-0.3010 <s> DOES </s>
-0.3010 <s> DOGGY </s>
-0.3010 <s> DONE </s>
-0.3010 <s> DONUTS </s>
-0.3010 <s> DOWN </s>
-0.3010 <s> DOWNTOWN </s>
-0.3010 <s> DRAGONS </s>
-0.3010 <s> DRAMATIC </s>
-0.3010 <s> DRAMATICALLY </s>
-0.3010 <s> DRESSING </s>
-0.3010 <s> DRINK </s>
-0.3010 <s> DRINKS </s>
-0.3010 <s> DRUG </s>
-0.3010 <s> DUTIES </s>
-0.3010 <s> DWIGHT </s>
-0.3010 <s> EACH </s>
-0.3010 <s> EAT </s>
-0.3010 <s> EFFECTIVE </s>
-0.3010 <s> ELEMENTS </s>
-0.3010 <s> ELEVEN </s>
-0.3010 <s> EMPLOYEE </s>
-0.3010 <s> ENCOURAGED </s>
-0.3010 <s> END </s>
-0.3010 <s> ENSURE </s>
-0.3010 <s> ENTRY </s>
-0.3010 <s> ENVIRONMENT </s>
-0.3010 <s> EVERY </s>
-0.3010 <s> EVIDENCE </s>
-0.3010 <s> EVIL </s>
-0.3010 <s> EXAMPLE </s>
-0.3010 <s> EXAMPLES </s>
-0.3010 <s> EXIST </s>
-0.3010 <s> EXPECTATIONS </s>
-0.3010 <s> EXPECTED </s>
-0.3010 <s> EXPLAIN </s>
-0.3010 <s> EXPLORES </s>
-0.3010 <s> EXTRA </s>
-0.3010 <s> FACE </s>
-0.3010 <s> FACES </s>
-0.3010 <s> FAR </s>
-0.3010 <s> FARM </s>
-0.3010 <s> FAVORITE </s>
-0.3010 <s> FEARED </s>
-0.3010 <s> FEATURE </s>
-0.3010 <s> FEE </s>
-0.3010 <s> FEEDBACK </s>
-0.3010 <s> FIELD </s>
-0.3010 <s> FIGHT </s>
-0.3010 <s> FILL </s>
-0.3010 <s> FIND </s>
-0.3010 <s> FISH </s>
-0.3010 <s> FIT </s>
-0.3010 <s> FOLLOWS </s>
-0.3010 <s> FOR </s>
-0.3010 <s> FORCE </s>
-0.3010 <s> FORM </s>
-0.3010 <s> FOUND </s>
-0.3010 <s> FRESH </s>
-0.3010 <s> FRIENDS </s>
-0.3010 <s> FRIES </s>
-0.3010 <s> FROM </s>
-0.3010 <s> FURTHER </s>
-0.3010 <s> FUTURES </s>
-0.3010 <s> GERALT </s>
-0.3010 <s> GET </s>
-0.3010 <s> GIVE </s>
-0.3010 <s> GIVEN </s>
-0.3010 <s> GIVES </s>
-0.3010 <s> GLASS </s>
-0.3010 <s> GLUTEN-FREE </s>
-0.3010 <s> GO </s>
-0.3010 <s> GOALS </s>
-0.3010 <s> GOES </s>
-0.3010 <s> GOOD </s>
-0.3010 <s> GREY </s>
-0.3010 <s> GROCERY </s>
-0.3010 <s> GROWTH </s>
-0.3010 <s> GUIDE </s>
-0.3010 <s> GYM </s>
-0.3010 <s> HABITS </s>
-0.3010 <s> HANDLE </s>
-0.3010 <s> HARD </s>
-0.3010 <s> HARSH </s>
-0.3010 <s> HAS </s>
-0.3010 <s> HAVE </s>
-0.3010 <s> HEISENBERG </s>
-0.3010 <s> HELLO </s>
-0.3010 <s> HELP </s>
-0.3010 <s> HERE </s>
-0.3010 <s> HIDDEN </s>
-0.3010 <s> HIRES </s>
-0.3010 <s> HIS </s>
-0.3010 <s> HOGWARTS </s>
-0.3010 <s> HOMER </s>
-0.3010 <s> HOMER'S </s>
-0.3010 <s> HONOR </s>
-0.3010 <s> HOSPITAL </s>
-0.3010 <s> HOT </s>
-0.3010 <s> HOTEL </s>
-0.3010 <s> HOW </s>
-0.3010 <s> HUMOROUS </s>
-0.3010 <s> HUNT </s>
-0.3010 <s> I </s>
-0.3010 <s> ILLEGAL </s>
-0.3010 <s> IMPACTS </s>
-0.3010 <s> IMPORTANT </s>
-0.3010 <s> IN </s>
-0.3010 <s> INCLUDED </s>
-0.3010 <s> INDICATORS </s>
-0.3010 <s> INDUSTRY </s>
-0.3010 <s> INITIATIVES </s>
-0.3010 <s> INSIGHT </s>
-0.3010 <s> INTENSE </s>
-0.3010 <s> INTUITION </s>
-0.3010 <s> INVOLVES </s>
-0.3010 <s> IS </s>
-0.3010 <s> ISLAND </s>
-0.3010 <s> IT </s>
-0.3010 <s> ITEM </s>
-0.3010 <s> I’D </s>
-0.3010 <s> I’M </s>
-0.3010 <s> JEDI </s>
-0.3010 <s> JIM </s>
-0.3010 <s> KEEN </s>
-0.3010 <s> KEY </s>
-0.3010 <s> KIND </s>
-0.3010 <s> KNIGHTS </s>
-0.3010 <s> KNOWN </s>
-0.3010 <s> LANDS </s>
-0.3010 <s> LAST </s>
-0.3010 <s> LAUNDRY </s>
-0.3010 <s> LEAVE </s>
-0.3010 <s> LESS </s>
-0.3010 <s> LIBRARY </s>
-0.3010 <s> LIFE </s>
-0.3010 <s> LIKE </s>
-0.3010 <s> LIST </s>
-0.3010 <s> LIVES </s>
-0.3010 <s> LIVING </s>
-0.3010 <s> LOCAL </s>
-0.3010 <s> LONG </s>
-0.3010 <s> LORDS </s>
-0.3010 <s> LOST </s>
-0.3010 <s> LOVES </s>
-0.3010 <s> LOW-FAT </s>
-0.3010 <s> LUGGAGE </s>
-0.3010 <s> MACHINE </s>
-0.3010 <s> MADE </s>
-0.3010 <s> MAGIC </s>
-0.3010 <s> MAGICAL </s>
-0.3010 <s> MAIN </s>
-0.3010 <s> MAJOR </s>
-0.3010 <s> MAKE </s>
-0.3010 <s> MAKES </s>
-0.3010 <s> MANAGEMENT </s>
-0.3010 <s> MANAGER </s>
-0.3010 <s> MANDALORIAN </s>
-0.3010 <s> MANDALORIAN'S </s>
-0.3010 <s> MANY </s>
-0.3010 <s> MAP </s>
-0.3010 <s> MAY </s>
-0.3010 <s> ME </s>
-0.3010 <s> MEAL </s>
-0.3010 <s> MEASURE </s>
-0.3010 <s> MEETINGS </s>
-0.3010 <s> MENTORING </s>
-0.3010 <s> MENU </s>
-0.3010 <s> MEREDITH </s>
-0.3010 <s> MICHAEL </s>
-0.3010 <s> MIGHT </s>
-0.3010 <s> MIRROR </s>
-0.3010 <s> MISSION </s>
-0.3010 <s> MODERN </s>
-0.3010 <s> MONSTERS </s>
-0.3010 <s> MORAL </s>
-0.3010 <s> MORE </s>
-0.3010 <s> MOST </s>
-0.3010 <s> MOVIE </s>
-0.3010 <s> MUCH </s>
-0.3010 <s> MUSEUM </s>
-0.3010 <s> MY </s>
-0.3010 <s> MYSTERIES </s>
-0.3010 <s> MYSTERIOUS </s>
-0.3010 <s> NAME </s>
-0.3010 <s> NAPKINS </s>
-0.3010 <s> NARCOS </s>
-0.3010 <s> NEARBY </s>
-0.3010 <s> NEAREST </s>
-0.3010 <s> NEED </s>
-0.3010 <s> NEEDED </s>
-0.3010 <s> NEW </s>
-0.3010 <s> NEXT </s>
-0.3010 <s> NO </s>
-0.3010 <s> NON-ALCOHOLIC </s>
-0.3010 <s> NUTS </s>
-0.3010 <s> OCCUR </s>
-0.3010 <s> OF </s>
-0.3010 <s> OFFER </s>
-0.3010 <s> OFTEN </s>
-0.3010 <s> ON </s>
-0.3010 <s> ONBOARDING </s>
-0.3010 <s> ONE-WAY </s>
-0.3010 <s> ONIONS </s>
-0.3010 <s> OPPORTUNITIES </s>
-0.3010 <s> OPTIONS </s>
-0.3010 <s> OR </s>
-0.3010 <s> ORDER </s>
-0.3010 <s> OTHER </s>
-0.3010 <s> OUR </s>
-0.3010 <s> OUT </s>
-0.3010 <s> PALACE </s>
-0.3010 <s> PAM </s>
-0.3010 <s> PASSWORD </s>
-0.3010 <s> PATH </s>
-0.3010 <s> PATHS </s>
-0.3010 <s> PAY </s>
-0.3010 <s> PEN </s>
-0.3010 <s> PEOPLE </s>
-0.3010 <s> PERFORMANCE </s>
-0.3010 <s> PHARMACY </s>
-0.3010 <s> PHONE </s>
-0.3010 <s> PLACE </s>
-0.3010 <s> PLACES </s>
-0.3010 <s> PLANS </s>
-0.3010 <s> PLAYS </s>
-0.3010 <s> PLEASE </s>
-0.3010 <s> POLICY </s>
-0.3010 <s> POLITICAL </s>
-0.3010 <s> PORTRAYS </s>
-0.3010 <s> POSITION </s>
-0.3010 <s> POWERS </s>
-0.3010 <s> PRANKS </s>
-0.3010 <s> PRIORITIES </s>
-0.3010 <s> PRIORITIZE </s>
-0.3010 <s> PROCESS </s>
-0.3010 <s> PRODUCTS </s>
-0.3010 <s> PROFESSIONAL </s>
-0.3010 <s> PROGRAMS </s>
-0.3010 <s> PROJECT </s>
-0.3010 <s> PROJECTS </s>
-0.3010 <s> PROMOTION </s>
-0.3010 <s> PROTECTING </s>
-0.3010 <s> PROTECTS </s>
-0.3010 <s> PROVIDE </s>
-0.3010 <s> PROVIDED </s>
-0.3010 <s> PUBLIC </s>
-0.3010 <s> PURSUITS </s>
-0.3010 <s> QUALITIES </s>
-0.3010 <s> QUEEN </s>
-0.3010 <s> QUIRKY </s>
-0.3010 <s> RAPIDLY </s>
-0.3010 <s> REASONS </s>
-0.3010 <s> RECEIPT </s>
-0.3010 <s> RECENT </s>
-0.3010 <s> RECOMMEND </s>
-0.3010 <s> RECOMMENDATIONS </s>
-0.3010 <s> REFILL </s>
-0.3010 <s> REFUND </s>
-0.3010 <s> REMOTE </s>
-0.3010 <s> RENT </s>
-0.3010 <s> REPEAT </s>
-0.3010 <s> REQUIREMENTS </s>
-0.3010 <s> RESCUE </s>
-0.3010 <s> RESERVATION </s>
-0.3010 <s> RESOURCES </s>
-0.3010 <s> RESPONSIBILITIES </s>
-0.3010 <s> RESTAURANT </s>
-0.3010 <s> REVERED </s>
-0.3010 <s> REVIEWS </s>
-0.3010 <s> REWARDING </s>
-0.3010 <s> RIDE </s>
-0.3010 <s> ROLE </s>
-0.3010 <s> ROOM </s>
-0.3010 <s> SAFE </s>
-0.3010 <s> SALAD </s>
-0.3010 <s> SALE </s>
-0.3010 <s> SALTY </s>
-0.3010 <s> SAUCE </s>
-0.3010 <s> SAVE </s>
-0.3010 <s> SCENARIOS </s>
-0.3010 <s> SCOTT </s>
-0.3010 <s> SCRATCH </s>
-0.3010 <s> SEAT </s>
-0.3010 <s> SECRETS </s>
-0.3010 <s> SEE </s>
-0.3010 <s> SEEK </s>
-0.3010 <s> SERVE </s>
-0.3010 <s> SERVED </s>
-0.3010 <s> SERVICE </s>
-0.3010 <s> SERVICES </s>
-0.3010 <s> SHARE </s>
-0.3010 <s> SHELDON </s>
-0.3010 <s> SHELDON’S </s>
-0.3010 <s> SHELLFISH </s>
-0.3010 <s> SHERLOCK </s>
-0.3010 <s> SHOP </s>
-0.3010 <s> SHOW </s>
-0.3010 <s> SHOWS </s>
-0.3010 <s> SHUTTLE </s>
-0.3010 <s> SIDE </s>
-0.3010 <s> SIMPSONS </s>
-0.3010 <s> SIT </s>
-0.3010 <s> SKILL </s>
-0.3010 <s> SKILLS </s>
-0.3010 <s> SNOW </s>
-0.3010 <s> SOFTWARE </s>
-0.3010 <s> SOLVE </s>
-0.3010 <s> SOLVES </s>
-0.3010 <s> SOUP </s>
-0.3010 <s> SOUVENIRS </s>
-0.3010 <s> SPEAK </s>
-0.3010 <s> SPECIALS </s>
-0.3010 <s> SPECIALTIES </s>
-0.3010 <s> SPECIFIC </s>
-0.3010 <s> SPELLS </s>
-0.3010 <s> SPICY </s>
-0.3010 <s> SPLIT </s>
-0.3010 <s> SPOT </s>
-0.3010 <s> START </s>
-0.3010 <s> STATION </s>
-0.3010 <s> STAY </s>
-0.3010 <s> STEAK </s>
-0.3010 <s> STORE </s>
-0.3010 <s> STRANGE </s>
-0.3010 <s> STRANGERS </s>
-0.3010 <s> STRENGTH </s>
-0.3010 <s> STRICT </s>
-0.3010 <s> STRUCTURE </s>
-0.3010 <s> STRUGGLE </s>
-0.3010 <s> STUDENTS </s>
-0.3010 <s> STYLE </s>
-0.3010 <s> SUBSTITUTE </s>
-0.3010 <s> SUCCESS </s>
-0.3010 <s> SUGAR-FREE </s>
-0.3010 <s> SUPPORT </s>
-0.3010 <s> SURVIVAL </s>
-0.3010 <s> SURVIVORS </s>
-0.3010 <s> TABLE </s>
-0.3010 <s> TABLES </s>
-0.3010 <s> TAKE </s>
-0.3010 <s> TAKEN </s>
-0.3010 <s> TASKS </s>
-0.3010 <s> TAXI </s>
-0.3010 <s> TEAM </s>
-0.3010 <s> TECHNOLOGICAL </s>
-0.3010 <s> TECHNOLOGY </s>
-0.3010 <s> THAT </s>
-0.3010 <s> THE </s>
-0.3010 <s> THERE </s>
-0.3010 <s> THIS </s>
-0.3010 <s> TICKET </s>
-0.3010 <s> TICKETS </s>
-0.3010 <s> TIME </s>
-0.3010 <s> TIMES </s>
-0.3010 <s> TO </s>
-0.3010 <s> TO-GO </s>
-0.3010 <s> TODAY </s>
-0.3010 <s> TODAY’S </s>
-0.3010 <s> TOGETHER </s>
-0.3010 <s> TOOLS </s>
-0.3010 <s> TOUGH </s>
-0.3010 <s> TOURS </s>
-0.3010 <s> TRADE </s>
-0.3010 <s> TRAFFICKERS </s>
-0.3010 <s> TRAFFICKING </s>
-0.3010 <s> TRAIN </s>
-0.3010 <s> TRAINING </s>
-0.3010 <s> TRAJECTORIES </s>
-0.3010 <s> TRANSITIONS </s>
-0.3010 <s> TRENDS </s>
-0.3010 <s> TRIES </s>
-0.3010 <s> TRY </s>
-0.3010 <s> TWO </s>
-0.3010 <s> TYPES </s>
-0.3010 <s> TYPICAL </s>
-0.3010 <s> TYPICALLY </s>
-0.3010 <s> UPDATED </s>
-0.3010 <s> UPSIDE </s>
-0.3010 <s> USE </s>
-0.3010 <s> USES </s>
-0.3010 <s> USING </s>
-0.3010 <s> USUALLY </s>
-0.3010 <s> VALUES </s>
-0.3010 <s> VEGAN </s>
-0.3010 <s> VEGETABLES </s>
-0.3010 <s> VEGETARIAN </s>
-0.3010 <s> VIEW </s>
-0.3010 <s> WAIT </s>
-0.3010 <s> WAITING </s>
-0.3010 <s> WAKE-UP </s>
-0.3010 <s> WALK </s>
-0.3010 <s> WANDS </s>
-0.3010 <s> WATER </s>
-0.3010 <s> WAY </s>
-0.3010 <s> WE </s>
-0.3010 <s> WEATHER </s>
-0.3010 <s> WELL </s>
-0.3010 <s> WHAT </s>
-0.3010 <s> WHAT’S </s>
-0.3010 <s> WHEN </s>
-0.3010 <s> WHERE </s>
-0.3010 <s> WI-FI </s>
-0.3010 <s> WILL </s>
-0.3010 <s> WIND </s>
-0.3010 <s> WINDOW </s>
-0.3010 <s> WINE </s>
-0.3010 <s> WINTER </s>
-0.3010 <s> WITCHER </s>
-0.3010 <s> WITCHERS </s>
-0.3010 <s> WITH </s>
-0.3010 <s> WITHIN </s>
-0.3010 <s> WIZARDING </s>
-0.3010 <s> WIZARDS </s>
-0.3010 <s> WORK </s>
-0.3010 <s> WORK-LIFE </s>
-0.3010 <s> WORKDAY </s>
-0.3010 <s> WORKING </s>
-0.3010 <s> WORLD </s>
-0.3010 <s> WOULD </s>
-0.3010 <s> YODA </s>
-0.3010 <s> YOU </s>
-0.3010 <s> YOUR </s>
-0.3010 <s> YOU’RE </s>

\end\
