Language model created by QuickLM on Tue Aug  6 23:08:19 EDT 2024
Copyright (c) 1996-2010 Carnegie Mellon University and Alexander I. Rudnicky

The model is in standard ARPA format, designed by Doug Paul while he was at MITRE.

The code that was used to produce this language model is available in Open Source.
Please visit http://www.speech.cs.cmu.edu/tools/ for more information

The (fixed) discount mass is 0.5. The backoffs are computed using the ratio method.
This model based on a corpus of 1935 sentences and 509 words

\data\
ngram 1=509
ngram 2=1014
ngram 3=507

\1-grams:
-4.0648 6 -0.2218
-4.0648 7 -0.2218
-0.7782 </s> -0.3010
-0.7782 <s> -0.2218
-2.3324 A -0.2218
-4.0648 ACADEMIC -0.2218
-4.0648 ACCEPT -0.2218
-4.0648 ACTION -0.2218
-4.0648 ACTOR -0.2218
-4.0648 ADAPTATION -0.2218
-3.7638 ADDRESS -0.2218
-4.0648 ADVANCEMENT -0.2218
-3.4628 AIRPORT -0.2218
-4.0648 ALBUM -0.2218
-4.0648 ALCOHOLIC -0.2218
-4.0648 ALL -0.2218
-4.0648 ALLERGIC -0.2218
-4.0648 ALLERGY -0.2218
-3.7638 AM -0.2218
-3.7638 AN -0.2218
-3.5877 AND -0.2218
-3.7638 ANIMATED -0.2218
-2.6669 ANY -0.2218
-4.0648 APPOINTMENT -0.2218
-3.7638 APPROACH -0.2218
-2.6669 ARE -0.2218
-3.7638 AROUND -0.2218
-3.7638 ARRIVE -0.2218
-4.0648 ASPECTS -0.2218
-3.7638 ASSIGNMENT -0.2218
-3.7638 AT -0.2218
-3.7638 ATM -0.2218
-4.0648 ATTENDED -0.2218
-4.0648 ATTENDING -0.2218
-4.0648 ATTRACTIONS -0.2218
-4.0648 AUDIOBOOKS -0.2218
-4.0648 AUTHORS -0.2218
-3.3659 AVAILABLE -0.2218
-4.0648 AWARD -0.2218
-4.0648 BAG -0.2218
-3.7638 BALANCE -0.2218
-4.0648 BANK -0.2218
-4.0648 BATHROOM -0.2218
-4.0648 BE -0.2218
-4.0648 BEACH -0.2218
-3.7638 BEEN -0.2218
-2.9187 BEST -0.2218
-3.4628 BILL -0.2218
-4.0648 BINGE -0.2218
-4.0648 BIOGRAPHIES -0.2218
-4.0648 BOARD -0.2218
-3.1106 BOOK -0.2218
-3.5877 BOOKS -0.2218
-3.7638 BORROW -0.2218
-4.0648 BOX -0.2218
-4.0648 BREAD -0.2218
-3.7638 BREAKFAST -0.2218
-4.0648 BRING -0.2218
-3.5877 BUS -0.2218
-3.5877 BUY -0.2218
-4.0648 BY -0.2218
-4.0648 CAB -0.2218
-3.5877 CALL -0.2218
-2.2587 CAN -0.2218
-4.0648 CAR -0.2218
-4.0648 CARD -0.2218
-4.0648 CARDS -0.2218
-3.2867 CAREER -0.2218
-4.0648 CASH -0.2218
-3.7638 CELEBRITY -0.2218
-4.0648 CHALLENGE -0.2218
-4.0648 CHALLENGES -0.2218
-4.0648 CHANNELS -0.2218
-4.0648 CHARACTER -0.2218
-4.0648 CHARGER -0.2218
-4.0648 CHECK -0.2218
-4.0648 CHEESE -0.2218
-3.7638 CHILDHOOD -0.2218
-4.0648 CHILDREN’S -0.2218
-4.0648 CINEMA -0.2218
-3.7638 CITY -0.2218
-4.0648 CLASS -0.2218
-4.0648 CLASSIC -0.2218
-3.7638 CLASSICAL -0.2218
-3.7638 CLOSE -0.2218
-4.0648 CLOSELY -0.2218
-4.0648 CLOSEST -0.2218
-4.0648 CLUB -0.2218
-3.7638 COFFEE -0.2218
-4.0648 COLLABORATE -0.2218
-4.0648 COMEDIAN -0.2218
-4.0648 COMEDIES -0.2218
-3.5877 COMEDY -0.2218
-4.0648 COMICS -0.2218
-3.7638 COMMON -0.2218
-4.0648 COMMUNICATION -0.2218
-3.1617 COMPANY -0.2218
-3.4628 COMPANY’S -0.2218
-4.0648 COMPLETE -0.2218
-3.5877 CONCERT -0.2218
-4.0648 CONCERTS -0.2218
-4.0648 CONFLICTS -0.2218
-4.0648 CONTAIN -0.2218
-4.0648 CONTRIBUTE -0.2218
-4.0648 COOKED -0.2218
-4.0648 COOKING -0.2218
-3.7638 COST -0.2218
-3.4628 COULD -0.2218
-4.0648 COURSE -0.2218
-3.7638 CREDIT -0.2218
-4.0648 CRIME -0.2218
-4.0648 CROSS -0.2218
-4.0648 CULTURE -0.2218
-3.7638 CURRENT -0.2218
-4.0648 DAILY -0.2218
-4.0648 DAIRY -0.2218
-3.7638 DAY -0.2218
-4.0648 DEADLINE -0.2218
-4.0648 DEPARTMENT -0.2218
-4.0648 DEPARTMENTAL -0.2218
-3.3659 DESCRIBE -0.2218
-4.0648 DESSERT -0.2218
-4.0648 DESSERTS -0.2218
-4.0648 DETECTIVE -0.2218
-3.5877 DEVELOPMENT -0.2218
-4.0648 DID -0.2218
-4.0648 DIFFERENT -0.2218
-3.7638 DIRECTIONS -0.2218
-4.0648 DIRECTOR -0.2218
-4.0648 DISCOUNT -0.2218
-3.2867 DISH -0.2218
-2.1840 DO -0.2218
-3.7638 DOCUMENTARIES -0.2218
-2.7861 DOES -0.2218
-4.0648 DOGGY -0.2218
-4.0648 DONE -0.2218
-4.0648 DOWNTOWN -0.2218
-4.0648 DRESSING -0.2218
-4.0648 DRINK -0.2218
-4.0648 DRINKS -0.2218
-4.0648 EAT -0.2218
-4.0648 EFFECTIVE -0.2218
-3.7638 EMPLOYEE -0.2218
-4.0648 ENCOURAGED -0.2218
-2.8887 ENJOY -0.2218
-4.0648 ENSURE -0.2218
-4.0648 ENTRY -0.2218
-4.0648 ENVIRONMENT -0.2218
-4.0648 EVER -0.2218
-4.0648 EXAMPLE -0.2218
-4.0648 EXAMPLES -0.2218
-4.0648 EXPECTATIONS -0.2218
-4.0648 EXPECTED -0.2218
-4.0648 EXPLAIN -0.2218
-3.7638 EXTRA -0.2218
-4.0648 FACE -0.2218
-3.7638 FANTASY -0.2218
-4.0648 FAR -0.2218
-4.0648 FAT -0.2218
-2.6024 FAVORITE -0.2218
-3.7638 FEE -0.2218
-3.7638 FEEDBACK -0.2218
-4.0648 FESTIVAL -0.2218
-4.0648 FESTIVALS -0.2218
-3.5877 FI -0.2218
-4.0648 FICTION -0.2218
-4.0648 FIELD -0.2218
-4.0648 FILL -0.2218
-3.7638 FILM -0.2218
-4.0648 FILMS -0.2218
-3.4628 FIND -0.2218
-4.0648 FISH -0.2218
-4.0648 FIT -0.2218
-3.2867 FOLLOW -0.2218
-2.6846 FOR -0.2218
-3.7638 FORM -0.2218
-4.0648 FOUND -0.2218
-3.4628 FREE -0.2218
-4.0648 FRESH -0.2218
-4.0648 FRIES -0.2218
-3.3659 FROM -0.2218
-4.0648 FURTHER -0.2218
-3.2867 GAME -0.2218
-3.5877 GAMES -0.2218
-4.0648 GENRE -0.2218
-2.7861 GET -0.2218
-4.0648 GIVE -0.2218
-4.0648 GIVEN -0.2218
-3.7638 GLASS -0.2218
-4.0648 GLUTEN -0.2218
-3.5877 GO -0.2218
-3.5877 GOALS -0.2218
-4.0648 GOES -0.2218
-4.0648 GOING -0.2218
-3.2867 GOOD -0.2218
-4.0648 GOSSIP -0.2218
-4.0648 GRAPHIC -0.2218
-4.0648 GROCERY -0.2218
-3.7638 GROWTH -0.2218
-4.0648 GUIDE -0.2218
-4.0648 GYM -0.2218
-3.5877 HANDLE -0.2218
-2.6024 HAVE -0.2218
-4.0648 HELLO -0.2218
-3.4628 HELP -0.2218
-3.1106 HERE -0.2218
-4.0648 HIRES -0.2218
-3.7638 HOLIDAY -0.2218
-4.0648 HORROR -0.2218
-4.0648 HOSPITAL -0.2218
-4.0648 HOT -0.2218
-4.0648 HOTEL -0.2218
-2.5597 HOW -0.2218
-2.3014 I -0.2218
-4.0648 IMPORTANT -0.2218
-3.1106 IN -0.2218
-4.0648 INCLUDED -0.2218
-4.0648 INDICATORS -0.2218
-4.0648 INDIE -0.2218
-4.0648 INDUSTRY -0.2218
-4.0648 INITIATIVES -0.2218
-4.0648 INSTRUMENTS -0.2218
-4.0648 INTO -0.2218
-2.3406 IS -0.2218
-3.5877 IT -0.2218
-4.0648 ITEM -0.2218
-3.7638 I’D -0.2218
-4.0648 I’M -0.2218
-4.0648 JAZZ -0.2218
-4.0648 KARAOKE -0.2218
-3.7638 KEY -0.2218
-3.7638 KIND -0.2218
-4.0648 LANGUAGES -0.2218
-3.4628 LAST -0.2218
-4.0648 LATE -0.2218
-3.7638 LATEST -0.2218
-4.0648 LAUNDRY -0.2218
-4.0648 LEAVE -0.2218
-3.7638 LESS -0.2218
-3.7638 LETS -0.2218
-4.0648 LIBRARY -0.2218
-3.7638 LIFE -0.2218
-2.7224 LIKE -0.2218
-3.7638 LIST -0.2218
-4.0648 LISTEN -0.2218
-3.4628 LISTENING -0.2218
-3.2867 LIVE -0.2218
-3.5877 LOCAL -0.2218
-3.7638 LONG -0.2218
-4.0648 LOST -0.2218
-4.0648 LOW -0.2218
-4.0648 LUGGAGE -0.2218
-3.7638 MACHINE -0.2218
-4.0648 MADE -0.2218
-3.7638 MAIN -0.2218
-4.0648 MAJOR -0.2218
-3.5877 MAKE -0.2218
-4.0648 MANAGEMENT -0.2218
-4.0648 MANAGER -0.2218
-3.7638 MAP -0.2218
-4.0648 MAY -0.2218
-3.3659 ME -0.2218
-4.0648 MEAL -0.2218
-3.7638 MEASURE -0.2218
-4.0648 MEETINGS -0.2218
-4.0648 MENTORING -0.2218
-3.4628 MENU -0.2218
-4.0648 MIGHT -0.2218
-4.0648 MISSION -0.2218
-4.0648 MOCKUMENTARIES -0.2218
-4.0648 MORE -0.2218
-3.5877 MOST -0.2218
-2.9187 MOVIE -0.2218
-3.4628 MOVIES -0.2218
-3.4628 MUCH -0.2218
-3.7638 MUSEUM -0.2218
-3.2197 MUSIC -0.2218
-4.0648 MUSICAL -0.2218
-4.0648 MUSICALS -0.2218
-4.0648 MUSICIAN -0.2218
-4.0648 MY -0.2218
-4.0648 MYSTERY -0.2218
-3.7638 NAME -0.2218
-4.0648 NAPKINS -0.2218
-3.7638 NEARBY -0.2218
-3.1617 NEAREST -0.2218
-3.2867 NEED -0.2218
-4.0648 NEEDED -0.2218
-3.7638 NEW -0.2218
-4.0648 NEWS -0.2218
-4.0648 NEXT -0.2218
-4.0648 NIGHT -0.2218
-4.0648 NIGHTS -0.2218
-4.0648 NO -0.2218
-4.0648 NON -0.2218
-3.4628 NOVELS -0.2218
-4.0648 NOW -0.2218
-4.0648 NUTS -0.2218
-4.0648 OCCUR -0.2218
-2.9509 OF -0.2218
-3.4628 OFFER -0.2218
-3.7638 OFTEN -0.2218
-3.1617 ON -0.2218
-4.0648 ONBOARDING -0.2218
-4.0648 ONE -0.2218
-4.0648 ONIONS -0.2218
-4.0648 ONLINE -0.2218
-3.7638 OPPORTUNITIES -0.2218
-3.2867 OPTIONS -0.2218
-3.0648 OR -0.2218
-3.7638 ORDER -0.2218
-4.0648 OTHER -0.2218
-4.0648 OUT -0.2218
-3.7638 PASSWORD -0.2218
-4.0648 PATH -0.2218
-4.0648 PATHS -0.2218
-3.7638 PAY -0.2218
-4.0648 PEN -0.2218
-4.0648 PEOPLE -0.2218
-3.4628 PERFORMANCE -0.2218
-4.0648 PERFORMANCES -0.2218
-4.0648 PHARMACY -0.2218
-3.7638 PHONE -0.2218
-3.3659 PLACE -0.2218
-4.0648 PLATFORMS -0.2218
-3.4628 PLAY -0.2218
-4.0648 PLAYED -0.2218
-3.7638 PLAYING -0.2218
-3.0648 PLEASE -0.2218
-3.7638 PODCASTS -0.2218
-4.0648 POLICY -0.2218
-3.5877 POSITION -0.2218
-4.0648 PRIORITIES -0.2218
-4.0648 PRIORITIZE -0.2218
-4.0648 PROCESS -0.2218
-4.0648 PRODUCTS -0.2218
-3.7638 PROFESSIONAL -0.2218
-4.0648 PROGRAMS -0.2218
-4.0648 PROJECT -0.2218
-3.4628 PROJECTS -0.2218
-4.0648 PROMOTION -0.2218
-4.0648 PROVIDE -0.2218
-4.0648 PROVIDED -0.2218
-4.0648 PURSUITS -0.2218
-4.0648 QUALITIES -0.2218
-3.7638 QUOTE -0.2218
-4.0648 RE -0.2218
-3.3659 READ -0.2218
-3.5877 READING -0.2218
-4.0648 REALITY -0.2218
-4.0648 REASONS -0.2218
-4.0648 RECEIPT -0.2218
-3.7638 RECENT -0.2218
-3.2197 RECOMMEND -0.2218
-4.0648 RECOMMENDATIONS -0.2218
-4.0648 REFILL -0.2218
-4.0648 REFUND -0.2218
-4.0648 REMOTE -0.2218
-4.0648 RENT -0.2218
-4.0648 REPEAT -0.2218
-4.0648 REQUIREMENTS -0.2218
-4.0648 RESERVATION -0.2218
-4.0648 RESOURCES -0.2218
-4.0648 RESPONSIBILITIES -0.2218
-3.7638 RESTAURANT -0.2218
-4.0648 REVIEWS -0.2218
-4.0648 REWARDING -0.2218
-4.0648 RIDE -0.2218
-4.0648 RIGHT -0.2218
-4.0648 ROCK -0.2218
-3.0648 ROLE -0.2218
-4.0648 ROMANTIC -0.2218
-3.5877 ROOM -0.2218
-4.0648 SAFE -0.2218
-3.7638 SALAD -0.2218
-4.0648 SALE -0.2218
-4.0648 SALTY -0.2218
-4.0648 SAUCE -0.2218
-4.0648 SCENE -0.2218
-4.0648 SCI -0.2218
-4.0648 SCRATCH -0.2218
-4.0648 SEAT -0.2218
-3.5877 SEE -0.2218
-3.3659 SEEN -0.2218
-3.3659 SERIES -0.2218
-4.0648 SERVE -0.2218
-4.0648 SERVED -0.2218
-3.5877 SERVICE -0.2218
-3.7638 SERVICES -0.2218
-4.0648 SHELLFISH -0.2218
-3.7638 SHOP -0.2218
-3.0648 SHOW -0.2218
-3.3659 SHOWS -0.2218
-4.0648 SHUTTLE -0.2218
-3.4628 SIDE -0.2218
-4.0648 SING -0.2218
-4.0648 SIT -0.2218
-4.0648 SKILL -0.2218
-4.0648 SKILLS -0.2218
-4.0648 SNACK -0.2218
-4.0648 SOFTWARE -0.2218
-3.5877 SONG -0.2218
-3.7638 SOUNDTRACK -0.2218
-3.7638 SOUP -0.2218
-4.0648 SOUVENIRS -0.2218
-4.0648 SPEAK -0.2218
-4.0648 SPECIAL -0.2218
-3.5877 SPECIALS -0.2218
-4.0648 SPECIALTIES -0.2218
-4.0648 SPECIFIC -0.2218
-3.7638 SPICY -0.2218
-4.0648 SPLIT -0.2218
-3.7638 SPORTS -0.2218
-3.7638 STAND -0.2218
-3.7638 START -0.2218
-3.7638 STATION -0.2218
-4.0648 STAY -0.2218
-4.0648 STEAK -0.2218
-3.7638 STORE -0.2218
-3.7638 STREAMING -0.2218
-4.0648 STRUCTURE -0.2218
-4.0648 STUDENTS -0.2218
-4.0648 STYLE -0.2218
-4.0648 SUBSTITUTE -0.2218
-3.7638 SUCCESS -0.2218
-4.0648 SUGAR -0.2218
-4.0648 SUPERHERO -0.2218
-3.4628 SUPPORT -0.2218
-3.7638 TABLE -0.2218
-4.0648 TABLES -0.2218
-4.0648 TAKE -0.2218
-4.0648 TAKEN -0.2218
-4.0648 TALK -0.2218
-4.0648 TASKS -0.2218
-3.7638 TAXI -0.2218
-3.3659 TEAM -0.2218
-4.0648 TEAMS -0.2218
-3.7638 THAT -0.2218
-2.0354 THE -0.2218
-3.7638 THEATER -0.2218
-4.0648 THEME -0.2218
-3.0648 THERE -0.2218
-2.4416 THIS -0.2218
-4.0648 THRILLER -0.2218
-3.7638 TICKET -0.2218
-4.0648 TICKETS -0.2218
-3.2867 TIME -0.2218
-2.4738 TO -0.2218
-3.5877 TODAY -0.2218
-3.7638 TODAY’S -0.2218
-4.0648 TOOLS -0.2218
-4.0648 TOURS -0.2218
-4.0648 TRADITION -0.2218
-3.7638 TRAIN -0.2218
-4.0648 TRAINING -0.2218
-4.0648 TRAJECTORIES -0.2218
-4.0648 TRANSITIONS -0.2218
-4.0648 TRENDS -0.2218
-4.0648 TRILOGY -0.2218
-4.0648 TRY -0.2218
-3.1106 TV -0.2218
-3.7638 TWO -0.2218
-4.0648 TYPES -0.2218
-3.5877 TYPICAL -0.2218
-4.0648 TYPICALLY -0.2218
-3.4628 UP -0.2218
-4.0648 UPDATED -0.2218
-3.4628 USE -0.2218
-4.0648 USING -0.2218
-4.0648 VALUES -0.2218
-4.0648 VEGAN -0.2218
-4.0648 VEGETABLES -0.2218
-3.5877 VEGETARIAN -0.2218
-3.2867 VIDEO -0.2218
-4.0648 VIEW -0.2218
-3.7638 WAIT -0.2218
-4.0648 WAITING -0.2218
-3.7638 WAKE -0.2218
-4.0648 WALK -0.2218
-3.4628 WATCH -0.2218
-3.7638 WATCHED -0.2218
-3.2197 WATCHING -0.2218
-3.7638 WATER -0.2218
-3.7638 WAY -0.2218
-4.0648 WE -0.2218
-4.0648 WEEKEND -0.2218
-4.0648 WELL -0.2218
-4.0648 WENT -0.2218
-2.4214 WHAT -0.2218
-2.4966 WHATS -0.2218
-3.4628 WHAT’S -0.2218
-3.5877 WHEN -0.2218
-2.8607 WHERE -0.2218
-3.4628 WHO -0.2218
-3.7638 WI -0.2218
-4.0648 WILL -0.2218
-4.0648 WINDOW -0.2218
-3.7638 WINE -0.2218
-3.1617 WITH -0.2218
-4.0648 WITHIN -0.2218
-3.3659 WORK -0.2218
-4.0648 WORKDAY -0.2218
-4.0648 WORKING -0.2218
-4.0648 WORKLIFE -0.2218
-3.7638 WOULD -0.2218
-2.0395 YOU -0.2218
-2.5597 YOUR -0.2218
-4.0648 YOUTUBE -0.2218
-3.2197 YOUVE -0.2218

\2-grams:
-0.3010 6 </s> -0.3010
-0.3010 7 </s> -0.3010
-3.5877 <s> 6 0.0000
-3.5877 <s> 7 0.0000
-1.8553 <s> A 0.0000
-3.5877 <s> ACADEMIC 0.0000
-3.5877 <s> ACCEPT 0.0000
-3.5877 <s> ACTION 0.0000
-3.5877 <s> ACTOR 0.0000
-3.5877 <s> ADAPTATION 0.0000
-3.2867 <s> ADDRESS 0.0000
-3.5877 <s> ADVANCEMENT 0.0000
-2.9857 <s> AIRPORT 0.0000
-3.5877 <s> ALBUM 0.0000
-3.5877 <s> ALCOHOLIC 0.0000
-3.5877 <s> ALL 0.0000
-3.5877 <s> ALLERGIC 0.0000
-3.5877 <s> ALLERGY 0.0000
-3.2867 <s> AM 0.0000
-3.2867 <s> AN 0.0000
-3.1106 <s> AND 0.0000
-3.2867 <s> ANIMATED 0.0000
-2.1898 <s> ANY 0.0000
-3.5877 <s> APPOINTMENT 0.0000
-3.2867 <s> APPROACH 0.0000
-2.1898 <s> ARE 0.0000
-3.2867 <s> AROUND 0.0000
-3.2867 <s> ARRIVE 0.0000
-3.5877 <s> ASPECTS 0.0000
-3.2867 <s> ASSIGNMENT 0.0000
-3.2867 <s> AT 0.0000
-3.2867 <s> ATM 0.0000
-3.5877 <s> ATTENDED 0.0000
-3.5877 <s> ATTENDING 0.0000
-3.5877 <s> ATTRACTIONS 0.0000
-3.5877 <s> AUDIOBOOKS 0.0000
-3.5877 <s> AUTHORS 0.0000
-2.8887 <s> AVAILABLE 0.0000
-3.5877 <s> AWARD 0.0000
-3.5877 <s> BAG 0.0000
-3.2867 <s> BALANCE 0.0000
-3.5877 <s> BANK 0.0000
-3.5877 <s> BATHROOM 0.0000
-3.5877 <s> BE 0.0000
-3.5877 <s> BEACH 0.0000
-3.2867 <s> BEEN 0.0000
-2.4416 <s> BEST 0.0000
-2.9857 <s> BILL 0.0000
-3.5877 <s> BINGE 0.0000
-3.5877 <s> BIOGRAPHIES 0.0000
-3.5877 <s> BOARD 0.0000
-2.6335 <s> BOOK 0.0000
-3.1106 <s> BOOKS 0.0000
-3.2867 <s> BORROW 0.0000
-3.5877 <s> BOX 0.0000
-3.5877 <s> BREAD 0.0000
-3.2867 <s> BREAKFAST 0.0000
-3.5877 <s> BRING 0.0000
-3.1106 <s> BUS 0.0000
-3.1106 <s> BUY 0.0000
-3.5877 <s> BY 0.0000
-3.5877 <s> CAB 0.0000
-3.1106 <s> CALL 0.0000
-1.7815 <s> CAN 0.0000
-3.5877 <s> CAR 0.0000
-3.5877 <s> CARD 0.0000
-3.5877 <s> CARDS 0.0000
-2.8096 <s> CAREER 0.0000
-3.5877 <s> CASH 0.0000
-3.2867 <s> CELEBRITY 0.0000
-3.5877 <s> CHALLENGE 0.0000
-3.5877 <s> CHALLENGES 0.0000
-3.5877 <s> CHANNELS 0.0000
-3.5877 <s> CHARACTER 0.0000
-3.5877 <s> CHARGER 0.0000
-3.5877 <s> CHECK 0.0000
-3.5877 <s> CHEESE 0.0000
-3.2867 <s> CHILDHOOD 0.0000
-3.5877 <s> CHILDREN’S 0.0000
-3.5877 <s> CINEMA 0.0000
-3.2867 <s> CITY 0.0000
-3.5877 <s> CLASS 0.0000
-3.5877 <s> CLASSIC 0.0000
-3.2867 <s> CLASSICAL 0.0000
-3.2867 <s> CLOSE 0.0000
-3.5877 <s> CLOSELY 0.0000
-3.5877 <s> CLOSEST 0.0000
-3.5877 <s> CLUB 0.0000
-3.2867 <s> COFFEE 0.0000
-3.5877 <s> COLLABORATE 0.0000
-3.5877 <s> COMEDIAN 0.0000
-3.5877 <s> COMEDIES 0.0000
-3.1106 <s> COMEDY 0.0000
-3.5877 <s> COMICS 0.0000
-3.2867 <s> COMMON 0.0000
-3.5877 <s> COMMUNICATION 0.0000
-2.6846 <s> COMPANY 0.0000
-2.9857 <s> COMPANY’S 0.0000
-3.5877 <s> COMPLETE 0.0000
-3.1106 <s> CONCERT 0.0000
-3.5877 <s> CONCERTS 0.0000
-3.5877 <s> CONFLICTS 0.0000
-3.5877 <s> CONTAIN 0.0000
-3.5877 <s> CONTRIBUTE 0.0000
-3.5877 <s> COOKED 0.0000
-3.5877 <s> COOKING 0.0000
-3.2867 <s> COST 0.0000
-2.9857 <s> COULD 0.0000
-3.5877 <s> COURSE 0.0000
-3.2867 <s> CREDIT 0.0000
-3.5877 <s> CRIME 0.0000
-3.5877 <s> CROSS 0.0000
-3.5877 <s> CULTURE 0.0000
-3.2867 <s> CURRENT 0.0000
-3.5877 <s> DAILY 0.0000
-3.5877 <s> DAIRY 0.0000
-3.2867 <s> DAY 0.0000
-3.5877 <s> DEADLINE 0.0000
-3.5877 <s> DEPARTMENT 0.0000
-3.5877 <s> DEPARTMENTAL 0.0000
-2.8887 <s> DESCRIBE 0.0000
-3.5877 <s> DESSERT 0.0000
-3.5877 <s> DESSERTS 0.0000
-3.5877 <s> DETECTIVE 0.0000
-3.1106 <s> DEVELOPMENT 0.0000
-3.5877 <s> DID 0.0000
-3.5877 <s> DIFFERENT 0.0000
-3.2867 <s> DIRECTIONS 0.0000
-3.5877 <s> DIRECTOR 0.0000
-3.5877 <s> DISCOUNT 0.0000
-2.8096 <s> DISH 0.0000
-1.7069 <s> DO 0.0000
-3.2867 <s> DOCUMENTARIES 0.0000
-2.3090 <s> DOES 0.0000
-3.5877 <s> DOGGY 0.0000
-3.5877 <s> DONE 0.0000
-3.5877 <s> DOWNTOWN 0.0000
-3.5877 <s> DRESSING 0.0000
-3.5877 <s> DRINK 0.0000
-3.5877 <s> DRINKS 0.0000
-3.5877 <s> EAT 0.0000
-3.5877 <s> EFFECTIVE 0.0000
-3.2867 <s> EMPLOYEE 0.0000
-3.5877 <s> ENCOURAGED 0.0000
-2.4116 <s> ENJOY 0.0000
-3.5877 <s> ENSURE 0.0000
-3.5877 <s> ENTRY 0.0000
-3.5877 <s> ENVIRONMENT 0.0000
-3.5877 <s> EVER 0.0000
-3.5877 <s> EXAMPLE 0.0000
-3.5877 <s> EXAMPLES 0.0000
-3.5877 <s> EXPECTATIONS 0.0000
-3.5877 <s> EXPECTED 0.0000
-3.5877 <s> EXPLAIN 0.0000
-3.2867 <s> EXTRA 0.0000
-3.5877 <s> FACE 0.0000
-3.2867 <s> FANTASY 0.0000
-3.5877 <s> FAR 0.0000
-3.5877 <s> FAT 0.0000
-2.1253 <s> FAVORITE 0.0000
-3.2867 <s> FEE 0.0000
-3.2867 <s> FEEDBACK 0.0000
-3.5877 <s> FESTIVAL 0.0000
-3.5877 <s> FESTIVALS 0.0000
-3.1106 <s> FI 0.0000
-3.5877 <s> FICTION 0.0000
-3.5877 <s> FIELD 0.0000
-3.5877 <s> FILL 0.0000
-3.2867 <s> FILM 0.0000
-3.5877 <s> FILMS 0.0000
-2.9857 <s> FIND 0.0000
-3.5877 <s> FISH 0.0000
-3.5877 <s> FIT 0.0000
-2.8096 <s> FOLLOW 0.0000
-2.2075 <s> FOR 0.0000
-3.2867 <s> FORM 0.0000
-3.5877 <s> FOUND 0.0000
-2.9857 <s> FREE 0.0000
-3.5877 <s> FRESH 0.0000
-3.5877 <s> FRIES 0.0000
-2.8887 <s> FROM 0.0000
-3.5877 <s> FURTHER 0.0000
-2.8096 <s> GAME 0.0000
-3.1106 <s> GAMES 0.0000
-3.5877 <s> GENRE 0.0000
-2.3090 <s> GET 0.0000
-3.5877 <s> GIVE 0.0000
-3.5877 <s> GIVEN 0.0000
-3.2867 <s> GLASS 0.0000
-3.5877 <s> GLUTEN 0.0000
-3.1106 <s> GO 0.0000
-3.1106 <s> GOALS 0.0000
-3.5877 <s> GOES 0.0000
-3.5877 <s> GOING 0.0000
-2.8096 <s> GOOD 0.0000
-3.5877 <s> GOSSIP 0.0000
-3.5877 <s> GRAPHIC 0.0000
-3.5877 <s> GROCERY 0.0000
-3.2867 <s> GROWTH 0.0000
-3.5877 <s> GUIDE 0.0000
-3.5877 <s> GYM 0.0000
-3.1106 <s> HANDLE 0.0000
-2.1253 <s> HAVE 0.0000
-3.5877 <s> HELLO 0.0000
-2.9857 <s> HELP 0.0000
-2.6335 <s> HERE 0.0000
-3.5877 <s> HIRES 0.0000
-3.2867 <s> HOLIDAY 0.0000
-3.5877 <s> HORROR 0.0000
-3.5877 <s> HOSPITAL 0.0000
-3.5877 <s> HOT 0.0000
-3.5877 <s> HOTEL 0.0000
-2.0826 <s> HOW 0.0000
-1.8243 <s> I 0.0000
-3.5877 <s> IMPORTANT 0.0000
-2.6335 <s> IN 0.0000
-3.5877 <s> INCLUDED 0.0000
-3.5877 <s> INDICATORS 0.0000
-3.5877 <s> INDIE 0.0000
-3.5877 <s> INDUSTRY 0.0000
-3.5877 <s> INITIATIVES 0.0000
-3.5877 <s> INSTRUMENTS 0.0000
-3.5877 <s> INTO 0.0000
-1.8634 <s> IS 0.0000
-3.1106 <s> IT 0.0000
-3.5877 <s> ITEM 0.0000
-3.2867 <s> I’D 0.0000
-3.5877 <s> I’M 0.0000
-3.5877 <s> JAZZ 0.0000
-3.5877 <s> KARAOKE 0.0000
-3.2867 <s> KEY 0.0000
-3.2867 <s> KIND 0.0000
-3.5877 <s> LANGUAGES 0.0000
-2.9857 <s> LAST 0.0000
-3.5877 <s> LATE 0.0000
-3.2867 <s> LATEST 0.0000
-3.5877 <s> LAUNDRY 0.0000
-3.5877 <s> LEAVE 0.0000
-3.2867 <s> LESS 0.0000
-3.2867 <s> LETS 0.0000
-3.5877 <s> LIBRARY 0.0000
-3.2867 <s> LIFE 0.0000
-2.2453 <s> LIKE 0.0000
-3.2867 <s> LIST 0.0000
-3.5877 <s> LISTEN 0.0000
-2.9857 <s> LISTENING 0.0000
-2.8096 <s> LIVE 0.0000
-3.1106 <s> LOCAL 0.0000
-3.2867 <s> LONG 0.0000
-3.5877 <s> LOST 0.0000
-3.5877 <s> LOW 0.0000
-3.5877 <s> LUGGAGE 0.0000
-3.2867 <s> MACHINE 0.0000
-3.5877 <s> MADE 0.0000
-3.2867 <s> MAIN 0.0000
-3.5877 <s> MAJOR 0.0000
-3.1106 <s> MAKE 0.0000
-3.5877 <s> MANAGEMENT 0.0000
-3.5877 <s> MANAGER 0.0000
-3.2867 <s> MAP 0.0000
-3.5877 <s> MAY 0.0000
-2.8887 <s> ME 0.0000
-3.5877 <s> MEAL 0.0000
-3.2867 <s> MEASURE 0.0000
-3.5877 <s> MEETINGS 0.0000
-3.5877 <s> MENTORING 0.0000
-2.9857 <s> MENU 0.0000
-3.5877 <s> MIGHT 0.0000
-3.5877 <s> MISSION 0.0000
-3.5877 <s> MOCKUMENTARIES 0.0000
-3.5877 <s> MORE 0.0000
-3.1106 <s> MOST 0.0000
-2.4416 <s> MOVIE 0.0000
-2.9857 <s> MOVIES 0.0000
-2.9857 <s> MUCH 0.0000
-3.2867 <s> MUSEUM 0.0000
-2.7426 <s> MUSIC 0.0000
-3.5877 <s> MUSICAL 0.0000
-3.5877 <s> MUSICALS 0.0000
-3.5877 <s> MUSICIAN 0.0000
-3.5877 <s> MY 0.0000
-3.5877 <s> MYSTERY 0.0000
-3.2867 <s> NAME 0.0000
-3.5877 <s> NAPKINS 0.0000
-3.2867 <s> NEARBY 0.0000
-2.6846 <s> NEAREST 0.0000
-2.8096 <s> NEED 0.0000
-3.5877 <s> NEEDED 0.0000
-3.2867 <s> NEW 0.0000
-3.5877 <s> NEWS 0.0000
-3.5877 <s> NEXT 0.0000
-3.5877 <s> NIGHT 0.0000
-3.5877 <s> NIGHTS 0.0000
-3.5877 <s> NO 0.0000
-3.5877 <s> NON 0.0000
-2.9857 <s> NOVELS 0.0000
-3.5877 <s> NOW 0.0000
-3.5877 <s> NUTS 0.0000
-3.5877 <s> OCCUR 0.0000
-2.4738 <s> OF 0.0000
-2.9857 <s> OFFER 0.0000
-3.2867 <s> OFTEN 0.0000
-2.6846 <s> ON 0.0000
-3.5877 <s> ONBOARDING 0.0000
-3.5877 <s> ONE 0.0000
-3.5877 <s> ONIONS 0.0000
-3.5877 <s> ONLINE 0.0000
-3.2867 <s> OPPORTUNITIES 0.0000
-2.8096 <s> OPTIONS 0.0000
-2.5877 <s> OR 0.0000
-3.2867 <s> ORDER 0.0000
-3.5877 <s> OTHER 0.0000
-3.5877 <s> OUT 0.0000
-3.2867 <s> PASSWORD 0.0000
-3.5877 <s> PATH 0.0000
-3.5877 <s> PATHS 0.0000
-3.2867 <s> PAY 0.0000
-3.5877 <s> PEN 0.0000
-3.5877 <s> PEOPLE 0.0000
-2.9857 <s> PERFORMANCE 0.0000
-3.5877 <s> PERFORMANCES 0.0000
-3.5877 <s> PHARMACY 0.0000
-3.2867 <s> PHONE 0.0000
-2.8887 <s> PLACE 0.0000
-3.5877 <s> PLATFORMS 0.0000
-2.9857 <s> PLAY 0.0000
-3.5877 <s> PLAYED 0.0000
-3.2867 <s> PLAYING 0.0000
-2.5877 <s> PLEASE 0.0000
-3.2867 <s> PODCASTS 0.0000
-3.5877 <s> POLICY 0.0000
-3.1106 <s> POSITION 0.0000
-3.5877 <s> PRIORITIES 0.0000
-3.5877 <s> PRIORITIZE 0.0000
-3.5877 <s> PROCESS 0.0000
-3.5877 <s> PRODUCTS 0.0000
-3.2867 <s> PROFESSIONAL 0.0000
-3.5877 <s> PROGRAMS 0.0000
-3.5877 <s> PROJECT 0.0000
-2.9857 <s> PROJECTS 0.0000
-3.5877 <s> PROMOTION 0.0000
-3.5877 <s> PROVIDE 0.0000
-3.5877 <s> PROVIDED 0.0000
-3.5877 <s> PURSUITS 0.0000
-3.5877 <s> QUALITIES 0.0000
-3.2867 <s> QUOTE 0.0000
-3.5877 <s> RE 0.0000
-2.8887 <s> READ 0.0000
-3.1106 <s> READING 0.0000
-3.5877 <s> REALITY 0.0000
-3.5877 <s> REASONS 0.0000
-3.5877 <s> RECEIPT 0.0000
-3.2867 <s> RECENT 0.0000
-2.7426 <s> RECOMMEND 0.0000
-3.5877 <s> RECOMMENDATIONS 0.0000
-3.5877 <s> REFILL 0.0000
-3.5877 <s> REFUND 0.0000
-3.5877 <s> REMOTE 0.0000
-3.5877 <s> RENT 0.0000
-3.5877 <s> REPEAT 0.0000
-3.5877 <s> REQUIREMENTS 0.0000
-3.5877 <s> RESERVATION 0.0000
-3.5877 <s> RESOURCES 0.0000
-3.5877 <s> RESPONSIBILITIES 0.0000
-3.2867 <s> RESTAURANT 0.0000
-3.5877 <s> REVIEWS 0.0000
-3.5877 <s> REWARDING 0.0000
-3.5877 <s> RIDE 0.0000
-3.5877 <s> RIGHT 0.0000
-3.5877 <s> ROCK 0.0000
-2.5877 <s> ROLE 0.0000
-3.5877 <s> ROMANTIC 0.0000
-3.1106 <s> ROOM 0.0000
-3.5877 <s> SAFE 0.0000
-3.2867 <s> SALAD 0.0000
-3.5877 <s> SALE 0.0000
-3.5877 <s> SALTY 0.0000
-3.5877 <s> SAUCE 0.0000
-3.5877 <s> SCENE 0.0000
-3.5877 <s> SCI 0.0000
-3.5877 <s> SCRATCH 0.0000
-3.5877 <s> SEAT 0.0000
-3.1106 <s> SEE 0.0000
-2.8887 <s> SEEN 0.0000
-2.8887 <s> SERIES 0.0000
-3.5877 <s> SERVE 0.0000
-3.5877 <s> SERVED 0.0000
-3.1106 <s> SERVICE 0.0000
-3.2867 <s> SERVICES 0.0000
-3.5877 <s> SHELLFISH 0.0000
-3.2867 <s> SHOP 0.0000
-2.5877 <s> SHOW 0.0000
-2.8887 <s> SHOWS 0.0000
-3.5877 <s> SHUTTLE 0.0000
-2.9857 <s> SIDE 0.0000
-3.5877 <s> SING 0.0000
-3.5877 <s> SIT 0.0000
-3.5877 <s> SKILL 0.0000
-3.5877 <s> SKILLS 0.0000
-3.5877 <s> SNACK 0.0000
-3.5877 <s> SOFTWARE 0.0000
-3.1106 <s> SONG 0.0000
-3.2867 <s> SOUNDTRACK 0.0000
-3.2867 <s> SOUP 0.0000
-3.5877 <s> SOUVENIRS 0.0000
-3.5877 <s> SPEAK 0.0000
-3.5877 <s> SPECIAL 0.0000
-3.1106 <s> SPECIALS 0.0000
-3.5877 <s> SPECIALTIES 0.0000
-3.5877 <s> SPECIFIC 0.0000
-3.2867 <s> SPICY 0.0000
-3.5877 <s> SPLIT 0.0000
-3.2867 <s> SPORTS 0.0000
-3.2867 <s> STAND 0.0000
-3.2867 <s> START 0.0000
-3.2867 <s> STATION 0.0000
-3.5877 <s> STAY 0.0000
-3.5877 <s> STEAK 0.0000
-3.2867 <s> STORE 0.0000
-3.2867 <s> STREAMING 0.0000
-3.5877 <s> STRUCTURE 0.0000
-3.5877 <s> STUDENTS 0.0000
-3.5877 <s> STYLE 0.0000
-3.5877 <s> SUBSTITUTE 0.0000
-3.2867 <s> SUCCESS 0.0000
-3.5877 <s> SUGAR 0.0000
-3.5877 <s> SUPERHERO 0.0000
-2.9857 <s> SUPPORT 0.0000
-3.2867 <s> TABLE 0.0000
-3.5877 <s> TABLES 0.0000
-3.5877 <s> TAKE 0.0000
-3.5877 <s> TAKEN 0.0000
-3.5877 <s> TALK 0.0000
-3.5877 <s> TASKS 0.0000
-3.2867 <s> TAXI 0.0000
-2.8887 <s> TEAM 0.0000
-3.5877 <s> TEAMS 0.0000
-3.2867 <s> THAT 0.0000
-1.5583 <s> THE 0.0000
-3.2867 <s> THEATER 0.0000
-3.5877 <s> THEME 0.0000
-2.5877 <s> THERE 0.0000
-1.9645 <s> THIS 0.0000
-3.5877 <s> THRILLER 0.0000
-3.2867 <s> TICKET 0.0000
-3.5877 <s> TICKETS 0.0000
-2.8096 <s> TIME 0.0000
-1.9966 <s> TO 0.0000
-3.1106 <s> TODAY 0.0000
-3.2867 <s> TODAY’S 0.0000
-3.5877 <s> TOOLS 0.0000
-3.5877 <s> TOURS 0.0000
-3.5877 <s> TRADITION 0.0000
-3.2867 <s> TRAIN 0.0000
-3.5877 <s> TRAINING 0.0000
-3.5877 <s> TRAJECTORIES 0.0000
-3.5877 <s> TRANSITIONS 0.0000
-3.5877 <s> TRENDS 0.0000
-3.5877 <s> TRILOGY 0.0000
-3.5877 <s> TRY 0.0000
-2.6335 <s> TV 0.0000
-3.2867 <s> TWO 0.0000
-3.5877 <s> TYPES 0.0000
-3.1106 <s> TYPICAL 0.0000
-3.5877 <s> TYPICALLY 0.0000
-2.9857 <s> UP 0.0000
-3.5877 <s> UPDATED 0.0000
-2.9857 <s> USE 0.0000
-3.5877 <s> USING 0.0000
-3.5877 <s> VALUES 0.0000
-3.5877 <s> VEGAN 0.0000
-3.5877 <s> VEGETABLES 0.0000
-3.1106 <s> VEGETARIAN 0.0000
-2.8096 <s> VIDEO 0.0000
-3.5877 <s> VIEW 0.0000
-3.2867 <s> WAIT 0.0000
-3.5877 <s> WAITING 0.0000
-3.2867 <s> WAKE 0.0000
-3.5877 <s> WALK 0.0000
-2.9857 <s> WATCH 0.0000
-3.2867 <s> WATCHED 0.0000
-2.7426 <s> WATCHING 0.0000
-3.2867 <s> WATER 0.0000
-3.2867 <s> WAY 0.0000
-3.5877 <s> WE 0.0000
-3.5877 <s> WEEKEND 0.0000
-3.5877 <s> WELL 0.0000
-3.5877 <s> WENT 0.0000
-1.9443 <s> WHAT 0.0000
-2.0195 <s> WHATS 0.0000
-2.9857 <s> WHAT’S 0.0000
-3.1106 <s> WHEN 0.0000
-2.3836 <s> WHERE 0.0000
-2.9857 <s> WHO 0.0000
-3.2867 <s> WI 0.0000
-3.5877 <s> WILL 0.0000
-3.5877 <s> WINDOW 0.0000
-3.2867 <s> WINE 0.0000
-2.6846 <s> WITH 0.0000
-3.5877 <s> WITHIN 0.0000
-2.8887 <s> WORK 0.0000
-3.5877 <s> WORKDAY 0.0000
-3.5877 <s> WORKING 0.0000
-3.5877 <s> WORKLIFE 0.0000
-3.2867 <s> WOULD 0.0000
-1.5624 <s> YOU 0.0000
-2.0826 <s> YOUR 0.0000
-3.5877 <s> YOUTUBE 0.0000
-2.7426 <s> YOUVE 0.0000
-0.3010 A </s> -0.3010
-0.3010 ACADEMIC </s> -0.3010
-0.3010 ACCEPT </s> -0.3010
-0.3010 ACTION </s> -0.3010
-0.3010 ACTOR </s> -0.3010
-0.3010 ADAPTATION </s> -0.3010
-0.3010 ADDRESS </s> -0.3010
-0.3010 ADVANCEMENT </s> -0.3010
-0.3010 AIRPORT </s> -0.3010
-0.3010 ALBUM </s> -0.3010
-0.3010 ALCOHOLIC </s> -0.3010
-0.3010 ALL </s> -0.3010
-0.3010 ALLERGIC </s> -0.3010
-0.3010 ALLERGY </s> -0.3010
-0.3010 AM </s> -0.3010
-0.3010 AN </s> -0.3010
-0.3010 AND </s> -0.3010
-0.3010 ANIMATED </s> -0.3010
-0.3010 ANY </s> -0.3010
-0.3010 APPOINTMENT </s> -0.3010
-0.3010 APPROACH </s> -0.3010
-0.3010 ARE </s> -0.3010
-0.3010 AROUND </s> -0.3010
-0.3010 ARRIVE </s> -0.3010
-0.3010 ASPECTS </s> -0.3010
-0.3010 ASSIGNMENT </s> -0.3010
-0.3010 AT </s> -0.3010
-0.3010 ATM </s> -0.3010
-0.3010 ATTENDED </s> -0.3010
-0.3010 ATTENDING </s> -0.3010
-0.3010 ATTRACTIONS </s> -0.3010
-0.3010 AUDIOBOOKS </s> -0.3010
-0.3010 AUTHORS </s> -0.3010
-0.3010 AVAILABLE </s> -0.3010
-0.3010 AWARD </s> -0.3010
-0.3010 BAG </s> -0.3010
-0.3010 BALANCE </s> -0.3010
-0.3010 BANK </s> -0.3010
-0.3010 BATHROOM </s> -0.3010
-0.3010 BE </s> -0.3010
-0.3010 BEACH </s> -0.3010
-0.3010 BEEN </s> -0.3010
-0.3010 BEST </s> -0.3010
-0.3010 BILL </s> -0.3010
-0.3010 BINGE </s> -0.3010
-0.3010 BIOGRAPHIES </s> -0.3010
-0.3010 BOARD </s> -0.3010
-0.3010 BOOK </s> -0.3010
-0.3010 BOOKS </s> -0.3010
-0.3010 BORROW </s> -0.3010
-0.3010 BOX </s> -0.3010
-0.3010 BREAD </s> -0.3010
-0.3010 BREAKFAST </s> -0.3010
-0.3010 BRING </s> -0.3010
-0.3010 BUS </s> -0.3010
-0.3010 BUY </s> -0.3010
-0.3010 BY </s> -0.3010
-0.3010 CAB </s> -0.3010
-0.3010 CALL </s> -0.3010
-0.3010 CAN </s> -0.3010
-0.3010 CAR </s> -0.3010
-0.3010 CARD </s> -0.3010
-0.3010 CARDS </s> -0.3010
-0.3010 CAREER </s> -0.3010
-0.3010 CASH </s> -0.3010
-0.3010 CELEBRITY </s> -0.3010
-0.3010 CHALLENGE </s> -0.3010
-0.3010 CHALLENGES </s> -0.3010
-0.3010 CHANNELS </s> -0.3010
-0.3010 CHARACTER </s> -0.3010
-0.3010 CHARGER </s> -0.3010
-0.3010 CHECK </s> -0.3010
-0.3010 CHEESE </s> -0.3010
-0.3010 CHILDHOOD </s> -0.3010
-0.3010 CHILDREN’S </s> -0.3010
-0.3010 CINEMA </s> -0.3010
-0.3010 CITY </s> -0.3010
-0.3010 CLASS </s> -0.3010
-0.3010 CLASSIC </s> -0.3010
-0.3010 CLASSICAL </s> -0.3010
-0.3010 CLOSE </s> -0.3010
-0.3010 CLOSELY </s> -0.3010
-0.3010 CLOSEST </s> -0.3010
-0.3010 CLUB </s> -0.3010
-0.3010 COFFEE </s> -0.3010
-0.3010 COLLABORATE </s> -0.3010
-0.3010 COMEDIAN </s> -0.3010
-0.3010 COMEDIES </s> -0.3010
-0.3010 COMEDY </s> -0.3010
-0.3010 COMICS </s> -0.3010
-0.3010 COMMON </s> -0.3010
-0.3010 COMMUNICATION </s> -0.3010
-0.3010 COMPANY </s> -0.3010
-0.3010 COMPANY’S </s> -0.3010
-0.3010 COMPLETE </s> -0.3010
-0.3010 CONCERT </s> -0.3010
-0.3010 CONCERTS </s> -0.3010
-0.3010 CONFLICTS </s> -0.3010
-0.3010 CONTAIN </s> -0.3010
-0.3010 CONTRIBUTE </s> -0.3010
-0.3010 COOKED </s> -0.3010
-0.3010 COOKING </s> -0.3010
-0.3010 COST </s> -0.3010
-0.3010 COULD </s> -0.3010
-0.3010 COURSE </s> -0.3010
-0.3010 CREDIT </s> -0.3010
-0.3010 CRIME </s> -0.3010
-0.3010 CROSS </s> -0.3010
-0.3010 CULTURE </s> -0.3010
-0.3010 CURRENT </s> -0.3010
-0.3010 DAILY </s> -0.3010
-0.3010 DAIRY </s> -0.3010
-0.3010 DAY </s> -0.3010
-0.3010 DEADLINE </s> -0.3010
-0.3010 DEPARTMENT </s> -0.3010
-0.3010 DEPARTMENTAL </s> -0.3010
-0.3010 DESCRIBE </s> -0.3010
-0.3010 DESSERT </s> -0.3010
-0.3010 DESSERTS </s> -0.3010
-0.3010 DETECTIVE </s> -0.3010
-0.3010 DEVELOPMENT </s> -0.3010
-0.3010 DID </s> -0.3010
-0.3010 DIFFERENT </s> -0.3010
-0.3010 DIRECTIONS </s> -0.3010
-0.3010 DIRECTOR </s> -0.3010
-0.3010 DISCOUNT </s> -0.3010
-0.3010 DISH </s> -0.3010
-0.3010 DO </s> -0.3010
-0.3010 DOCUMENTARIES </s> -0.3010
-0.3010 DOES </s> -0.3010
-0.3010 DOGGY </s> -0.3010
-0.3010 DONE </s> -0.3010
-0.3010 DOWNTOWN </s> -0.3010
-0.3010 DRESSING </s> -0.3010
-0.3010 DRINK </s> -0.3010
-0.3010 DRINKS </s> -0.3010
-0.3010 EAT </s> -0.3010
-0.3010 EFFECTIVE </s> -0.3010
-0.3010 EMPLOYEE </s> -0.3010
-0.3010 ENCOURAGED </s> -0.3010
-0.3010 ENJOY </s> -0.3010
-0.3010 ENSURE </s> -0.3010
-0.3010 ENTRY </s> -0.3010
-0.3010 ENVIRONMENT </s> -0.3010
-0.3010 EVER </s> -0.3010
-0.3010 EXAMPLE </s> -0.3010
-0.3010 EXAMPLES </s> -0.3010
-0.3010 EXPECTATIONS </s> -0.3010
-0.3010 EXPECTED </s> -0.3010
-0.3010 EXPLAIN </s> -0.3010
-0.3010 EXTRA </s> -0.3010
-0.3010 FACE </s> -0.3010
-0.3010 FANTASY </s> -0.3010
-0.3010 FAR </s> -0.3010
-0.3010 FAT </s> -0.3010
-0.3010 FAVORITE </s> -0.3010
-0.3010 FEE </s> -0.3010
-0.3010 FEEDBACK </s> -0.3010
-0.3010 FESTIVAL </s> -0.3010
-0.3010 FESTIVALS </s> -0.3010
-0.3010 FI </s> -0.3010
-0.3010 FICTION </s> -0.3010
-0.3010 FIELD </s> -0.3010
-0.3010 FILL </s> -0.3010
-0.3010 FILM </s> -0.3010
-0.3010 FILMS </s> -0.3010
-0.3010 FIND </s> -0.3010
-0.3010 FISH </s> -0.3010
-0.3010 FIT </s> -0.3010
-0.3010 FOLLOW </s> -0.3010
-0.3010 FOR </s> -0.3010
-0.3010 FORM </s> -0.3010
-0.3010 FOUND </s> -0.3010
-0.3010 FREE </s> -0.3010
-0.3010 FRESH </s> -0.3010
-0.3010 FRIES </s> -0.3010
-0.3010 FROM </s> -0.3010
-0.3010 FURTHER </s> -0.3010
-0.3010 GAME </s> -0.3010
-0.3010 GAMES </s> -0.3010
-0.3010 GENRE </s> -0.3010
-0.3010 GET </s> -0.3010
-0.3010 GIVE </s> -0.3010
-0.3010 GIVEN </s> -0.3010
-0.3010 GLASS </s> -0.3010
-0.3010 GLUTEN </s> -0.3010
-0.3010 GO </s> -0.3010
-0.3010 GOALS </s> -0.3010
-0.3010 GOES </s> -0.3010
-0.3010 GOING </s> -0.3010
-0.3010 GOOD </s> -0.3010
-0.3010 GOSSIP </s> -0.3010
-0.3010 GRAPHIC </s> -0.3010
-0.3010 GROCERY </s> -0.3010
-0.3010 GROWTH </s> -0.3010
-0.3010 GUIDE </s> -0.3010
-0.3010 GYM </s> -0.3010
-0.3010 HANDLE </s> -0.3010
-0.3010 HAVE </s> -0.3010
-0.3010 HELLO </s> -0.3010
-0.3010 HELP </s> -0.3010
-0.3010 HERE </s> -0.3010
-0.3010 HIRES </s> -0.3010
-0.3010 HOLIDAY </s> -0.3010
-0.3010 HORROR </s> -0.3010
-0.3010 HOSPITAL </s> -0.3010
-0.3010 HOT </s> -0.3010
-0.3010 HOTEL </s> -0.3010
-0.3010 HOW </s> -0.3010
-0.3010 I </s> -0.3010
-0.3010 IMPORTANT </s> -0.3010
-0.3010 IN </s> -0.3010
-0.3010 INCLUDED </s> -0.3010
-0.3010 INDICATORS </s> -0.3010
-0.3010 INDIE </s> -0.3010
-0.3010 INDUSTRY </s> -0.3010
-0.3010 INITIATIVES </s> -0.3010
-0.3010 INSTRUMENTS </s> -0.3010
-0.3010 INTO </s> -0.3010
-0.3010 IS </s> -0.3010
-0.3010 IT </s> -0.3010
-0.3010 ITEM </s> -0.3010
-0.3010 I’D </s> -0.3010
-0.3010 I’M </s> -0.3010
-0.3010 JAZZ </s> -0.3010
-0.3010 KARAOKE </s> -0.3010
-0.3010 KEY </s> -0.3010
-0.3010 KIND </s> -0.3010
-0.3010 LANGUAGES </s> -0.3010
-0.3010 LAST </s> -0.3010
-0.3010 LATE </s> -0.3010
-0.3010 LATEST </s> -0.3010
-0.3010 LAUNDRY </s> -0.3010
-0.3010 LEAVE </s> -0.3010
-0.3010 LESS </s> -0.3010
-0.3010 LETS </s> -0.3010
-0.3010 LIBRARY </s> -0.3010
-0.3010 LIFE </s> -0.3010
-0.3010 LIKE </s> -0.3010
-0.3010 LIST </s> -0.3010
-0.3010 LISTEN </s> -0.3010
-0.3010 LISTENING </s> -0.3010
-0.3010 LIVE </s> -0.3010
-0.3010 LOCAL </s> -0.3010
-0.3010 LONG </s> -0.3010
-0.3010 LOST </s> -0.3010
-0.3010 LOW </s> -0.3010
-0.3010 LUGGAGE </s> -0.3010
-0.3010 MACHINE </s> -0.3010
-0.3010 MADE </s> -0.3010
-0.3010 MAIN </s> -0.3010
-0.3010 MAJOR </s> -0.3010
-0.3010 MAKE </s> -0.3010
-0.3010 MANAGEMENT </s> -0.3010
-0.3010 MANAGER </s> -0.3010
-0.3010 MAP </s> -0.3010
-0.3010 MAY </s> -0.3010
-0.3010 ME </s> -0.3010
-0.3010 MEAL </s> -0.3010
-0.3010 MEASURE </s> -0.3010
-0.3010 MEETINGS </s> -0.3010
-0.3010 MENTORING </s> -0.3010
-0.3010 MENU </s> -0.3010
-0.3010 MIGHT </s> -0.3010
-0.3010 MISSION </s> -0.3010
-0.3010 MOCKUMENTARIES </s> -0.3010
-0.3010 MORE </s> -0.3010
-0.3010 MOST </s> -0.3010
-0.3010 MOVIE </s> -0.3010
-0.3010 MOVIES </s> -0.3010
-0.3010 MUCH </s> -0.3010
-0.3010 MUSEUM </s> -0.3010
-0.3010 MUSIC </s> -0.3010
-0.3010 MUSICAL </s> -0.3010
-0.3010 MUSICALS </s> -0.3010
-0.3010 MUSICIAN </s> -0.3010
-0.3010 MY </s> -0.3010
-0.3010 MYSTERY </s> -0.3010
-0.3010 NAME </s> -0.3010
-0.3010 NAPKINS </s> -0.3010
-0.3010 NEARBY </s> -0.3010
-0.3010 NEAREST </s> -0.3010
-0.3010 NEED </s> -0.3010
-0.3010 NEEDED </s> -0.3010
-0.3010 NEW </s> -0.3010
-0.3010 NEWS </s> -0.3010
-0.3010 NEXT </s> -0.3010
-0.3010 NIGHT </s> -0.3010
-0.3010 NIGHTS </s> -0.3010
-0.3010 NO </s> -0.3010
-0.3010 NON </s> -0.3010
-0.3010 NOVELS </s> -0.3010
-0.3010 NOW </s> -0.3010
-0.3010 NUTS </s> -0.3010
-0.3010 OCCUR </s> -0.3010
-0.3010 OF </s> -0.3010
-0.3010 OFFER </s> -0.3010
-0.3010 OFTEN </s> -0.3010
-0.3010 ON </s> -0.3010
-0.3010 ONBOARDING </s> -0.3010
-0.3010 ONE </s> -0.3010
-0.3010 ONIONS </s> -0.3010
-0.3010 ONLINE </s> -0.3010
-0.3010 OPPORTUNITIES </s> -0.3010
-0.3010 OPTIONS </s> -0.3010
-0.3010 OR </s> -0.3010
-0.3010 ORDER </s> -0.3010
-0.3010 OTHER </s> -0.3010
-0.3010 OUT </s> -0.3010
-0.3010 PASSWORD </s> -0.3010
-0.3010 PATH </s> -0.3010
-0.3010 PATHS </s> -0.3010
-0.3010 PAY </s> -0.3010
-0.3010 PEN </s> -0.3010
-0.3010 PEOPLE </s> -0.3010
-0.3010 PERFORMANCE </s> -0.3010
-0.3010 PERFORMANCES </s> -0.3010
-0.3010 PHARMACY </s> -0.3010
-0.3010 PHONE </s> -0.3010
-0.3010 PLACE </s> -0.3010
-0.3010 PLATFORMS </s> -0.3010
-0.3010 PLAY </s> -0.3010
-0.3010 PLAYED </s> -0.3010
-0.3010 PLAYING </s> -0.3010
-0.3010 PLEASE </s> -0.3010
-0.3010 PODCASTS </s> -0.3010
-0.3010 POLICY </s> -0.3010
-0.3010 POSITION </s> -0.3010
-0.3010 PRIORITIES </s> -0.3010
-0.3010 PRIORITIZE </s> -0.3010
-0.3010 PROCESS </s> -0.3010
-0.3010 PRODUCTS </s> -0.3010
-0.3010 PROFESSIONAL </s> -0.3010
-0.3010 PROGRAMS </s> -0.3010
-0.3010 PROJECT </s> -0.3010
-0.3010 PROJECTS </s> -0.3010
-0.3010 PROMOTION </s> -0.3010
-0.3010 PROVIDE </s> -0.3010
-0.3010 PROVIDED </s> -0.3010
-0.3010 PURSUITS </s> -0.3010
-0.3010 QUALITIES </s> -0.3010
-0.3010 QUOTE </s> -0.3010
-0.3010 RE </s> -0.3010
-0.3010 READ </s> -0.3010
-0.3010 READING </s> -0.3010
-0.3010 REALITY </s> -0.3010
-0.3010 REASONS </s> -0.3010
-0.3010 RECEIPT </s> -0.3010
-0.3010 RECENT </s> -0.3010
-0.3010 RECOMMEND </s> -0.3010
-0.3010 RECOMMENDATIONS </s> -0.3010
-0.3010 REFILL </s> -0.3010
-0.3010 REFUND </s> -0.3010
-0.3010 REMOTE </s> -0.3010
-0.3010 RENT </s> -0.3010
-0.3010 REPEAT </s> -0.3010
-0.3010 REQUIREMENTS </s> -0.3010
-0.3010 RESERVATION </s> -0.3010
-0.3010 RESOURCES </s> -0.3010
-0.3010 RESPONSIBILITIES </s> -0.3010
-0.3010 RESTAURANT </s> -0.3010
-0.3010 REVIEWS </s> -0.3010
-0.3010 REWARDING </s> -0.3010
-0.3010 RIDE </s> -0.3010
-0.3010 RIGHT </s> -0.3010
-0.3010 ROCK </s> -0.3010
-0.3010 ROLE </s> -0.3010
-0.3010 ROMANTIC </s> -0.3010
-0.3010 ROOM </s> -0.3010
-0.3010 SAFE </s> -0.3010
-0.3010 SALAD </s> -0.3010
-0.3010 SALE </s> -0.3010
-0.3010 SALTY </s> -0.3010
-0.3010 SAUCE </s> -0.3010
-0.3010 SCENE </s> -0.3010
-0.3010 SCI </s> -0.3010
-0.3010 SCRATCH </s> -0.3010
-0.3010 SEAT </s> -0.3010
-0.3010 SEE </s> -0.3010
-0.3010 SEEN </s> -0.3010
-0.3010 SERIES </s> -0.3010
-0.3010 SERVE </s> -0.3010
-0.3010 SERVED </s> -0.3010
-0.3010 SERVICE </s> -0.3010
-0.3010 SERVICES </s> -0.3010
-0.3010 SHELLFISH </s> -0.3010
-0.3010 SHOP </s> -0.3010
-0.3010 SHOW </s> -0.3010
-0.3010 SHOWS </s> -0.3010
-0.3010 SHUTTLE </s> -0.3010
-0.3010 SIDE </s> -0.3010
-0.3010 SING </s> -0.3010
-0.3010 SIT </s> -0.3010
-0.3010 SKILL </s> -0.3010
-0.3010 SKILLS </s> -0.3010
-0.3010 SNACK </s> -0.3010
-0.3010 SOFTWARE </s> -0.3010
-0.3010 SONG </s> -0.3010
-0.3010 SOUNDTRACK </s> -0.3010
-0.3010 SOUP </s> -0.3010
-0.3010 SOUVENIRS </s> -0.3010
-0.3010 SPEAK </s> -0.3010
-0.3010 SPECIAL </s> -0.3010
-0.3010 SPECIALS </s> -0.3010
-0.3010 SPECIALTIES </s> -0.3010
-0.3010 SPECIFIC </s> -0.3010
-0.3010 SPICY </s> -0.3010
-0.3010 SPLIT </s> -0.3010
-0.3010 SPORTS </s> -0.3010
-0.3010 STAND </s> -0.3010
-0.3010 START </s> -0.3010
-0.3010 STATION </s> -0.3010
-0.3010 STAY </s> -0.3010
-0.3010 STEAK </s> -0.3010
-0.3010 STORE </s> -0.3010
-0.3010 STREAMING </s> -0.3010
-0.3010 STRUCTURE </s> -0.3010
-0.3010 STUDENTS </s> -0.3010
-0.3010 STYLE </s> -0.3010
-0.3010 SUBSTITUTE </s> -0.3010
-0.3010 SUCCESS </s> -0.3010
-0.3010 SUGAR </s> -0.3010
-0.3010 SUPERHERO </s> -0.3010
-0.3010 SUPPORT </s> -0.3010
-0.3010 TABLE </s> -0.3010
-0.3010 TABLES </s> -0.3010
-0.3010 TAKE </s> -0.3010
-0.3010 TAKEN </s> -0.3010
-0.3010 TALK </s> -0.3010
-0.3010 TASKS </s> -0.3010
-0.3010 TAXI </s> -0.3010
-0.3010 TEAM </s> -0.3010
-0.3010 TEAMS </s> -0.3010
-0.3010 THAT </s> -0.3010
-0.3010 THE </s> -0.3010
-0.3010 THEATER </s> -0.3010
-0.3010 THEME </s> -0.3010
-0.3010 THERE </s> -0.3010
-0.3010 THIS </s> -0.3010
-0.3010 THRILLER </s> -0.3010
-0.3010 TICKET </s> -0.3010
-0.3010 TICKETS </s> -0.3010
-0.3010 TIME </s> -0.3010
-0.3010 TO </s> -0.3010
-0.3010 TODAY </s> -0.3010
-0.3010 TODAY’S </s> -0.3010
-0.3010 TOOLS </s> -0.3010
-0.3010 TOURS </s> -0.3010
-0.3010 TRADITION </s> -0.3010
-0.3010 TRAIN </s> -0.3010
-0.3010 TRAINING </s> -0.3010
-0.3010 TRAJECTORIES </s> -0.3010
-0.3010 TRANSITIONS </s> -0.3010
-0.3010 TRENDS </s> -0.3010
-0.3010 TRILOGY </s> -0.3010
-0.3010 TRY </s> -0.3010
-0.3010 TV </s> -0.3010
-0.3010 TWO </s> -0.3010
-0.3010 TYPES </s> -0.3010
-0.3010 TYPICAL </s> -0.3010
-0.3010 TYPICALLY </s> -0.3010
-0.3010 UP </s> -0.3010
-0.3010 UPDATED </s> -0.3010
-0.3010 USE </s> -0.3010
-0.3010 USING </s> -0.3010
-0.3010 VALUES </s> -0.3010
-0.3010 VEGAN </s> -0.3010
-0.3010 VEGETABLES </s> -0.3010
-0.3010 VEGETARIAN </s> -0.3010
-0.3010 VIDEO </s> -0.3010
-0.3010 VIEW </s> -0.3010
-0.3010 WAIT </s> -0.3010
-0.3010 WAITING </s> -0.3010
-0.3010 WAKE </s> -0.3010
-0.3010 WALK </s> -0.3010
-0.3010 WATCH </s> -0.3010
-0.3010 WATCHED </s> -0.3010
-0.3010 WATCHING </s> -0.3010
-0.3010 WATER </s> -0.3010
-0.3010 WAY </s> -0.3010
-0.3010 WE </s> -0.3010
-0.3010 WEEKEND </s> -0.3010
-0.3010 WELL </s> -0.3010
-0.3010 WENT </s> -0.3010
-0.3010 WHAT </s> -0.3010
-0.3010 WHATS </s> -0.3010
-0.3010 WHAT’S </s> -0.3010
-0.3010 WHEN </s> -0.3010
-0.3010 WHERE </s> -0.3010
-0.3010 WHO </s> -0.3010
-0.3010 WI </s> -0.3010
-0.3010 WILL </s> -0.3010
-0.3010 WINDOW </s> -0.3010
-0.3010 WINE </s> -0.3010
-0.3010 WITH </s> -0.3010
-0.3010 WITHIN </s> -0.3010
-0.3010 WORK </s> -0.3010
-0.3010 WORKDAY </s> -0.3010
-0.3010 WORKING </s> -0.3010
-0.3010 WORKLIFE </s> -0.3010
-0.3010 WOULD </s> -0.3010
-0.3010 YOU </s> -0.3010
-0.3010 YOUR </s> -0.3010
-0.3010 YOUTUBE </s> -0.3010
-0.3010 YOUVE </s> -0.3010

\3-grams:
-0.3010 <s> 6 </s>
-0.3010 <s> 7 </s>
-0.3010 <s> A </s>
-0.3010 <s> ACADEMIC </s>
-0.3010 <s> ACCEPT </s>
-0.3010 <s> ACTION </s>
-0.3010 <s> ACTOR </s>
-0.3010 <s> ADAPTATION </s>
-0.3010 <s> ADDRESS </s>
-0.3010 <s> ADVANCEMENT </s>
-0.3010 <s> AIRPORT </s>
-0.3010 <s> ALBUM </s>
-0.3010 <s> ALCOHOLIC </s>
-0.3010 <s> ALL </s>
-0.3010 <s> ALLERGIC </s>
-0.3010 <s> ALLERGY </s>
-0.3010 <s> AM </s>
-0.3010 <s> AN </s>
-0.3010 <s> AND </s>
-0.3010 <s> ANIMATED </s>
-0.3010 <s> ANY </s>
-0.3010 <s> APPOINTMENT </s>
-0.3010 <s> APPROACH </s>
-0.3010 <s> ARE </s>
-0.3010 <s> AROUND </s>
-0.3010 <s> ARRIVE </s>
-0.3010 <s> ASPECTS </s>
-0.3010 <s> ASSIGNMENT </s>
-0.3010 <s> AT </s>
-0.3010 <s> ATM </s>
-0.3010 <s> ATTENDED </s>
-0.3010 <s> ATTENDING </s>
-0.3010 <s> ATTRACTIONS </s>
-0.3010 <s> AUDIOBOOKS </s>
-0.3010 <s> AUTHORS </s>
-0.3010 <s> AVAILABLE </s>
-0.3010 <s> AWARD </s>
-0.3010 <s> BAG </s>
-0.3010 <s> BALANCE </s>
-0.3010 <s> BANK </s>
-0.3010 <s> BATHROOM </s>
-0.3010 <s> BE </s>
-0.3010 <s> BEACH </s>
-0.3010 <s> BEEN </s>
-0.3010 <s> BEST </s>
-0.3010 <s> BILL </s>
-0.3010 <s> BINGE </s>
-0.3010 <s> BIOGRAPHIES </s>
-0.3010 <s> BOARD </s>
-0.3010 <s> BOOK </s>
-0.3010 <s> BOOKS </s>
-0.3010 <s> BORROW </s>
-0.3010 <s> BOX </s>
-0.3010 <s> BREAD </s>
-0.3010 <s> BREAKFAST </s>
-0.3010 <s> BRING </s>
-0.3010 <s> BUS </s>
-0.3010 <s> BUY </s>
-0.3010 <s> BY </s>
-0.3010 <s> CAB </s>
-0.3010 <s> CALL </s>
-0.3010 <s> CAN </s>
-0.3010 <s> CAR </s>
-0.3010 <s> CARD </s>
-0.3010 <s> CARDS </s>
-0.3010 <s> CAREER </s>
-0.3010 <s> CASH </s>
-0.3010 <s> CELEBRITY </s>
-0.3010 <s> CHALLENGE </s>
-0.3010 <s> CHALLENGES </s>
-0.3010 <s> CHANNELS </s>
-0.3010 <s> CHARACTER </s>
-0.3010 <s> CHARGER </s>
-0.3010 <s> CHECK </s>
-0.3010 <s> CHEESE </s>
-0.3010 <s> CHILDHOOD </s>
-0.3010 <s> CHILDREN’S </s>
-0.3010 <s> CINEMA </s>
-0.3010 <s> CITY </s>
-0.3010 <s> CLASS </s>
-0.3010 <s> CLASSIC </s>
-0.3010 <s> CLASSICAL </s>
-0.3010 <s> CLOSE </s>
-0.3010 <s> CLOSELY </s>
-0.3010 <s> CLOSEST </s>
-0.3010 <s> CLUB </s>
-0.3010 <s> COFFEE </s>
-0.3010 <s> COLLABORATE </s>
-0.3010 <s> COMEDIAN </s>
-0.3010 <s> COMEDIES </s>
-0.3010 <s> COMEDY </s>
-0.3010 <s> COMICS </s>
-0.3010 <s> COMMON </s>
-0.3010 <s> COMMUNICATION </s>
-0.3010 <s> COMPANY </s>
-0.3010 <s> COMPANY’S </s>
-0.3010 <s> COMPLETE </s>
-0.3010 <s> CONCERT </s>
-0.3010 <s> CONCERTS </s>
-0.3010 <s> CONFLICTS </s>
-0.3010 <s> CONTAIN </s>
-0.3010 <s> CONTRIBUTE </s>
-0.3010 <s> COOKED </s>
-0.3010 <s> COOKING </s>
-0.3010 <s> COST </s>
-0.3010 <s> COULD </s>
-0.3010 <s> COURSE </s>
-0.3010 <s> CREDIT </s>
-0.3010 <s> CRIME </s>
-0.3010 <s> CROSS </s>
-0.3010 <s> CULTURE </s>
-0.3010 <s> CURRENT </s>
-0.3010 <s> DAILY </s>
-0.3010 <s> DAIRY </s>
-0.3010 <s> DAY </s>
-0.3010 <s> DEADLINE </s>
-0.3010 <s> DEPARTMENT </s>
-0.3010 <s> DEPARTMENTAL </s>
-0.3010 <s> DESCRIBE </s>
-0.3010 <s> DESSERT </s>
-0.3010 <s> DESSERTS </s>
-0.3010 <s> DETECTIVE </s>
-0.3010 <s> DEVELOPMENT </s>
-0.3010 <s> DID </s>
-0.3010 <s> DIFFERENT </s>
-0.3010 <s> DIRECTIONS </s>
-0.3010 <s> DIRECTOR </s>
-0.3010 <s> DISCOUNT </s>
-0.3010 <s> DISH </s>
-0.3010 <s> DO </s>
-0.3010 <s> DOCUMENTARIES </s>
-0.3010 <s> DOES </s>
-0.3010 <s> DOGGY </s>
-0.3010 <s> DONE </s>
-0.3010 <s> DOWNTOWN </s>
-0.3010 <s> DRESSING </s>
-0.3010 <s> DRINK </s>
-0.3010 <s> DRINKS </s>
-0.3010 <s> EAT </s>
-0.3010 <s> EFFECTIVE </s>
-0.3010 <s> EMPLOYEE </s>
-0.3010 <s> ENCOURAGED </s>
-0.3010 <s> ENJOY </s>
-0.3010 <s> ENSURE </s>
-0.3010 <s> ENTRY </s>
-0.3010 <s> ENVIRONMENT </s>
-0.3010 <s> EVER </s>
-0.3010 <s> EXAMPLE </s>
-0.3010 <s> EXAMPLES </s>
-0.3010 <s> EXPECTATIONS </s>
-0.3010 <s> EXPECTED </s>
-0.3010 <s> EXPLAIN </s>
-0.3010 <s> EXTRA </s>
-0.3010 <s> FACE </s>
-0.3010 <s> FANTASY </s>
-0.3010 <s> FAR </s>
-0.3010 <s> FAT </s>
-0.3010 <s> FAVORITE </s>
-0.3010 <s> FEE </s>
-0.3010 <s> FEEDBACK </s>
-0.3010 <s> FESTIVAL </s>
-0.3010 <s> FESTIVALS </s>
-0.3010 <s> FI </s>
-0.3010 <s> FICTION </s>
-0.3010 <s> FIELD </s>
-0.3010 <s> FILL </s>
-0.3010 <s> FILM </s>
-0.3010 <s> FILMS </s>
-0.3010 <s> FIND </s>
-0.3010 <s> FISH </s>
-0.3010 <s> FIT </s>
-0.3010 <s> FOLLOW </s>
-0.3010 <s> FOR </s>
-0.3010 <s> FORM </s>
-0.3010 <s> FOUND </s>
-0.3010 <s> FREE </s>
-0.3010 <s> FRESH </s>
-0.3010 <s> FRIES </s>
-0.3010 <s> FROM </s>
-0.3010 <s> FURTHER </s>
-0.3010 <s> GAME </s>
-0.3010 <s> GAMES </s>
-0.3010 <s> GENRE </s>
-0.3010 <s> GET </s>
-0.3010 <s> GIVE </s>
-0.3010 <s> GIVEN </s>
-0.3010 <s> GLASS </s>
-0.3010 <s> GLUTEN </s>
-0.3010 <s> GO </s>
-0.3010 <s> GOALS </s>
-0.3010 <s> GOES </s>
-0.3010 <s> GOING </s>
-0.3010 <s> GOOD </s>
-0.3010 <s> GOSSIP </s>
-0.3010 <s> GRAPHIC </s>
-0.3010 <s> GROCERY </s>
-0.3010 <s> GROWTH </s>
-0.3010 <s> GUIDE </s>
-0.3010 <s> GYM </s>
-0.3010 <s> HANDLE </s>
-0.3010 <s> HAVE </s>
-0.3010 <s> HELLO </s>
-0.3010 <s> HELP </s>
-0.3010 <s> HERE </s>
-0.3010 <s> HIRES </s>
-0.3010 <s> HOLIDAY </s>
-0.3010 <s> HORROR </s>
-0.3010 <s> HOSPITAL </s>
-0.3010 <s> HOT </s>
-0.3010 <s> HOTEL </s>
-0.3010 <s> HOW </s>
-0.3010 <s> I </s>
-0.3010 <s> IMPORTANT </s>
-0.3010 <s> IN </s>
-0.3010 <s> INCLUDED </s>
-0.3010 <s> INDICATORS </s>
-0.3010 <s> INDIE </s>
-0.3010 <s> INDUSTRY </s>
-0.3010 <s> INITIATIVES </s>
-0.3010 <s> INSTRUMENTS </s>
-0.3010 <s> INTO </s>
-0.3010 <s> IS </s>
-0.3010 <s> IT </s>
-0.3010 <s> ITEM </s>
-0.3010 <s> I’D </s>
-0.3010 <s> I’M </s>
-0.3010 <s> JAZZ </s>
-0.3010 <s> KARAOKE </s>
-0.3010 <s> KEY </s>
-0.3010 <s> KIND </s>
-0.3010 <s> LANGUAGES </s>
-0.3010 <s> LAST </s>
-0.3010 <s> LATE </s>
-0.3010 <s> LATEST </s>
-0.3010 <s> LAUNDRY </s>
-0.3010 <s> LEAVE </s>
-0.3010 <s> LESS </s>
-0.3010 <s> LETS </s>
-0.3010 <s> LIBRARY </s>
-0.3010 <s> LIFE </s>
-0.3010 <s> LIKE </s>
-0.3010 <s> LIST </s>
-0.3010 <s> LISTEN </s>
-0.3010 <s> LISTENING </s>
-0.3010 <s> LIVE </s>
-0.3010 <s> LOCAL </s>
-0.3010 <s> LONG </s>
-0.3010 <s> LOST </s>
-0.3010 <s> LOW </s>
-0.3010 <s> LUGGAGE </s>
-0.3010 <s> MACHINE </s>
-0.3010 <s> MADE </s>
-0.3010 <s> MAIN </s>
-0.3010 <s> MAJOR </s>
-0.3010 <s> MAKE </s>
-0.3010 <s> MANAGEMENT </s>
-0.3010 <s> MANAGER </s>
-0.3010 <s> MAP </s>
-0.3010 <s> MAY </s>
-0.3010 <s> ME </s>
-0.3010 <s> MEAL </s>
-0.3010 <s> MEASURE </s>
-0.3010 <s> MEETINGS </s>
-0.3010 <s> MENTORING </s>
-0.3010 <s> MENU </s>
-0.3010 <s> MIGHT </s>
-0.3010 <s> MISSION </s>
-0.3010 <s> MOCKUMENTARIES </s>
-0.3010 <s> MORE </s>
-0.3010 <s> MOST </s>
-0.3010 <s> MOVIE </s>
-0.3010 <s> MOVIES </s>
-0.3010 <s> MUCH </s>
-0.3010 <s> MUSEUM </s>
-0.3010 <s> MUSIC </s>
-0.3010 <s> MUSICAL </s>
-0.3010 <s> MUSICALS </s>
-0.3010 <s> MUSICIAN </s>
-0.3010 <s> MY </s>
-0.3010 <s> MYSTERY </s>
-0.3010 <s> NAME </s>
-0.3010 <s> NAPKINS </s>
-0.3010 <s> NEARBY </s>
-0.3010 <s> NEAREST </s>
-0.3010 <s> NEED </s>
-0.3010 <s> NEEDED </s>
-0.3010 <s> NEW </s>
-0.3010 <s> NEWS </s>
-0.3010 <s> NEXT </s>
-0.3010 <s> NIGHT </s>
-0.3010 <s> NIGHTS </s>
-0.3010 <s> NO </s>
-0.3010 <s> NON </s>
-0.3010 <s> NOVELS </s>
-0.3010 <s> NOW </s>
-0.3010 <s> NUTS </s>
-0.3010 <s> OCCUR </s>
-0.3010 <s> OF </s>
-0.3010 <s> OFFER </s>
-0.3010 <s> OFTEN </s>
-0.3010 <s> ON </s>
-0.3010 <s> ONBOARDING </s>
-0.3010 <s> ONE </s>
-0.3010 <s> ONIONS </s>
-0.3010 <s> ONLINE </s>
-0.3010 <s> OPPORTUNITIES </s>
-0.3010 <s> OPTIONS </s>
-0.3010 <s> OR </s>
-0.3010 <s> ORDER </s>
-0.3010 <s> OTHER </s>
-0.3010 <s> OUT </s>
-0.3010 <s> PASSWORD </s>
-0.3010 <s> PATH </s>
-0.3010 <s> PATHS </s>
-0.3010 <s> PAY </s>
-0.3010 <s> PEN </s>
-0.3010 <s> PEOPLE </s>
-0.3010 <s> PERFORMANCE </s>
-0.3010 <s> PERFORMANCES </s>
-0.3010 <s> PHARMACY </s>
-0.3010 <s> PHONE </s>
-0.3010 <s> PLACE </s>
-0.3010 <s> PLATFORMS </s>
-0.3010 <s> PLAY </s>
-0.3010 <s> PLAYED </s>
-0.3010 <s> PLAYING </s>
-0.3010 <s> PLEASE </s>
-0.3010 <s> PODCASTS </s>
-0.3010 <s> POLICY </s>
-0.3010 <s> POSITION </s>
-0.3010 <s> PRIORITIES </s>
-0.3010 <s> PRIORITIZE </s>
-0.3010 <s> PROCESS </s>
-0.3010 <s> PRODUCTS </s>
-0.3010 <s> PROFESSIONAL </s>
-0.3010 <s> PROGRAMS </s>
-0.3010 <s> PROJECT </s>
-0.3010 <s> PROJECTS </s>
-0.3010 <s> PROMOTION </s>
-0.3010 <s> PROVIDE </s>
-0.3010 <s> PROVIDED </s>
-0.3010 <s> PURSUITS </s>
-0.3010 <s> QUALITIES </s>
-0.3010 <s> QUOTE </s>
-0.3010 <s> RE </s>
-0.3010 <s> READ </s>
-0.3010 <s> READING </s>
-0.3010 <s> REALITY </s>
-0.3010 <s> REASONS </s>
-0.3010 <s> RECEIPT </s>
-0.3010 <s> RECENT </s>
-0.3010 <s> RECOMMEND </s>
-0.3010 <s> RECOMMENDATIONS </s>
-0.3010 <s> REFILL </s>
-0.3010 <s> REFUND </s>
-0.3010 <s> REMOTE </s>
-0.3010 <s> RENT </s>
-0.3010 <s> REPEAT </s>
-0.3010 <s> REQUIREMENTS </s>
-0.3010 <s> RESERVATION </s>
-0.3010 <s> RESOURCES </s>
-0.3010 <s> RESPONSIBILITIES </s>
-0.3010 <s> RESTAURANT </s>
-0.3010 <s> REVIEWS </s>
-0.3010 <s> REWARDING </s>
-0.3010 <s> RIDE </s>
-0.3010 <s> RIGHT </s>
-0.3010 <s> ROCK </s>
-0.3010 <s> ROLE </s>
-0.3010 <s> ROMANTIC </s>
-0.3010 <s> ROOM </s>
-0.3010 <s> SAFE </s>
-0.3010 <s> SALAD </s>
-0.3010 <s> SALE </s>
-0.3010 <s> SALTY </s>
-0.3010 <s> SAUCE </s>
-0.3010 <s> SCENE </s>
-0.3010 <s> SCI </s>
-0.3010 <s> SCRATCH </s>
-0.3010 <s> SEAT </s>
-0.3010 <s> SEE </s>
-0.3010 <s> SEEN </s>
-0.3010 <s> SERIES </s>
-0.3010 <s> SERVE </s>
-0.3010 <s> SERVED </s>
-0.3010 <s> SERVICE </s>
-0.3010 <s> SERVICES </s>
-0.3010 <s> SHELLFISH </s>
-0.3010 <s> SHOP </s>
-0.3010 <s> SHOW </s>
-0.3010 <s> SHOWS </s>
-0.3010 <s> SHUTTLE </s>
-0.3010 <s> SIDE </s>
-0.3010 <s> SING </s>
-0.3010 <s> SIT </s>
-0.3010 <s> SKILL </s>
-0.3010 <s> SKILLS </s>
-0.3010 <s> SNACK </s>
-0.3010 <s> SOFTWARE </s>
-0.3010 <s> SONG </s>
-0.3010 <s> SOUNDTRACK </s>
-0.3010 <s> SOUP </s>
-0.3010 <s> SOUVENIRS </s>
-0.3010 <s> SPEAK </s>
-0.3010 <s> SPECIAL </s>
-0.3010 <s> SPECIALS </s>
-0.3010 <s> SPECIALTIES </s>
-0.3010 <s> SPECIFIC </s>
-0.3010 <s> SPICY </s>
-0.3010 <s> SPLIT </s>
-0.3010 <s> SPORTS </s>
-0.3010 <s> STAND </s>
-0.3010 <s> START </s>
-0.3010 <s> STATION </s>
-0.3010 <s> STAY </s>
-0.3010 <s> STEAK </s>
-0.3010 <s> STORE </s>
-0.3010 <s> STREAMING </s>
-0.3010 <s> STRUCTURE </s>
-0.3010 <s> STUDENTS </s>
-0.3010 <s> STYLE </s>
-0.3010 <s> SUBSTITUTE </s>
-0.3010 <s> SUCCESS </s>
-0.3010 <s> SUGAR </s>
-0.3010 <s> SUPERHERO </s>
-0.3010 <s> SUPPORT </s>
-0.3010 <s> TABLE </s>
-0.3010 <s> TABLES </s>
-0.3010 <s> TAKE </s>
-0.3010 <s> TAKEN </s>
-0.3010 <s> TALK </s>
-0.3010 <s> TASKS </s>
-0.3010 <s> TAXI </s>
-0.3010 <s> TEAM </s>
-0.3010 <s> TEAMS </s>
-0.3010 <s> THAT </s>
-0.3010 <s> THE </s>
-0.3010 <s> THEATER </s>
-0.3010 <s> THEME </s>
-0.3010 <s> THERE </s>
-0.3010 <s> THIS </s>
-0.3010 <s> THRILLER </s>
-0.3010 <s> TICKET </s>
-0.3010 <s> TICKETS </s>
-0.3010 <s> TIME </s>
-0.3010 <s> TO </s>
-0.3010 <s> TODAY </s>
-0.3010 <s> TODAY’S </s>
-0.3010 <s> TOOLS </s>
-0.3010 <s> TOURS </s>
-0.3010 <s> TRADITION </s>
-0.3010 <s> TRAIN </s>
-0.3010 <s> TRAINING </s>
-0.3010 <s> TRAJECTORIES </s>
-0.3010 <s> TRANSITIONS </s>
-0.3010 <s> TRENDS </s>
-0.3010 <s> TRILOGY </s>
-0.3010 <s> TRY </s>
-0.3010 <s> TV </s>
-0.3010 <s> TWO </s>
-0.3010 <s> TYPES </s>
-0.3010 <s> TYPICAL </s>
-0.3010 <s> TYPICALLY </s>
-0.3010 <s> UP </s>
-0.3010 <s> UPDATED </s>
-0.3010 <s> USE </s>
-0.3010 <s> USING </s>
-0.3010 <s> VALUES </s>
-0.3010 <s> VEGAN </s>
-0.3010 <s> VEGETABLES </s>
-0.3010 <s> VEGETARIAN </s>
-0.3010 <s> VIDEO </s>
-0.3010 <s> VIEW </s>
-0.3010 <s> WAIT </s>
-0.3010 <s> WAITING </s>
-0.3010 <s> WAKE </s>
-0.3010 <s> WALK </s>
-0.3010 <s> WATCH </s>
-0.3010 <s> WATCHED </s>
-0.3010 <s> WATCHING </s>
-0.3010 <s> WATER </s>
-0.3010 <s> WAY </s>
-0.3010 <s> WE </s>
-0.3010 <s> WEEKEND </s>
-0.3010 <s> WELL </s>
-0.3010 <s> WENT </s>
-0.3010 <s> WHAT </s>
-0.3010 <s> WHATS </s>
-0.3010 <s> WHAT’S </s>
-0.3010 <s> WHEN </s>
-0.3010 <s> WHERE </s>
-0.3010 <s> WHO </s>
-0.3010 <s> WI </s>
-0.3010 <s> WILL </s>
-0.3010 <s> WINDOW </s>
-0.3010 <s> WINE </s>
-0.3010 <s> WITH </s>
-0.3010 <s> WITHIN </s>
-0.3010 <s> WORK </s>
-0.3010 <s> WORKDAY </s>
-0.3010 <s> WORKING </s>
-0.3010 <s> WORKLIFE </s>
-0.3010 <s> WOULD </s>
-0.3010 <s> YOU </s>
-0.3010 <s> YOUR </s>
-0.3010 <s> YOUTUBE </s>
-0.3010 <s> YOUVE </s>

\end\